{"learner":{"attributes":{},"feature_names":["Volume_BTC","btc_tweet_count","btc_posts_count","btc_textblob_polarity_min","btc_textblob_polarity_max","btc_textblob_polarity_mean","btc_vader_polarity_compound_min","btc_vader_polarity_compound_max","btc_vader_polarity_compound_mean","uncertainty_attention_twitter","cbdc_attention_twitter","regulation_attention_twitter","VStoxx","Gold","ECRPUS1YIndex","WTI_CrudeOil","Brent_CrudeOil","PercentHikeCut","monp_attention_twitter","monp_posts_count","monp_textblob_polarity_min","monp_textblob_polarity_max","monp_textblob_polarity_mean","monp_vader_polarity_compound_min","monp_vader_polarity_compound_max","monp_vader_polarity_compound_mean","sdcc_attention_twitter","sdcc_posts_count","sdcc_textblob_polarity_min","sdcc_textblob_polarity_max","sdcc_textblob_polarity_mean","sdcc_vader_polarity_compound_min","sdcc_vader_polarity_compound_max","sdcc_vader_polarity_compound_mean","crisis_posts_count","crisis_textblob_polarity_min","crisis_textblob_polarity_max","crisis_textblob_polarity_mean","crisis_vader_polarity_compound_min","crisis_vader_polarity_compound_max","crisis_vader_polarity_compound_mean","EUR003M_Index","EUR006M_Index","EUR001M_Index","EUR012M_Index","US0001M_Index","US0003M_Index","US0006M_Index","US0012M_Index","H15T1M_Index","H15T3M_Index","H15T6M_Index","H15T1Y_Index","H15T2Y_Index","H15T5Y_Index","H15T3Y_Index","H15T10Y_Index"],"feature_types":["float","int","float","float","float","float","float","float","float","int","int","int","float","float","float","float","float","float","int","float","float","float","float","float","float","float","int","int","float","float","float","float","float","float","int","float","float","float","float","float","float","float","float","float","float","float","float","float","float","float","float","float","float","float","float","float","float"],"gradient_booster":{"model":{"gbtree_model_param":{"num_parallel_tree":"1","num_trees":"3000"},"iteration_indptr":[0,3,6,9,12,15,18,21,24,27,30,33,36,39,42,45,48,51,54,57,60,63,66,69,72,75,78,81,84,87,90,93,96,99,102,105,108,111,114,117,120,123,126,129,132,135,138,141,144,147,150,153,156,159,162,165,168,171,174,177,180,183,186,189,192,195,198,201,204,207,210,213,216,219,222,225,228,231,234,237,240,243,246,249,252,255,258,261,264,267,270,273,276,279,282,285,288,291,294,297,300,303,306,309,312,315,318,321,324,327,330,333,336,339,342,345,348,351,354,357,360,363,366,369,372,375,378,381,384,387,390,393,396,399,402,405,408,411,414,417,420,423,426,429,432,435,438,441,444,447,450,453,456,459,462,465,468,471,474,477,480,483,486,489,492,495,498,501,504,507,510,513,516,519,522,525,528,531,534,537,540,543,546,549,552,555,558,561,564,567,570,573,576,579,582,585,588,591,594,597,600,603,606,609,612,615,618,621,624,627,630,633,636,639,642,645,648,651,654,657,660,663,666,669,672,675,678,681,684,687,690,693,696,699,702,705,708,711,714,717,720,723,726,729,732,735,738,741,744,747,750,753,756,759,762,765,768,771,774,777,780,783,786,789,792,795,798,801,804,807,810,813,816,819,822,825,828,831,834,837,840,843,846,849,852,855,858,861,864,867,870,873,876,879,882,885,888,891,894,897,900,903,906,909,912,915,918,921,924,927,930,933,936,939,942,945,948,951,954,957,960,963,966,969,972,975,978,981,984,987,990,993,996,999,1002,1005,1008,1011,1014,1017,1020,1023,1026,1029,1032,1035,1038,1041,1044,1047,1050,1053,1056,1059,1062,1065,1068,1071,1074,1077,1080,1083,1086,1089,1092,1095,1098,1101,1104,1107,1110,1113,1116,1119,1122,1125,1128,1131,1134,1137,1140,1143,1146,1149,1152,1155,1158,1161,1164,1167,1170,1173,1176,1179,1182,1185,1188,1191,1194,1197,1200,1203,1206,1209,1212,1215,1218,1221,1224,1227,1230,1233,1236,1239,1242,1245,1248,1251,1254,1257,1260,1263,1266,1269,1272,1275,1278,1281,1284,1287,1290,1293,1296,1299,1302,1305,1308,1311,1314,1317,1320,1323,1326,1329,1332,1335,1338,1341,1344,1347,1350,1353,1356,1359,1362,1365,1368,1371,1374,1377,1380,1383,1386,1389,1392,1395,1398,1401,1404,1407,1410,1413,1416,1419,1422,1425,1428,1431,1434,1437,1440,1443,1446,1449,1452,1455,1458,1461,1464,1467,1470,1473,1476,1479,1482,1485,1488,1491,1494,1497,1500,1503,1506,1509,1512,1515,1518,1521,1524,1527,1530,1533,1536,1539,1542,1545,1548,1551,1554,1557,1560,1563,1566,1569,1572,1575,1578,1581,1584,1587,1590,1593,1596,1599,1602,1605,1608,1611,1614,1617,1620,1623,1626,1629,1632,1635,1638,1641,1644,1647,1650,1653,1656,1659,1662,1665,1668,1671,1674,1677,1680,1683,1686,1689,1692,1695,1698,1701,1704,1707,1710,1713,1716,1719,1722,1725,1728,1731,1734,1737,1740,1743,1746,1749,1752,1755,1758,1761,1764,1767,1770,1773,1776,1779,1782,1785,1788,1791,1794,1797,1800,1803,1806,1809,1812,1815,1818,1821,1824,1827,1830,1833,1836,1839,1842,1845,1848,1851,1854,1857,1860,1863,1866,1869,1872,1875,1878,1881,1884,1887,1890,1893,1896,1899,1902,1905,1908,1911,1914,1917,1920,1923,1926,1929,1932,1935,1938,1941,1944,1947,1950,1953,1956,1959,1962,1965,1968,1971,1974,1977,1980,1983,1986,1989,1992,1995,1998,2001,2004,2007,2010,2013,2016,2019,2022,2025,2028,2031,2034,2037,2040,2043,2046,2049,2052,2055,2058,2061,2064,2067,2070,2073,2076,2079,2082,2085,2088,2091,2094,2097,2100,2103,2106,2109,2112,2115,2118,2121,2124,2127,2130,2133,2136,2139,2142,2145,2148,2151,2154,2157,2160,2163,2166,2169,2172,2175,2178,2181,2184,2187,2190,2193,2196,2199,2202,2205,2208,2211,2214,2217,2220,2223,2226,2229,2232,2235,2238,2241,2244,2247,2250,2253,2256,2259,2262,2265,2268,2271,2274,2277,2280,2283,2286,2289,2292,2295,2298,2301,2304,2307,2310,2313,2316,2319,2322,2325,2328,2331,2334,2337,2340,2343,2346,2349,2352,2355,2358,2361,2364,2367,2370,2373,2376,2379,2382,2385,2388,2391,2394,2397,2400,2403,2406,2409,2412,2415,2418,2421,2424,2427,2430,2433,2436,2439,2442,2445,2448,2451,2454,2457,2460,2463,2466,2469,2472,2475,2478,2481,2484,2487,2490,2493,2496,2499,2502,2505,2508,2511,2514,2517,2520,2523,2526,2529,2532,2535,2538,2541,2544,2547,2550,2553,2556,2559,2562,2565,2568,2571,2574,2577,2580,2583,2586,2589,2592,2595,2598,2601,2604,2607,2610,2613,2616,2619,2622,2625,2628,2631,2634,2637,2640,2643,2646,2649,2652,2655,2658,2661,2664,2667,2670,2673,2676,2679,2682,2685,2688,2691,2694,2697,2700,2703,2706,2709,2712,2715,2718,2721,2724,2727,2730,2733,2736,2739,2742,2745,2748,2751,2754,2757,2760,2763,2766,2769,2772,2775,2778,2781,2784,2787,2790,2793,2796,2799,2802,2805,2808,2811,2814,2817,2820,2823,2826,2829,2832,2835,2838,2841,2844,2847,2850,2853,2856,2859,2862,2865,2868,2871,2874,2877,2880,2883,2886,2889,2892,2895,2898,2901,2904,2907,2910,2913,2916,2919,2922,2925,2928,2931,2934,2937,2940,2943,2946,2949,2952,2955,2958,2961,2964,2967,2970,2973,2976,2979,2982,2985,2988,2991,2994,2997,3000],"tree_info":[0,1,2,0,1,2,0,1,2,0,1,2,0,1,2,0,1,2,0,1,2,0,1,2,0,1,2,0,1,2,0,1,2,0,1,2,0,1,2,0,1,2,0,1,2,0,1,2,0,1,2,0,1,2,0,1,2,0,1,2,0,1,2,0,1,2,0,1,2,0,1,2,0,1,2,0,1,2,0,1,2,0,1,2,0,1,2,0,1,2,0,1,2,0,1,2,0,1,2,0,1,2,0,1,2,0,1,2,0,1,2,0,1,2,0,1,2,0,1,2,0,1,2,0,1,2,0,1,2,0,1,2,0,1,2,0,1,2,0,1,2,0,1,2,0,1,2,0,1,2,0,1,2,0,1,2,0,1,2,0,1,2,0,1,2,0,1,2,0,1,2,0,1,2,0,1,2,0,1,2,0,1,2,0,1,2,0,1,2,0,1,2,0,1,2,0,1,2,0,1,2,0,1,2,0,1,2,0,1,2,0,1,2,0,1,2,0,1,2,0,1,2,0,1,2,0,1,2,0,1,2,0,1,2,0,1,2,0,1,2,0,1,2,0,1,2,0,1,2,0,1,2,0,1,2,0,1,2,0,1,2,0,1,2,0,1,2,0,1,2,0,1,2,0,1,2,0,1,2,0,1,2,0,1,2,0,1,2,0,1,2,0,1,2,0,1,2,0,1,2,0,1,2,0,1,2,0,1,2,0,1,2,0,1,2,0,1,2,0,1,2,0,1,2,0,1,2,0,1,2,0,1,2,0,1,2,0,1,2,0,1,2,0,1,2,0,1,2,0,1,2,0,1,2,0,1,2,0,1,2,0,1,2,0,1,2,0,1,2,0,1,2,0,1,2,0,1,2,0,1,2,0,1,2,0,1,2,0,1,2,0,1,2,0,1,2,0,1,2,0,1,2,0,1,2,0,1,2,0,1,2,0,1,2,0,1,2,0,1,2,0,1,2,0,1,2,0,1,2,0,1,2,0,1,2,0,1,2,0,1,2,0,1,2,0,1,2,0,1,2,0,1,2,0,1,2,0,1,2,0,1,2,0,1,2,0,1,2,0,1,2,0,1,2,0,1,2,0,1,2,0,1,2,0,1,2,0,1,2,0,1,2,0,1,2,0,1,2,0,1,2,0,1,2,0,1,2,0,1,2,0,1,2,0,1,2,0,1,2,0,1,2,0,1,2,0,1,2,0,1,2,0,1,2,0,1,2,0,1,2,0,1,2,0,1,2,0,1,2,0,1,2,0,1,2,0,1,2,0,1,2,0,1,2,0,1,2,0,1,2,0,1,2,0,1,2,0,1,2,0,1,2,0,1,2,0,1,2,0,1,2,0,1,2,0,1,2,0,1,2,0,1,2,0,1,2,0,1,2,0,1,2,0,1,2,0,1,2,0,1,2,0,1,2,0,1,2,0,1,2,0,1,2,0,1,2,0,1,2,0,1,2,0,1,2,0,1,2,0,1,2,0,1,2,0,1,2,0,1,2,0,1,2,0,1,2,0,1,2,0,1,2,0,1,2,0,1,2,0,1,2,0,1,2,0,1,2,0,1,2,0,1,2,0,1,2,0,1,2,0,1,2,0,1,2,0,1,2,0,1,2,0,1,2,0,1,2,0,1,2,0,1,2,0,1,2,0,1,2,0,1,2,0,1,2,0,1,2,0,1,2,0,1,2,0,1,2,0,1,2,0,1,2,0,1,2,0,1,2,0,1,2,0,1,2,0,1,2,0,1,2,0,1,2,0,1,2,0,1,2,0,1,2,0,1,2,0,1,2,0,1,2,0,1,2,0,1,2,0,1,2,0,1,2,0,1,2,0,1,2,0,1,2,0,1,2,0,1,2,0,1,2,0,1,2,0,1,2,0,1,2,0,1,2,0,1,2,0,1,2,0,1,2,0,1,2,0,1,2,0,1,2,0,1,2,0,1,2,0,1,2,0,1,2,0,1,2,0,1,2,0,1,2,0,1,2,0,1,2,0,1,2,0,1,2,0,1,2,0,1,2,0,1,2,0,1,2,0,1,2,0,1,2,0,1,2,0,1,2,0,1,2,0,1,2,0,1,2,0,1,2,0,1,2,0,1,2,0,1,2,0,1,2,0,1,2,0,1,2,0,1,2,0,1,2,0,1,2,0,1,2,0,1,2,0,1,2,0,1,2,0,1,2,0,1,2,0,1,2,0,1,2,0,1,2,0,1,2,0,1,2,0,1,2,0,1,2,0,1,2,0,1,2,0,1,2,0,1,2,0,1,2,0,1,2,0,1,2,0,1,2,0,1,2,0,1,2,0,1,2,0,1,2,0,1,2,0,1,2,0,1,2,0,1,2,0,1,2,0,1,2,0,1,2,0,1,2,0,1,2,0,1,2,0,1,2,0,1,2,0,1,2,0,1,2,0,1,2,0,1,2,0,1,2,0,1,2,0,1,2,0,1,2,0,1,2,0,1,2,0,1,2,0,1,2,0,1,2,0,1,2,0,1,2,0,1,2,0,1,2,0,1,2,0,1,2,0,1,2,0,1,2,0,1,2,0,1,2,0,1,2,0,1,2,0,1,2,0,1,2,0,1,2,0,1,2,0,1,2,0,1,2,0,1,2,0,1,2,0,1,2,0,1,2,0,1,2,0,1,2,0,1,2,0,1,2,0,1,2,0,1,2,0,1,2,0,1,2,0,1,2,0,1,2,0,1,2,0,1,2,0,1,2,0,1,2,0,1,2,0,1,2,0,1,2,0,1,2,0,1,2,0,1,2,0,1,2,0,1,2,0,1,2,0,1,2,0,1,2,0,1,2,0,1,2,0,1,2,0,1,2,0,1,2,0,1,2,0,1,2,0,1,2,0,1,2,0,1,2,0,1,2,0,1,2,0,1,2,0,1,2,0,1,2,0,1,2,0,1,2,0,1,2,0,1,2,0,1,2,0,1,2,0,1,2,0,1,2,0,1,2,0,1,2,0,1,2,0,1,2,0,1,2,0,1,2,0,1,2,0,1,2,0,1,2,0,1,2,0,1,2,0,1,2,0,1,2,0,1,2,0,1,2,0,1,2,0,1,2,0,1,2,0,1,2,0,1,2,0,1,2,0,1,2,0,1,2,0,1,2,0,1,2,0,1,2,0,1,2,0,1,2,0,1,2,0,1,2,0,1,2,0,1,2,0,1,2,0,1,2,0,1,2,0,1,2,0,1,2,0,1,2,0,1,2,0,1,2,0,1,2,0,1,2,0,1,2,0,1,2,0,1,2,0,1,2,0,1,2,0,1,2,0,1,2,0,1,2,0,1,2,0,1,2,0,1,2,0,1,2,0,1,2,0,1,2,0,1,2,0,1,2,0,1,2,0,1,2,0,1,2,0,1,2,0,1,2,0,1,2,0,1,2,0,1,2,0,1,2,0,1,2,0,1,2,0,1,2,0,1,2,0,1,2,0,1,2,0,1,2,0,1,2,0,1,2,0,1,2,0,1,2,0,1,2,0,1,2,0,1,2,0,1,2,0,1,2,0,1,2,0,1,2,0,1,2,0,1,2,0,1,2,0,1,2,0,1,2,0,1,2,0,1,2,0,1,2,0,1,2,0,1,2,0,1,2,0,1,2,0,1,2,0,1,2,0,1,2,0,1,2,0,1,2,0,1,2,0,1,2,0,1,2,0,1,2,0,1,2,0,1,2,0,1,2,0,1,2,0,1,2,0,1,2,0,1,2,0,1,2,0,1,2,0,1,2,0,1,2,0,1,2,0,1,2,0,1,2,0,1,2,0,1,2,0,1,2,0,1,2,0,1,2,0,1,2,0,1,2,0,1,2,0,1,2,0,1,2,0,1,2,0,1,2,0,1,2,0,1,2,0,1,2,0,1,2,0,1,2,0,1,2,0,1,2,0,1,2,0,1,2,0,1,2,0,1,2,0,1,2,0,1,2,0,1,2,0,1,2,0,1,2,0,1,2,0,1,2,0,1,2,0,1,2,0,1,2,0,1,2,0,1,2,0,1,2,0,1,2,0,1,2,0,1,2,0,1,2,0,1,2,0,1,2,0,1,2,0,1,2,0,1,2,0,1,2,0,1,2,0,1,2,0,1,2,0,1,2,0,1,2,0,1,2,0,1,2,0,1,2,0,1,2,0,1,2,0,1,2,0,1,2,0,1,2,0,1,2,0,1,2,0,1,2,0,1,2,0,1,2,0,1,2,0,1,2,0,1,2,0,1,2,0,1,2,0,1,2,0,1,2,0,1,2,0,1,2,0,1,2,0,1,2,0,1,2,0,1,2,0,1,2,0,1,2,0,1,2,0,1,2,0,1,2,0,1,2,0,1,2,0,1,2,0,1,2,0,1,2,0,1,2,0,1,2,0,1,2,0,1,2,0,1,2,0,1,2,0,1,2,0,1,2,0,1,2,0,1,2,0,1,2,0,1,2,0,1,2,0,1,2,0,1,2,0,1,2,0,1,2,0,1,2,0,1,2,0,1,2,0,1,2,0,1,2,0,1,2,0,1,2,0,1,2,0,1,2,0,1,2,0,1,2,0,1,2,0,1,2,0,1,2,0,1,2,0,1,2,0,1,2,0,1,2,0,1,2,0,1,2,0,1,2,0,1,2,0,1,2,0,1,2,0,1,2,0,1,2,0,1,2,0,1,2,0,1,2,0,1,2,0,1,2,0,1,2,0,1,2,0,1,2,0,1,2,0,1,2,0,1,2,0,1,2,0,1,2,0,1,2,0,1,2,0,1,2,0,1,2,0,1,2,0,1,2,0,1,2,0,1,2,0,1,2,0,1,2,0,1,2,0,1,2,0,1,2,0,1,2,0,1,2,0,1,2,0,1,2,0,1,2,0,1,2,0,1,2,0,1,2,0,1,2,0,1,2,0,1,2,0,1,2,0,1,2,0,1,2,0,1,2,0,1,2,0,1,2,0,1,2,0,1,2,0,1,2,0,1,2,0,1,2,0,1,2,0,1,2,0,1,2,0,1,2,0,1,2,0,1,2,0,1,2,0,1,2,0,1,2,0,1,2,0,1,2,0,1,2,0,1,2,0,1,2,0,1,2,0,1,2,0,1,2,0,1,2,0,1,2,0,1,2,0,1,2,0,1,2,0,1,2,0,1,2,0,1,2,0,1,2,0,1,2,0,1,2,0,1,2,0,1,2,0,1,2,0,1,2,0,1,2,0,1,2,0,1,2,0,1,2,0,1,2,0,1,2,0,1,2,0,1,2,0,1,2,0,1,2,0,1,2,0,1,2,0,1,2,0,1,2,0,1,2,0,1,2,0,1,2,0,1,2,0,1,2,0,1,2,0,1,2,0,1,2,0,1,2,0,1,2,0,1,2,0,1,2,0,1,2,0,1,2,0,1,2,0,1,2,0,1,2,0,1,2,0,1,2,0,1,2,0,1,2,0,1,2,0,1,2,0,1,2,0,1,2,0,1,2,0,1,2,0,1,2,0,1,2,0,1,2,0,1,2,0,1,2,0,1,2,0,1,2,0,1,2,0,1,2,0,1,2,0,1,2,0,1,2,0,1,2,0,1,2,0,1,2,0,1,2,0,1,2,0,1,2,0,1,2,0,1,2,0,1,2,0,1,2,0,1,2,0,1,2,0,1,2,0,1,2,0,1,2,0,1,2,0,1,2,0,1,2,0,1,2,0,1,2,0,1,2,0,1,2,0,1,2,0,1,2,0,1,2,0,1,2,0,1,2,0,1,2,0,1,2,0,1,2,0,1,2,0,1,2,0,1,2,0,1,2,0,1,2,0,1,2,0,1,2,0,1,2,0,1,2,0,1,2,0,1,2,0,1,2,0,1,2,0,1,2,0,1,2,0,1,2,0,1,2,0,1,2,0,1,2,0,1,2,0,1,2,0,1,2,0,1,2,0,1,2,0,1,2,0,1,2,0,1,2,0,1,2,0,1,2,0,1,2,0,1,2,0,1,2,0,1,2,0,1,2,0,1,2,0,1,2,0,1,2,0,1,2,0,1,2,0,1,2,0,1,2,0,1,2,0,1,2,0,1,2,0,1,2,0,1,2,0,1,2,0,1,2,0,1,2,0,1,2,0,1,2,0,1,2,0,1,2,0,1,2,0,1,2,0,1,2,0,1,2,0,1,2,0,1,2,0,1,2,0,1,2,0,1,2,0,1,2,0,1,2,0,1,2,0,1,2,0,1,2,0,1,2,0,1,2,0,1,2,0,1,2,0,1,2,0,1,2,0,1,2,0,1,2,0,1,2,0,1,2,0,1,2,0,1,2,0,1,2,0,1,2,0,1,2,0,1,2,0,1,2,0,1,2,0,1,2,0,1,2,0,1,2,0,1,2,0,1,2,0,1,2,0,1,2,0,1,2,0,1,2,0,1,2,0,1,2,0,1,2,0,1,2,0,1,2,0,1,2,0,1,2,0,1,2,0,1,2,0,1,2,0,1,2,0,1,2,0,1,2,0,1,2,0,1,2,0,1,2,0,1,2,0,1,2,0,1,2,0,1,2,0,1,2,0,1,2,0,1,2,0,1,2,0,1,2,0,1,2,0,1,2,0,1,2,0,1,2,0,1,2,0,1,2,0,1,2,0,1,2,0,1,2,0,1,2,0,1,2,0,1,2,0,1,2,0,1,2,0,1,2,0,1,2,0,1,2,0,1,2,0,1,2,0,1,2,0,1,2,0,1,2,0,1,2,0,1,2,0,1,2,0,1,2,0,1,2,0,1,2,0,1,2,0,1,2,0,1,2,0,1,2],"trees":[{"base_weights":[3.3934328E-1,6.106456E-1,1.6897503E-1,2.5736275E-1,-6.741575E-2,4.8979592E-1,6.0953554E-2],"categories":[],"categories_nodes":[],"categories_segments":[],"categories_sizes":[],"default_left":[0,0,0,0,0,0,0],"id":0,"left_children":[1,3,5,-1,-1,-1,-1],"loss_changes":[2.695681E1,5.863373E0,6.135311E0,0E0,0E0,0E0,0E0],"parents":[2147483647,0,0,1,1,2,2],"right_children":[2,4,6,-1,-1,-1,-1],"split_conditions":[3.04E2,2.86463E0,3.1E-1,2.5736275E-1,-6.741575E-2,4.8979592E-1,6.0953554E-2],"split_indices":[1,47,54,0,0,0,0],"split_type":[0,0,0,0,0,0,0],"sum_hessian":[5.844444E2,2.2444443E2,3.5999997E2,2.1555554E2,8.888888E0,4.444444E0,3.5555554E2],"tree_param":{"num_deleted":"0","num_feature":"57","num_nodes":"7","size_leaf_vector":"1"}},{"base_weights":[-1.2867722E-1,-7.260805E-2,-4.1656947E-1,-5.914776E-3,-1.1009177E-1,1.3608246E-1,-2.0286088E-1],"categories":[],"categories_nodes":[],"categories_segments":[],"categories_sizes":[],"default_left":[0,0,0,0,0,0,0],"id":1,"left_children":[1,3,5,-1,-1,-1,-1],"loss_changes":[9.419928E0,5.750988E0,6.7000923E0,0E0,0E0,0E0,0E0],"parents":[2147483647,0,0,1,1,2,2],"right_children":[2,4,6,-1,-1,-1,-1],"split_conditions":[2.82138E0,3.15E1,3.0277777E-1,-5.914776E-3,-1.1009177E-1,1.3608246E-1,-2.0286088E-1],"split_indices":[48,14,29,0,0,0,0],"split_type":[0,0,0,0,0,0,0],"sum_hessian":[5.844444E2,4.902222E2,9.422221E1,3.822222E2,1.0799999E2,9.777777E0,8.444444E1],"tree_param":{"num_deleted":"0","num_feature":"57","num_nodes":"7","size_leaf_vector":"1"}},{"base_weights":[-2.1066621E-1,-3.265994E-1,-9.0978935E-2,-1.376377E-1,2.6938775E-1,-1.3855672E-1,-1.2963851E-2],"categories":[],"categories_nodes":[],"categories_segments":[],"categories_sizes":[],"default_left":[0,0,0,0,0,0,0],"id":2,"left_children":[1,3,5,-1,-1,-1,-1],"loss_changes":[8.093754E0,5.4280663E0,4.3186755E0,0E0,0E0,0E0,0E0],"parents":[2147483647,0,0,1,1,2,2],"right_children":[2,4,6,-1,-1,-1,-1],"split_conditions":[4.29E2,2.88906E0,1.8E1,-1.376377E-1,2.6938775E-1,-1.3855672E-1,-1.2963851E-2],"split_indices":[1,47,19,0,0,0,0],"split_type":[0,0,0,0,0,0,0],"sum_hessian":[5.844444E2,2.9599997E2,2.8844443E2,2.9155554E2,4.444444E0,5.2888885E1,2.3555554E2],"tree_param":{"num_deleted":"0","num_feature":"57","num_nodes":"7","size_leaf_vector":"1"}},{"base_weights":[2.2226056E-1,4.3678558E-1,1.2678239E-1,1.3808225E-1,2.821897E-1,-1.7935382E-1,5.9509188E-2],"categories":[],"categories_nodes":[],"categories_segments":[],"categories_sizes":[],"default_left":[0,0,0,0,0,0,0],"id":3,"left_children":[1,3,5,-1,-1,-1,-1],"loss_changes":[1.2595404E1,4.4272346E0,5.490546E0,0E0,0E0,0E0,0E0],"parents":[2147483647,0,0,1,1,2,2],"right_children":[2,4,6,-1,-1,-1,-1],"split_conditions":[2.55E2,2.60388E0,-9.69E1,1.3808225E-1,2.821897E-1,-1.7935382E-1,5.9509188E-2],"split_indices":[1,47,17,0,0,0,0],"split_type":[0,0,0,0,0,0,0],"sum_hessian":[6.1663983E2,1.888185E2,4.2782135E2,1.4252498E2,4.629351E1,1.5040657E1,4.127807E2],"tree_param":{"num_deleted":"0","num_feature":"57","num_nodes":"7","size_leaf_vector":"1"}},{"base_weights":[-9.047867E-2,1.2597202E-1,-1.4717901E-1,2.3093425E-2,3.1491488E-1,3.2273304E-2,-9.2070095E-2],"categories":[],"categories_nodes":[],"categories_segments":[],"categories_sizes":[],"default_left":[0,0,0,0,0,0,0],"id":4,"left_children":[1,3,5,-1,-1,-1,-1],"loss_changes":[6.9812584E0,5.293268E0,8.529293E0,0E0,0E0,0E0,0E0],"parents":[2147483647,0,0,1,1,2,2],"right_children":[2,4,6,-1,-1,-1,-1],"split_conditions":[3.24E2,2.3665E0,2.5763E-1,2.3093425E-2,3.1491488E-1,3.2273304E-2,-9.2070095E-2],"split_indices":[11,45,47,0,0,0,0],"split_type":[0,0,0,0,0,0,0],"sum_hessian":[5.6632794E2,1.1730403E2,4.4902393E2,1.0731765E2,9.986376E0,1.1989251E2,3.2913144E2],"tree_param":{"num_deleted":"0","num_feature":"57","num_nodes":"7","size_leaf_vector":"1"}},{"base_weights":[-1.5429795E-1,-2.4433108E-1,-5.0250117E-2,-1.09656334E-1,1.0367196E-1,9.292451E-2,-4.2419277E-2],"categories":[],"categories_nodes":[],"categories_segments":[],"categories_sizes":[],"default_left":[0,0,0,0,0,0,0],"id":5,"left_children":[1,3,5,-1,-1,-1,-1],"loss_changes":[5.20568E0,4.5492764E0,4.1184435E0,0E0,0E0,0E0,0E0],"parents":[2147483647,0,0,1,1,2,2],"right_children":[2,4,6,-1,-1,-1,-1],"split_conditions":[7.651E3,2.86044E0,3.8642835E-2,-1.09656334E-1,1.0367196E-1,9.292451E-2,-4.2419277E-2],"split_indices":[9,47,37,0,0,0,0],"split_type":[0,0,0,0,0,0,0],"sum_hessian":[5.5601276E2,2.9735858E2,2.5865417E2,2.811679E2,1.6190666E1,4.2132385E1,2.1652179E2],"tree_param":{"num_deleted":"0","num_feature":"57","num_nodes":"7","size_leaf_vector":"1"}},{"base_weights":[1.4933093E-1,2.6875237E-1,4.7966696E-2,3.992492E-2,1.4677778E-1,-9.725138E-3,9.887679E-2],"categories":[],"categories_nodes":[],"categories_segments":[],"categories_sizes":[],"default_left":[0,0,0,0,0,0,0],"id":6,"left_children":[1,3,5,-1,-1,-1,-1],"loss_changes":[7.630295E0,4.7685013E0,4.9414263E0,0E0,0E0,0E0,0E0],"parents":[2147483647,0,0,1,1,2,2],"right_children":[2,4,6,-1,-1,-1,-1],"split_conditions":[3.59E2,3.43E2,4.839E3,3.992492E-2,1.4677778E-1,-9.725138E-3,9.887679E-2],"split_indices":[1,11,11,0,0,0,0],"split_type":[0,0,0,0,0,0,0],"sum_hessian":[6.304041E2,2.8866476E2,3.4173938E2,1.06848236E2,1.8181653E2,2.5140634E2,9.033302E1],"tree_param":{"num_deleted":"0","num_feature":"57","num_nodes":"7","size_leaf_vector":"1"}},{"base_weights":[-6.195279E-2,-2.3007696E-2,-3.2744244E-1,4.3085753E-3,-1.7783456E-1,2.3317425E-1,-1.4378926E-1],"categories":[],"categories_nodes":[],"categories_segments":[],"categories_sizes":[],"default_left":[0,0,0,0,0,0,0],"id":7,"left_children":[1,3,5,-1,-1,-1,-1],"loss_changes":[5.7059517E0,6.882591E0,2.2686768E0,0E0,0E0,0E0,0E0],"parents":[2147483647,0,0,1,1,2,2],"right_children":[2,4,6,-1,-1,-1,-1],"split_conditions":[1.2284849E-1,2.99E0,-6.666667E-1,4.3085753E-3,-1.7783456E-1,2.3317425E-1,-1.4378926E-1],"split_indices":[30,56,20,0,0,0,0],"split_type":[0,0,0,0,0,0,0],"sum_hessian":[5.515872E2,4.8197253E2,6.9614655E1,4.4712125E2,3.485129E1,1.7815008E0,6.783315E1],"tree_param":{"num_deleted":"0","num_feature":"57","num_nodes":"7","size_leaf_vector":"1"}},{"base_weights":[-1.1253181E-1,-3.4788448E-1,-8.048691E-2,3.2874506E-2,-1.8478797E-1,-4.1870277E-2,1.1206397E-1],"categories":[],"categories_nodes":[],"categories_segments":[],"categories_sizes":[],"default_left":[0,0,0,0,0,0,0],"id":8,"left_children":[1,3,5,-1,-1,-1,-1],"loss_changes":[3.9967947E0,3.1610842E0,4.138218E0,0E0,0E0,0E0,0E0],"parents":[2147483647,0,0,1,1,2,2],"right_children":[2,4,6,-1,-1,-1,-1],"split_conditions":[4.45E1,1.648E3,6.5E1,3.2874506E-2,-1.8478797E-1,-4.1870277E-2,1.1206397E-1],"split_indices":[16,10,34,0,0,0,0],"split_type":[0,0,0,0,0,0,0],"sum_hessian":[5.3266113E2,6.2652905E1,4.700082E2,1.3194159E1,4.9458748E1,4.4113104E2,2.8877161E1],"tree_param":{"num_deleted":"0","num_feature":"57","num_nodes":"7","size_leaf_vector":"1"}},{"base_weights":[1.017962E-1,4.6784493E-1,7.439533E-2,2.5394616E-1,-7.2140135E-2,8.612507E-2,3.827917E-3],"categories":[],"categories_nodes":[],"categories_segments":[],"categories_sizes":[],"default_left":[0,0,0,0,0,0,0],"id":9,"left_children":[1,3,5,-1,-1,-1,-1],"loss_changes":[6.3453445E0,4.8900194E0,5.414951E0,0E0,0E0,0E0,0E0],"parents":[2147483647,0,0,1,1,2,2],"right_children":[2,4,6,-1,-1,-1,-1],"split_conditions":[6.11E2,2.1003E4,8.983077E-2,2.5394616E-1,-7.2140135E-2,8.612507E-2,3.827917E-3],"split_indices":[10,18,25,0,0,0,0],"split_type":[0,0,0,0,0,0,0],"sum_hessian":[6.3510333E2,4.3110836E1,5.919925E2,3.429469E1,8.816145E0,1.857938E2,4.0619873E2],"tree_param":{"num_deleted":"0","num_feature":"57","num_nodes":"7","size_leaf_vector":"1"}},{"base_weights":[-4.2231146E-2,1.0388549E-2,-2.0121726E-1,-3.773248E-2,4.4466507E-2,3.3626184E-1,-9.359551E-2],"categories":[],"categories_nodes":[],"categories_segments":[],"categories_sizes":[],"default_left":[0,0,0,0,0,0,0],"id":10,"left_children":[1,3,5,-1,-1,-1,-1],"loss_changes":[4.531432E0,4.3134365E0,4.795216E0,0E0,0E0,0E0,0E0],"parents":[2147483647,0,0,1,1,2,2],"right_children":[2,4,6,-1,-1,-1,-1],"split_conditions":[-2.2E-1,5.009525E4,2.474E1,-3.773248E-2,4.4466507E-2,3.3626184E-1,-9.359551E-2],"split_indices":[35,0,15,0,0,0,0],"split_type":[0,0,0,0,0,0,0],"sum_hessian":[5.404116E2,4.067305E2,1.3368109E2,1.994955E2,2.0723502E2,3.3248684E0,1.3035623E2],"tree_param":{"num_deleted":"0","num_feature":"57","num_nodes":"7","size_leaf_vector":"1"}},{"base_weights":[-8.116064E-2,-1.0196479E-1,2.087717E-1,-8.92261E-2,-1.7356949E-2,3.272271E-1,-4.5259014E-2],"categories":[],"categories_nodes":[],"categories_segments":[],"categories_sizes":[],"default_left":[0,0,0,0,0,0,0],"id":11,"left_children":[1,3,5,-1,-1,-1,-1],"loss_changes":[3.1344044E0,3.4108849E0,6.9346166E0,0E0,0E0,0E0,0E0],"parents":[2147483647,0,0,1,1,2,2],"right_children":[2,4,6,-1,-1,-1,-1],"split_conditions":[-1.25E-1,7.351E-1,-2.96E-1,-8.92261E-2,-1.7356949E-2,3.272271E-1,-4.5259014E-2],"split_indices":[35,32,6,0,0,0,0],"split_type":[0,0,0,0,0,0,0],"sum_hessian":[5.15118E2,4.8123517E2,3.3882793E1,1.5596463E2,3.2527054E2,1.1180417E1,2.2702375E1],"tree_param":{"num_deleted":"0","num_feature":"57","num_nodes":"7","size_leaf_vector":"1"}},{"base_weights":[6.94623E-2,3.2672085E-2,2.6436538E-1,2.3654869E-2,-1.8822148E-1,-1.3579445E-1,1.3989459E-1],"categories":[],"categories_nodes":[],"categories_segments":[],"categories_sizes":[],"default_left":[0,0,0,0,0,0,0],"id":12,"left_children":[1,3,5,-1,-1,-1,-1],"loss_changes":[4.5665836E0,7.19132E0,5.3344707E0,0E0,0E0,0E0,0E0],"parents":[2147483647,0,0,1,1,2,2],"right_children":[2,4,6,-1,-1,-1,-1],"split_conditions":[2.60388E0,2.13E0,5.163E1,2.3654869E-2,-1.8822148E-1,-1.3579445E-1,1.3989459E-1],"split_indices":[47,49,15,0,0,0,0],"split_type":[0,0,0,0,0,0,0],"sum_hessian":[6.370594E2,5.368839E2,1.00175415E2,5.1089786E2,2.5986088E1,1.2039604E1,8.813581E1],"tree_param":{"num_deleted":"0","num_feature":"57","num_nodes":"7","size_leaf_vector":"1"}},{"base_weights":[-2.8126517E-2,3.613896E-3,-2.5813287E-1,-1.5169035E-2,1.2852798E-1,-2.2882251E-1,-5.9474148E-2],"categories":[],"categories_nodes":[],"categories_segments":[],"categories_sizes":[],"default_left":[0,0,0,0,0,0,0],"id":13,"left_children":[1,3,5,-1,-1,-1,-1],"loss_changes":[3.8952818E0,6.2110033E0,2.137926E0,0E0,0E0,0E0,0E0],"parents":[2147483647,0,0,1,1,2,2],"right_children":[2,4,6,-1,-1,-1,-1],"split_conditions":[1.2284849E-1,-6.428E-1,1.6060606E-2,-1.5169035E-2,1.2852798E-1,-2.2882251E-1,-5.9474148E-2],"split_indices":[30,31,5,0,0,0,0],"split_type":[0,0,0,0,0,0,0],"sum_hessian":[5.3243616E2,4.6873584E2,6.3700306E1,4.153183E2,5.341755E1,1.5374774E1,4.8325535E1],"tree_param":{"num_deleted":"0","num_feature":"57","num_nodes":"7","size_leaf_vector":"1"}},{"base_weights":[-5.8257684E-2,-4.083564E-2,-3.988112E-1,-2.129534E-2,2.003709E-1,-2.0107071E-1,1.3108201E-1],"categories":[],"categories_nodes":[],"categories_segments":[],"categories_sizes":[],"default_left":[0,0,0,0,0,0,0],"id":14,"left_children":[1,3,5,-1,-1,-1,-1],"loss_changes":[2.9694839E0,3.2509956E0,2.0042598E0,0E0,0E0,0E0,0E0],"parents":[2147483647,0,0,1,1,2,2],"right_children":[2,4,6,-1,-1,-1,-1],"split_conditions":[2.740577E-1,2E-1,2.79345E1,-2.129534E-2,2.003709E-1,-2.0107071E-1,1.3108201E-1],"split_indices":[5,3,12,0,0,0,0],"split_type":[0,0,0,0,0,0,0],"sum_hessian":[5.022361E2,4.7885858E2,2.3377546E1,4.6902286E2,9.835725E0,2.0723005E1,2.6545415E0],"tree_param":{"num_deleted":"0","num_feature":"57","num_nodes":"7","size_leaf_vector":"1"}},{"base_weights":[4.73096E-2,1.7051633E-1,-5.2711796E-3,2.9167412E-2,1.4504196E-1,2.2629772E-1,-8.782575E-3],"categories":[],"categories_nodes":[],"categories_segments":[],"categories_sizes":[],"default_left":[0,0,0,0,0,0,0],"id":15,"left_children":[1,3,5,-1,-1,-1,-1],"loss_changes":[4.1339474E0,3.551703E0,4.2819247E0,0E0,0E0,0E0,0E0],"parents":[2147483647,0,0,1,1,2,2],"right_children":[2,4,6,-1,-1,-1,-1],"split_conditions":[2.55E2,2.4E1,-3.4689668E-1,2.9167412E-2,1.4504196E-1,2.2629772E-1,-8.782575E-3],"split_indices":[1,27,33,0,0,0,0],"split_type":[0,0,0,0,0,0,0],"sum_hessian":[6.369829E2,1.898606E2,4.4712228E2,1.2680976E2,6.3050842E1,1.1759883E1,4.353624E2],"tree_param":{"num_deleted":"0","num_feature":"57","num_nodes":"7","size_leaf_vector":"1"}},{"base_weights":[-1.9162944E-2,-7.9762764E-2,9.775443E-2,-4.8969608E-2,8.047169E-2,1.4720793E-2,1.8319254E-1],"categories":[],"categories_nodes":[],"categories_segments":[],"categories_sizes":[],"default_left":[0,0,0,0,0,0,0],"id":16,"left_children":[1,3,5,-1,-1,-1,-1],"loss_changes":[3.7454505E0,4.195486E0,3.947103E0,0E0,0E0,0E0,0E0],"parents":[2147483647,0,0,1,1,2,2],"right_children":[2,4,6,-1,-1,-1,-1],"split_conditions":[-1.75E-1,7.096E-1,9.161E-1,-4.8969608E-2,8.047169E-2,1.4720793E-2,1.8319254E-1],"split_indices":[28,7,32,0,0,0,0],"split_type":[0,0,0,0,0,0,0],"sum_hessian":[5.265318E2,3.4699664E2,1.7953516E2,3.0174124E2,4.52554E1,1.5449576E2,2.50394E1],"tree_param":{"num_deleted":"0","num_feature":"57","num_nodes":"7","size_leaf_vector":"1"}},{"base_weights":[-4.064792E-2,-7.379523E-2,1.5410145E-1,-1.178871E-2,-1.1741086E-1,1.8027693E-1,-2.8347925E-3],"categories":[],"categories_nodes":[],"categories_segments":[],"categories_sizes":[],"default_left":[0,0,0,0,0,0,0],"id":17,"left_children":[1,3,5,-1,-1,-1,-1],"loss_changes":[3.1993299E0,4.108041E0,3.4525948E0,0E0,0E0,0E0,0E0],"parents":[2147483647,0,0,1,1,2,2],"right_children":[2,4,6,-1,-1,-1,-1],"split_conditions":[2.9E0,2.67214E0,3E1,-1.178871E-2,-1.1741086E-1,1.8027693E-1,-2.8347925E-3],"split_indices":[56,48,26,0,0,0,0],"split_type":[0,0,0,0,0,0,0],"sum_hessian":[4.9284222E2,4.216896E2,7.1152596E1,3.5184995E2,6.983966E1,2.4421095E1,4.6731503E1],"tree_param":{"num_deleted":"0","num_feature":"57","num_nodes":"7","size_leaf_vector":"1"}},{"base_weights":[3.2307025E-2,3.0087602E-1,1.2462094E-2,-2.864547E-1,1.6157423E-1,1.6095301E-2,-8.358111E-2],"categories":[],"categories_nodes":[],"categories_segments":[],"categories_sizes":[],"default_left":[0,0,0,0,0,0,0],"id":18,"left_children":[1,3,5,-1,-1,-1,-1],"loss_changes":[3.3816164E0,4.865617E0,3.6524549E0,0E0,0E0,0E0,0E0],"parents":[2147483647,0,0,1,1,2,2],"right_children":[2,4,6,-1,-1,-1,-1],"split_conditions":[6.2E2,4.657E1,-6.31E-1,-2.864547E-1,1.6157423E-1,1.6095301E-2,-8.358111E-2],"split_indices":[10,15,31,0,0,0,0],"split_type":[0,0,0,0,0,0,0],"sum_hessian":[6.341848E2,4.2662033E1,5.9152277E2,3.3780434E0,3.928399E1,5.2631555E2,6.5207214E1],"tree_param":{"num_deleted":"0","num_feature":"57","num_nodes":"7","size_leaf_vector":"1"}},{"base_weights":[-1.2161677E-2,1.4858545E-1,-5.7388943E-2,1.1906473E-2,1.666789E-1,7.6990174E-3,-6.803856E-2],"categories":[],"categories_nodes":[],"categories_segments":[],"categories_sizes":[],"default_left":[0,0,0,0,0,0,0],"id":19,"left_children":[1,3,5,-1,-1,-1,-1],"loss_changes":[3.8103628E0,3.6544387E0,3.5345767E0,0E0,0E0,0E0,0E0],"parents":[2147483647,0,0,1,1,2,2],"right_children":[2,4,6,-1,-1,-1,-1],"split_conditions":[3.24E2,1.66E0,-1.0985E-2,1.1906473E-2,1.666789E-1,7.6990174E-3,-6.803856E-2],"split_indices":[11,55,33,0,0,0,0],"split_type":[0,0,0,0,0,0,0],"sum_hessian":[5.219375E2,1.1410374E2,4.0783377E2,7.983447E1,3.4269268E1,2.4325766E2,1.645761E2],"tree_param":{"num_deleted":"0","num_feature":"57","num_nodes":"7","size_leaf_vector":"1"}},{"base_weights":[-2.9106352E-2,5.660096E-1,-3.968991E-2,3.4178424E-1,-1.7093593E-1,-1.8401085E-1,-1.0097458E-2],"categories":[],"categories_nodes":[],"categories_segments":[],"categories_sizes":[],"default_left":[0,0,0,0,0,0,0],"id":20,"left_children":[1,3,5,-1,-1,-1,-1],"loss_changes":[3.086852E0,2.8198178E0,2.896801E0,0E0,0E0,0E0,0E0],"parents":[2147483647,0,0,1,1,2,2],"right_children":[2,4,6,-1,-1,-1,-1],"split_conditions":[-7.8E-1,5.5E1,6.5E-1,3.4178424E-1,-1.7093593E-1,-1.8401085E-1,-1.0097458E-2],"split_indices":[20,34,56,0,0,0,0],"split_type":[0,0,0,0,0,0,0],"sum_hessian":[4.8553082E2,7.566817E0,4.77964E2,5.9723663E0,1.5944504E0,1.4856161E1,4.6310785E2],"tree_param":{"num_deleted":"0","num_feature":"57","num_nodes":"7","size_leaf_vector":"1"}},{"base_weights":[2.220504E-2,1.4086312E-2,6.425609E-1,2.5757534E-2,-3.696357E-2,3.7773582E-1,-2.3944035E-2],"categories":[],"categories_nodes":[],"categories_segments":[],"categories_sizes":[],"default_left":[0,0,0,0,0,0,0],"id":21,"left_children":[1,3,5,-1,-1,-1,-1],"loss_changes":[3.1800637E0,3.3599842E0,1.785691E0,0E0,0E0,0E0,0E0],"parents":[2147483647,0,0,1,1,2,2],"right_children":[2,4,6,-1,-1,-1,-1],"split_conditions":[1E0,1.1985E-1,4.0395E-2,2.5757534E-2,-3.696357E-2,3.7773582E-1,-2.3944035E-2],"split_indices":[21,8,40,0,0,0,0],"split_type":[0,0,0,0,0,0,0],"sum_hessian":[6.322006E2,6.250432E2,7.157365E0,4.2477716E2,2.0026608E2,4.765551E0,2.3918135E0],"tree_param":{"num_deleted":"0","num_feature":"57","num_nodes":"7","size_leaf_vector":"1"}},{"base_weights":[-7.6323077E-3,1.3190189E-2,-3.1424952E-1,2.4372337E-3,4.473866E-1,2.1857801E-1,-1.6466476E-1],"categories":[],"categories_nodes":[],"categories_segments":[],"categories_sizes":[],"default_left":[0,0,0,0,0,0,0],"id":22,"left_children":[1,3,5,-1,-1,-1,-1],"loss_changes":[3.3191655E0,3.8146563E0,2.9966805E0,0E0,0E0,0E0,0E0],"parents":[2147483647,0,0,1,1,2,2],"right_children":[2,4,6,-1,-1,-1,-1],"split_conditions":[2.99E0,1.00308E5,3.0277777E-1,2.4372337E-3,4.473866E-1,2.1857801E-1,-1.6466476E-1],"split_indices":[56,18,29,0,0,0,0],"split_type":[0,0,0,0,0,0,0],"sum_hessian":[5.182265E2,4.8616766E2,3.2058857E1,4.8406494E2,2.1027236E0,2.7908118E0,2.9268045E1],"tree_param":{"num_deleted":"0","num_feature":"57","num_nodes":"7","size_leaf_vector":"1"}},{"base_weights":[-2.0981815E-2,2.0453204E-1,-4.5805816E-2,-6.353844E-2,2.1498607E-1,-1.23386815E-1,-7.5410404E-3],"categories":[],"categories_nodes":[],"categories_segments":[],"categories_sizes":[],"default_left":[0,0,0,0,0,0,0],"id":23,"left_children":[1,3,5,-1,-1,-1,-1],"loss_changes":[2.7034411E0,5.8808265E0,3.0691142E0,0E0,0E0,0E0,0E0],"parents":[2147483647,0,0,1,1,2,2],"right_children":[2,4,6,-1,-1,-1,-1],"split_conditions":[-2.4146667E-1,-3.05275E-1,4.432E1,-6.353844E-2,2.1498607E-1,-1.23386815E-1,-7.5410404E-3],"split_indices":[33,33,16,0,0,0,0],"split_type":[0,0,0,0,0,0,0],"sum_hessian":[4.802428E2,4.6903973E1,4.3333884E2,2.2676601E1,2.422737E1,3.935702E1,3.939818E2],"tree_param":{"num_deleted":"0","num_feature":"57","num_nodes":"7","size_leaf_vector":"1"}},{"base_weights":[1.5209494E-2,4.054211E-1,2.9760168E-3,2.2880149E-1,-1.6046827E-1,-1.0594781E-1,8.908392E-3],"categories":[],"categories_nodes":[],"categories_segments":[],"categories_sizes":[],"default_left":[0,0,0,0,0,0,0],"id":24,"left_children":[1,3,5,-1,-1,-1,-1],"loss_changes":[3.01601E0,2.8100429E0,3.1783254E0,0E0,0E0,0E0,0E0],"parents":[2147483647,0,0,1,1,2,2],"right_children":[2,4,6,-1,-1,-1,-1],"split_conditions":[-8E-1,-5.574E-1,-9.026E-1,2.2880149E-1,-1.6046827E-1,-1.0594781E-1,8.908392E-3],"split_indices":[28,23,23,0,0,0,0],"split_type":[0,0,0,0,0,0,0],"sum_hessian":[6.310572E2,1.8205805E1,6.128514E2,1.5330489E1,2.8753145E0,4.0326496E1,5.725249E2],"tree_param":{"num_deleted":"0","num_feature":"57","num_nodes":"7","size_leaf_vector":"1"}},{"base_weights":[-4.5402674E-3,-4.051162E-1,1.1083072E-2,-1.9784705E-1,2.0226996E-1,3.4751475E-1,1.0667404E-3],"categories":[],"categories_nodes":[],"categories_segments":[],"categories_sizes":[],"default_left":[0,0,0,0,0,0,0],"id":25,"left_children":[1,3,5,-1,-1,-1,-1],"loss_changes":[3.2369297E0,1.8327813E0,3.593183E0,0E0,0E0,0E0,0E0],"parents":[2147483647,0,0,1,1,2,2],"right_children":[2,4,6,-1,-1,-1,-1],"split_conditions":[-7.6666665E-1,-3.125E-2,2.493E1,-1.9784705E-1,2.0226996E-1,3.4751475E-1,1.0667404E-3],"split_indices":[28,20,16,0,0,0,0],"split_type":[0,0,0,0,0,0,0],"sum_hessian":[5.1550165E2,1.8415133E1,4.9708655E2,1.7183487E1,1.2316471E0,3.8369045E0,4.9324963E2],"tree_param":{"num_deleted":"0","num_feature":"57","num_nodes":"7","size_leaf_vector":"1"}},{"base_weights":[-1.5226389E-2,4.8621306E-3,-2.9676366E-1,-4.0471796E-3,1.7834625E-1,1.1667775E-1,-1.5546113E-1],"categories":[],"categories_nodes":[],"categories_segments":[],"categories_sizes":[],"default_left":[0,0,0,0,0,0,0],"id":26,"left_children":[1,3,5,-1,-1,-1,-1],"loss_changes":[2.7011375E0,2.9544456E0,1.8332963E0,0E0,0E0,0E0,0E0],"parents":[2147483647,0,0,1,1,2,2],"right_children":[2,4,6,-1,-1,-1,-1],"split_conditions":[-1.25E-2,-3.5714287E-2,-7.63E-1,-4.0471796E-3,1.7834625E-1,1.1667775E-1,-1.5546113E-1],"split_indices":[20,20,23,0,0,0,0],"split_type":[0,0,0,0,0,0,0],"sum_hessian":[4.763433E2,4.455357E2,3.0807566E1,4.3184384E2,1.3691886E1,3.8672552E0,2.694031E1],"tree_param":{"num_deleted":"0","num_feature":"57","num_nodes":"7","size_leaf_vector":"1"}},{"base_weights":[1.036209E-2,1.0688459E-1,-3.251316E-2,1.3122065E-1,5.9544905E-3,1.1024731E-1,-2.2511756E-2],"categories":[],"categories_nodes":[],"categories_segments":[],"categories_sizes":[],"default_left":[0,0,0,0,0,0,0],"id":27,"left_children":[1,3,5,-1,-1,-1,-1],"loss_changes":[2.616512E0,3.95136E0,3.2228174E0,0E0,0E0,0E0,0E0],"parents":[2147483647,0,0,1,1,2,2],"right_children":[2,4,6,-1,-1,-1,-1],"split_conditions":[8.983077E-2,6.996E-1,6.11E2,1.3122065E-1,5.9544905E-3,1.1024731E-1,-2.2511756E-2],"split_indices":[25,32,10,0,0,0,0],"split_type":[0,0,0,0,0,0,0],"sum_hessian":[6.304083E2,1.934386E2,4.3696973E2,5.6072548E1,1.3736604E2,3.0531313E1,4.0643842E2],"tree_param":{"num_deleted":"0","num_feature":"57","num_nodes":"7","size_leaf_vector":"1"}},{"base_weights":[-2.6666848E-3,2.5344422E-2,-2.141786E-1,-1.4559636E-3,1.2330096E-1,-1.068774E-1,1.4846082E-1],"categories":[],"categories_nodes":[],"categories_segments":[],"categories_sizes":[],"default_left":[0,0,0,0,0,0,0],"id":28,"left_children":[1,3,5,-1,-1,-1,-1],"loss_changes":[3.0566397E0,3.7375474E0,1.9713671E0,0E0,0E0,0E0,0E0],"parents":[2147483647,0,0,1,1,2,2],"right_children":[2,4,6,-1,-1,-1,-1],"split_conditions":[1.2284849E-1,-1.1137566E-1,3.4484348E-1,-1.4559636E-3,1.2330096E-1,-1.068774E-1,1.4846082E-1],"split_indices":[30,28,25,0,0,0,0],"split_type":[0,0,0,0,0,0,0],"sum_hessian":[5.1399994E2,4.546673E2,5.933267E1,4.1331018E2,4.1357098E1,5.4903442E1,4.429229E0],"tree_param":{"num_deleted":"0","num_feature":"57","num_nodes":"7","size_leaf_vector":"1"}},{"base_weights":[-1.0890017E-2,3.457963E-1,-2.5012482E-2,2.6310623E-1,-4.3015134E-2,-2.2236657E-1,-3.133205E-3],"categories":[],"categories_nodes":[],"categories_segments":[],"categories_sizes":[],"default_left":[0,0,0,0,0,0,0],"id":29,"left_children":[1,3,5,-1,-1,-1,-1],"loss_changes":[2.3997915E0,2.6370883E0,4.168725E0,0E0,0E0,0E0,0E0],"parents":[2147483647,0,0,1,1,2,2],"right_children":[2,4,6,-1,-1,-1,-1],"split_conditions":[1.19508E1,2.0285583E-1,1.23888E1,2.6310623E-1,-4.3015134E-2,-2.2236657E-1,-3.133205E-3],"split_indices":[12,4,12,0,0,0,0],"split_type":[0,0,0,0,0,0,0],"sum_hessian":[4.7368823E2,1.7146227E1,4.56542E2,9.889592E0,7.2566347E0,1.332719E1,4.432148E2],"tree_param":{"num_deleted":"0","num_feature":"57","num_nodes":"7","size_leaf_vector":"1"}},{"base_weights":[7.398303E-3,-5.5504704E-1,1.5120589E-2,1.0474346E-1,-2.9418787E-1,-6.982949E-2,1.4467614E-2],"categories":[],"categories_nodes":[],"categories_segments":[],"categories_sizes":[],"default_left":[0,0,0,0,0,0,0],"id":30,"left_children":[1,3,5,-1,-1,-1,-1],"loss_changes":[2.7395191E0,1.4517233E0,2.4868684E0,0E0,0E0,0E0,0E0],"parents":[2147483647,0,0,1,1,2,2],"right_children":[2,4,6,-1,-1,-1,-1],"split_conditions":[1.1E1,-6.408461E-2,9.75E-2,1.0474346E-1,-2.9418787E-1,-6.982949E-2,1.4467614E-2],"split_indices":[26,25,45,0,0,0,0],"split_type":[0,0,0,0,0,0,0],"sum_hessian":[6.278044E2,7.5429754E0,6.202614E2,1.2829152E0,6.2600603E0,6.1221622E1,5.590398E2],"tree_param":{"num_deleted":"0","num_feature":"57","num_nodes":"7","size_leaf_vector":"1"}},{"base_weights":[-1.3643862E-3,4.114035E-2,-1.3391213E-1,4.789841E-2,-2.4298646E-2,2.4893801E-1,-7.133211E-2],"categories":[],"categories_nodes":[],"categories_segments":[],"categories_sizes":[],"default_left":[0,0,0,0,0,0,0],"id":31,"left_children":[1,3,5,-1,-1,-1,-1],"loss_changes":[2.8949804E0,3.1235793E0,4.3020678E0,0E0,0E0,0E0,0E0],"parents":[2147483647,0,0,1,1,2,2],"right_children":[2,4,6,-1,-1,-1,-1],"split_conditions":[-2.2291666E-1,1E0,-9.245E-1,4.789841E-2,-2.4298646E-2,2.4893801E-1,-7.133211E-2],"split_indices":[35,17,23,0,0,0,0],"split_type":[0,0,0,0,0,0,0],"sum_hessian":[5.118716E2,3.8810553E2,1.2376609E2,2.1898419E2,1.6912134E2,6.1442294E0,1.17621864E2],"tree_param":{"num_deleted":"0","num_feature":"57","num_nodes":"7","size_leaf_vector":"1"}},{"base_weights":[-8.366477E-3,3.838097E-2,-1.1288478E-1,3.1672117E-1,9.454335E-3,-6.575522E-2,1.7389321E-1],"categories":[],"categories_nodes":[],"categories_segments":[],"categories_sizes":[],"default_left":[0,0,0,0,0,0,0],"id":32,"left_children":[1,3,5,-1,-1,-1,-1],"loss_changes":[2.3124666E0,3.6157563E0,4.1961856E0,0E0,0E0,0E0,0E0],"parents":[2147483647,0,0,1,1,2,2],"right_children":[2,4,6,-1,-1,-1,-1],"split_conditions":[-5.994E-1,-3.453421E-1,3.0377E4,3.1672117E-1,9.454335E-3,-6.575522E-2,1.7389321E-1],"split_indices":[23,40,9,0,0,0,0],"split_type":[0,0,0,0,0,0,0],"sum_hessian":[4.7140097E2,3.2615558E2,1.4524539E2,5.2490516E0,3.2090652E2,1.3339906E2,1.1846323E1],"tree_param":{"num_deleted":"0","num_feature":"57","num_nodes":"7","size_leaf_vector":"1"}},{"base_weights":[4.930139E-3,1.7684026E-1,-1.7141065E-2,1.7746557E-1,-8.375864E-2,1.1734231E-2,-4.680552E-2],"categories":[],"categories_nodes":[],"categories_segments":[],"categories_sizes":[],"default_left":[0,0,0,0,0,0,0],"id":33,"left_children":[1,3,5,-1,-1,-1,-1],"loss_changes":[2.3833947E0,7.458316E0,2.5883727E0,0E0,0E0,0E0,0E0],"parents":[2147483647,0,0,1,1,2,2],"right_children":[2,4,6,-1,-1,-1,-1],"split_conditions":[4.122E1,3.3713E-1,1.1985E-1,1.7746557E-1,-8.375864E-2,1.1734231E-2,-4.680552E-2],"split_indices":[15,46,8,0,0,0,0],"split_type":[0,0,0,0,0,0,0],"sum_hessian":[6.2635846E2,7.046924E1,5.558892E2,4.1589394E1,2.8879848E1,3.798357E2,1.7605356E2],"tree_param":{"num_deleted":"0","num_feature":"57","num_nodes":"7","size_leaf_vector":"1"}},{"base_weights":[-9.2015316E-4,6.683663E-1,-8.211536E-3,-5.6946665E-2,4.6708795E-1,-9.720415E-2,8.10784E-3],"categories":[],"categories_nodes":[],"categories_segments":[],"categories_sizes":[],"default_left":[0,0,0,0,0,0,0],"id":34,"left_children":[1,3,5,-1,-1,-1,-1],"loss_changes":[2.499399E0,2.40081E0,3.3922307E0,0E0,0E0,0E0,0E0],"parents":[2147483647,0,0,1,1,2,2],"right_children":[2,4,6,-1,-1,-1,-1],"split_conditions":[-9.758E-1,5.3409092E-2,-9.378E-1,-5.6946665E-2,4.6708795E-1,-9.720415E-2,8.10784E-3],"split_indices":[38,30,38,0,0,0,0],"split_type":[0,0,0,0,0,0,0],"sum_hessian":[5.1004483E2,4.519594E0,5.0552524E2,1.9951828E0,2.5244112E0,5.3871944E1,4.516533E2],"tree_param":{"num_deleted":"0","num_feature":"57","num_nodes":"7","size_leaf_vector":"1"}},{"base_weights":[-5.580343E-3,3.7906936E-1,-1.7919753E-2,-1.892928E-1,2.5905967E-1,8.417473E-3,-6.431739E-2],"categories":[],"categories_nodes":[],"categories_segments":[],"categories_sizes":[],"default_left":[0,0,0,0,0,0,0],"id":35,"left_children":[1,3,5,-1,-1,-1,-1],"loss_changes":[2.2375479E0,3.6608846E0,2.5437605E0,0E0,0E0,0E0,0E0],"parents":[2147483647,0,0,1,1,2,2],"right_children":[2,4,6,-1,-1,-1,-1],"split_conditions":[3.25E-1,9.8455176E-2,-9.375E-2,-1.892928E-1,2.5905967E-1,8.417473E-3,-6.431739E-2],"split_indices":[36,25,20,0,0,0,0],"split_type":[0,0,0,0,0,0,0],"sum_hessian":[4.6899377E2,1.3653717E1,4.5534006E2,3.0890524E0,1.0564665E1,3.5844138E2,9.6898705E1],"tree_param":{"num_deleted":"0","num_feature":"57","num_nodes":"7","size_leaf_vector":"1"}},{"base_weights":[3.5559656E-3,-3.251637E-2,1.1283142E-1,1.4043257E-1,-1.9404024E-2,-1.467243E-3,1.3385366E-1],"categories":[],"categories_nodes":[],"categories_segments":[],"categories_sizes":[],"default_left":[0,0,0,0,0,0,0],"id":36,"left_children":[1,3,5,-1,-1,-1,-1],"loss_changes":[2.4673874E0,2.9047172E0,4.0152245E0,0E0,0E0,0E0,0E0],"parents":[2147483647,0,0,1,1,2,2],"right_children":[2,4,6,-1,-1,-1,-1],"split_conditions":[3E-1,5.04E2,1.81205E3,1.4043257E-1,-1.9404024E-2,-1.467243E-3,1.3385366E-1],"split_indices":[4,10,13,0,0,0,0],"split_type":[0,0,0,0,0,0,0],"sum_hessian":[6.2402045E2,4.696795E2,1.5434096E2,1.7960396E1,4.5171912E2,1.0183608E2,5.2504864E1],"tree_param":{"num_deleted":"0","num_feature":"57","num_nodes":"7","size_leaf_vector":"1"}},{"base_weights":[-2.0433792E-4,-2.215284E-1,2.2061005E-2,1.64678E-1,-1.3569975E-1,4.7742356E-2,-2.0902175E-2],"categories":[],"categories_nodes":[],"categories_segments":[],"categories_sizes":[],"default_left":[0,0,0,0,0,0,0],"id":37,"left_children":[1,3,5,-1,-1,-1,-1],"loss_changes":[2.516673E0,3.6194317E0,3.361463E0,0E0,0E0,0E0,0E0],"parents":[2147483647,0,0,1,1,2,2],"right_children":[2,4,6,-1,-1,-1,-1],"split_conditions":[8.1018516E-4,1.8E1,-6.278889E-2,1.64678E-1,-1.3569975E-1,4.7742356E-2,-2.0902175E-2],"split_indices":[30,19,33,0,0,0,0],"split_type":[0,0,0,0,0,0,0],"sum_hessian":[5.0871176E2,4.568088E1,4.6303085E2,6.769641E0,3.891124E1,2.002535E2,2.6277737E2],"tree_param":{"num_deleted":"0","num_feature":"57","num_nodes":"7","size_leaf_vector":"1"}},{"base_weights":[-4.5229457E-3,3.0875655E-2,-1.3844521E-1,1.9027401E-3,1.6100791E-1,7.954697E-3,-1.4555022E-1],"categories":[],"categories_nodes":[],"categories_segments":[],"categories_sizes":[],"default_left":[0,0,0,0,0,0,0],"id":38,"left_children":[1,3,5,-1,-1,-1,-1],"loss_changes":[2.2246432E0,3.601934E0,3.5087085E0,0E0,0E0,0E0,0E0],"parents":[2147483647,0,0,1,1,2,2],"right_children":[2,4,6,-1,-1,-1,-1],"split_conditions":[8.130068E4,6.5E1,-1.4351852E-2,1.9027401E-3,1.6100791E-1,7.954697E-3,-1.4555022E-1],"split_indices":[0,34,3,0,0,0,0],"split_type":[0,0,0,0,0,0,0],"sum_hessian":[4.6736688E2,3.702667E2,9.710018E1,3.468997E2,2.3366991E1,5.7574368E1,3.9525818E1],"tree_param":{"num_deleted":"0","num_feature":"57","num_nodes":"7","size_leaf_vector":"1"}},{"base_weights":[3.2924085E-3,1.1953778E-2,-4.4450045E-1,-7.738191E-4,1.6065773E-1,2.3846748E-1,-2.6094636E-1],"categories":[],"categories_nodes":[],"categories_segments":[],"categories_sizes":[],"default_left":[0,0,0,0,0,0,0],"id":39,"left_children":[1,3,5,-1,-1,-1,-1],"loss_changes":[2.427166E0,3.32143E0,2.9577012E0,0E0,0E0,0E0,0E0],"parents":[2147483647,0,0,1,1,2,2],"right_children":[2,4,6,-1,-1,-1,-1],"split_conditions":[1.7717E4,3.02E0,3.164E-1,-7.738191E-4,1.6065773E-1,2.3846748E-1,-2.6094636E-1],"split_indices":[11,54,7,0,0,0,0],"split_type":[0,0,0,0,0,0,0],"sum_hessian":[6.234303E2,6.1255536E2,1.0874959E1,5.9243634E2,2.011902E1,1.4995381E0,9.375422E0],"tree_param":{"num_deleted":"0","num_feature":"57","num_nodes":"7","size_leaf_vector":"1"}},{"base_weights":[-5.494421E-4,8.674142E-2,-5.0473638E-2,9.076754E-2,-6.891128E-2,-8.518138E-2,7.5924904E-3],"categories":[],"categories_nodes":[],"categories_segments":[],"categories_sizes":[],"default_left":[0,0,0,0,0,0,0],"id":40,"left_children":[1,3,5,-1,-1,-1,-1],"loss_changes":[2.2226286E0,6.776807E0,3.6654394E0,0E0,0E0,0E0,0E0],"parents":[2147483647,0,0,1,1,2,2],"right_children":[2,4,6,-1,-1,-1,-1],"split_conditions":[2.3E1,1.71013E0,-9.001E-1,9.076754E-2,-6.891128E-2,-8.518138E-2,7.5924904E-3],"split_indices":[19,45,38,0,0,0,0],"split_type":[0,0,0,0,0,0,0],"sum_hessian":[5.080152E2,1.8456746E2,3.2344775E2,1.1983729E2,6.473017E1,9.6240555E1,2.272072E2],"tree_param":{"num_deleted":"0","num_feature":"57","num_nodes":"7","size_leaf_vector":"1"}},{"base_weights":[-3.8030697E-3,4.556495E-2,-9.9372715E-2,1.4540561E-3,1.1571752E-1,3.6129277E-2,-1.263941E-1],"categories":[],"categories_nodes":[],"categories_segments":[],"categories_sizes":[],"default_left":[0,0,0,0,0,0,0],"id":41,"left_children":[1,3,5,-1,-1,-1,-1],"loss_changes":[2.2080858E0,3.1531763E0,6.5782523E0,0E0,0E0,0E0,0E0],"parents":[2147483647,0,0,1,1,2,2],"right_children":[2,4,6,-1,-1,-1,-1],"split_conditions":[8.555E-1,2.9E1,-3.2777777E-1,1.4540561E-3,1.1571752E-1,3.6129277E-2,-1.263941E-1],"split_indices":[24,27,35,0,0,0,0],"split_type":[0,0,0,0,0,0,0],"sum_hessian":[4.6604507E2,3.076479E2,1.5839717E2,2.6335638E2,4.429151E1,8.475606E1,7.364111E1],"tree_param":{"num_deleted":"0","num_feature":"57","num_nodes":"7","size_leaf_vector":"1"}},{"base_weights":[2.8003259E-3,3.501648E-1,-7.4582477E-3,-1.6388899E-1,2.2038567E-1,-1.385469E-1,6.124414E-3],"categories":[],"categories_nodes":[],"categories_segments":[],"categories_sizes":[],"default_left":[0,0,0,0,0,0,0],"id":42,"left_children":[1,3,5,-1,-1,-1,-1],"loss_changes":[2.2214112E0,2.9542527E0,4.679862E0,0E0,0E0,0E0,0E0],"parents":[2147483647,0,0,1,1,2,2],"right_children":[2,4,6,-1,-1,-1,-1],"split_conditions":[-5.67E-1,1.9E1,-5.24E-1,-1.6388899E-1,2.2038567E-1,-1.385469E-1,6.124414E-3],"split_indices":[41,19,42,0,0,0,0],"split_type":[0,0,0,0,0,0,0],"sum_hessian":[6.2165247E2,1.6881912E1,6.0477057E2,3.3111262E0,1.3570786E1,3.7178326E1,5.675922E2],"tree_param":{"num_deleted":"0","num_feature":"57","num_nodes":"7","size_leaf_vector":"1"}},{"base_weights":[-9.2464464E-4,3.571522E-2,-1.1794771E-1,3.565972E-3,1.19994596E-1,2.930801E-1,-5.9301842E-2],"categories":[],"categories_nodes":[],"categories_segments":[],"categories_sizes":[],"default_left":[0,0,0,0,0,0,0],"id":43,"left_children":[1,3,5,-1,-1,-1,-1],"loss_changes":[2.1798973E0,2.7396843E0,3.2338433E0,0E0,0E0,0E0,0E0],"parents":[2147483647,0,0,1,1,2,2],"right_children":[2,4,6,-1,-1,-1,-1],"split_conditions":[-2.2291666E-1,1.1605E5,2.399E1,3.565972E-3,1.19994596E-1,2.930801E-1,-5.9301842E-2],"split_indices":[35,0,15,0,0,0,0],"split_type":[0,0,0,0,0,0,0],"sum_hessian":[5.0642358E2,3.861995E2,1.20224075E2,3.515789E2,3.46206E1,3.3386788E0,1.1688539E2],"tree_param":{"num_deleted":"0","num_feature":"57","num_nodes":"7","size_leaf_vector":"1"}},{"base_weights":[-2.736257E-3,1.1426454E-2,-3.1266415E-1,-5.333336E-3,1.114909E-1,1.7198682E-1,-1.733804E-1],"categories":[],"categories_nodes":[],"categories_segments":[],"categories_sizes":[],"default_left":[0,0,0,0,0,0,0],"id":44,"left_children":[1,3,5,-1,-1,-1,-1],"loss_changes":[2.0479941E0,2.957948E0,2.0152607E0,0E0,0E0,0E0,0E0],"parents":[2147483647,0,0,1,1,2,2],"right_children":[2,4,6,-1,-1,-1,-1],"split_conditions":[2.740577E-1,1.9112554E-1,2.6875E-1,-5.333336E-3,1.114909E-1,1.7198682E-1,-1.733804E-1],"split_indices":[5,5,29,0,0,0,0],"split_type":[0,0,0,0,0,0,0],"sum_hessian":[4.647613E2,4.4537234E2,1.9388956E1,4.0848492E2,3.6887417E1,2.3543067E0,1.7034649E1],"tree_param":{"num_deleted":"0","num_feature":"57","num_nodes":"7","size_leaf_vector":"1"}},{"base_weights":[1.6387809E-3,-5.0527034E-3,5.1188165E-1,-1.5548213E-1,1.993599E-3,3.063427E-1,-2.7533924E-2],"categories":[],"categories_nodes":[],"categories_segments":[],"categories_sizes":[],"default_left":[0,0,0,0,0,0,0],"id":45,"left_children":[1,3,5,-1,-1,-1,-1],"loss_changes":[2.1215339E0,2.364552E0,1.2390087E0,0E0,0E0,0E0,0E0],"parents":[2147483647,0,0,1,1,2,2],"right_children":[2,4,6,-1,-1,-1,-1],"split_conditions":[1E0,2.4E1,4.0395E-2,-1.5548213E-1,1.993599E-3,3.063427E-1,-2.7533924E-2],"split_indices":[21,34,40,0,0,0,0],"split_type":[0,0,0,0,0,0,0],"sum_hessian":[6.1961285E2,6.125696E2,7.043331E0,1.4654981E1,5.9791455E2,4.6784205E0,2.3649104E0],"tree_param":{"num_deleted":"0","num_feature":"57","num_nodes":"7","size_leaf_vector":"1"}},{"base_weights":[-3.588385E-4,-1.9029334E-1,2.3328636E-2,-1.6036963E-1,6.7943595E-2,-8.859912E-2,1.8619074E-2],"categories":[],"categories_nodes":[],"categories_segments":[],"categories_sizes":[],"default_left":[0,0,0,0,0,0,0],"id":46,"left_children":[1,3,5,-1,-1,-1,-1],"loss_changes":[2.2784393E0,4.3279486E0,2.570007E0,0E0,0E0,0E0,0E0],"parents":[2147483647,0,0,1,1,2,2],"right_children":[2,4,6,-1,-1,-1,-1],"split_conditions":[-9.37E-1,2.4719E1,-3.331818E-2,-1.6036963E-1,6.7943595E-2,-8.859912E-2,1.8619074E-2],"split_indices":[31,12,25,0,0,0,0],"split_type":[0,0,0,0,0,0,0],"sum_hessian":[5.0443796E2,5.5154694E1,4.4928326E2,3.473004E1,2.0424654E1,3.8178783E1,4.111045E2],"tree_param":{"num_deleted":"0","num_feature":"57","num_nodes":"7","size_leaf_vector":"1"}},{"base_weights":[-1.7989698E-3,2.2674158E-2,-1.7809573E-1,1.6641274E-1,2.9774345E-3,2.7333066E-1,-1.15792E-1],"categories":[],"categories_nodes":[],"categories_segments":[],"categories_sizes":[],"default_left":[0,0,0,0,0,0,0],"id":47,"left_children":[1,3,5,-1,-1,-1,-1],"loss_changes":[2.008276E0,2.4460142E0,5.6417284E0,0E0,0E0,0E0,0E0],"parents":[2147483647,0,0,1,1,2,2],"right_children":[2,4,6,-1,-1,-1,-1],"split_conditions":[-1.125E-1,-6.5E-1,-2.3739047E-1,1.6641274E-1,2.9774345E-3,2.7333066E-1,-1.15792E-1],"split_indices":[28,20,40,0,0,0,0],"split_type":[0,0,0,0,0,0,0],"sum_hessian":[4.6353183E2,4.0779413E2,5.5737694E1,1.4220028E1,3.935741E2,5.7939167E0,4.9943775E1],"tree_param":{"num_deleted":"0","num_feature":"57","num_nodes":"7","size_leaf_vector":"1"}},{"base_weights":[1.4918311E-3,-2.1832792E-1,1.6780663E-2,1.2929991E-2,-2.6737615E-1,2.105876E-3,1.5818745E-1],"categories":[],"categories_nodes":[],"categories_segments":[],"categories_sizes":[],"default_left":[0,0,0,0,0,0,0],"id":48,"left_children":[1,3,5,-1,-1,-1,-1],"loss_changes":[2.0852005E0,4.5737057E0,2.527329E0,0E0,0E0,0E0,0E0],"parents":[2147483647,0,0,1,1,2,2],"right_children":[2,4,6,-1,-1,-1,-1],"split_conditions":[-8.52E1,-2.98E-1,1.402702E-1,1.2929991E-2,-2.6737615E-1,2.105876E-3,1.5818745E-1],"split_indices":[17,44,22,0,0,0,0],"split_type":[0,0,0,0,0,0,0],"sum_hessian":[6.183599E2,3.9347614E1,5.7901227E2,2.586977E1,1.3477844E1,5.629081E2,1.6104239E1],"tree_param":{"num_deleted":"0","num_feature":"57","num_nodes":"7","size_leaf_vector":"1"}},{"base_weights":[-9.391239E-4,-5.6919526E-2,7.378384E-2,2.701264E-2,-6.0251124E-2,6.027428E-2,-5.430459E-2],"categories":[],"categories_nodes":[],"categories_segments":[],"categories_sizes":[],"default_left":[0,0,0,0,0,0,0],"id":49,"left_children":[1,3,5,-1,-1,-1,-1],"loss_changes":[2.1146066E0,3.3804784E0,3.5095663E0,0E0,0E0,0E0,0E0],"parents":[2147483647,0,0,1,1,2,2],"right_children":[2,4,6,-1,-1,-1,-1],"split_conditions":[-4.32E-1,2.5763E-1,2.87E0,2.701264E-2,-6.0251124E-2,6.027428E-2,-5.430459E-2],"split_indices":[43,47,56,0,0,0,0],"split_type":[0,0,0,0,0,0,0],"sum_hessian":[5.0351733E2,2.879965E2,2.1552084E2,1.2382611E2,1.6417038E2,1.578659E2,5.7654945E1],"tree_param":{"num_deleted":"0","num_feature":"57","num_nodes":"7","size_leaf_vector":"1"}},{"base_weights":[-9.7195845E-4,-3.8423175E-1,9.712688E-3,-2.1326171E-1,1.0241473E-1,9.951256E-2,-5.735164E-3],"categories":[],"categories_nodes":[],"categories_segments":[],"categories_sizes":[],"default_left":[0,0,0,0,0,0,0],"id":50,"left_children":[1,3,5,-1,-1,-1,-1],"loss_changes":[1.9003943E0,1.336658E0,2.600032E0,0E0,0E0,0E0,0E0],"parents":[2147483647,0,0,1,1,2,2],"right_children":[2,4,6,-1,-1,-1,-1],"split_conditions":[6.5E-1,8.805E-1,-2.4994516E-1,-2.1326171E-1,1.0241473E-1,9.951256E-2,-5.735164E-3],"split_indices":[56,24,33,0,0,0,0],"split_type":[0,0,0,0,0,0,0],"sum_hessian":[4.6216592E2,1.1586741E1,4.505792E2,9.536018E0,2.050723E0,4.0331394E1,4.102478E2],"tree_param":{"num_deleted":"0","num_feature":"57","num_nodes":"7","size_leaf_vector":"1"}},{"base_weights":[8.2809286E-4,-8.38497E-3,3.7288615E-1,3.9492487E-3,-1.4729679E-1,2.4888995E-1,-8.139017E-2],"categories":[],"categories_nodes":[],"categories_segments":[],"categories_sizes":[],"default_left":[0,0,0,0,0,0,0],"id":51,"left_children":[1,3,5,-1,-1,-1,-1],"loss_changes":[2.1189835E0,3.967678E0,2.273282E0,0E0,0E0,0E0,0E0],"parents":[2147483647,0,0,1,1,2,2],"right_children":[2,4,6,-1,-1,-1,-1],"split_conditions":[3.7E1,5.9E1,9.621212E-2,3.9492487E-3,-1.4729679E-1,2.4888995E-1,-8.139017E-2],"split_indices":[27,26,5,0,0,0,0],"split_type":[0,0,0,0,0,0,0],"sum_hessian":[6.1626483E2,6.023272E2,1.3937625E1,5.7416815E2,2.8159052E1,9.673302E0,4.264323E0],"tree_param":{"num_deleted":"0","num_feature":"57","num_nodes":"7","size_leaf_vector":"1"}},{"base_weights":[-9.498412E-4,2.2705384E-2,-1.8663652E-1,-4.977824E-3,7.805848E-2,6.1180443E-2,-1.2176835E-1],"categories":[],"categories_nodes":[],"categories_segments":[],"categories_sizes":[],"default_left":[0,0,0,0,0,0,0],"id":52,"left_children":[1,3,5,-1,-1,-1,-1],"loss_changes":[2.211056E0,2.7089784E0,2.3216484E0,0E0,0E0,0E0,0E0],"parents":[2147483647,0,0,1,1,2,2],"right_children":[2,4,6,-1,-1,-1,-1],"split_conditions":[1.2284849E-1,-6.969E-1,-2.3435295E-2,-4.977824E-3,7.805848E-2,6.1180443E-2,-1.2176835E-1],"split_indices":[30,31,33,0,0,0,0],"split_type":[0,0,0,0,0,0,0],"sum_hessian":[5.0141055E2,4.4553067E2,5.587987E1,3.708627E2,7.466798E1,1.4313529E1,4.156634E1],"tree_param":{"num_deleted":"0","num_feature":"57","num_nodes":"7","size_leaf_vector":"1"}},{"base_weights":[-7.344299E-5,-1.1379294E-1,3.7811995E-2,-1.3847494E-1,-3.4037419E-3,6.359818E-3,1.8661244E-1],"categories":[],"categories_nodes":[],"categories_segments":[],"categories_sizes":[],"default_left":[0,0,0,0,0,0,0],"id":53,"left_children":[1,3,5,-1,-1,-1,-1],"loss_changes":[1.9953564E0,2.8288238E0,3.2562087E0,0E0,0E0,0E0,0E0],"parents":[2147483647,0,0,1,1,2,2],"right_children":[2,4,6,-1,-1,-1,-1],"split_conditions":[6.941E-1,8.983077E-2,5.9E1,-1.3847494E-1,-3.4037419E-3,6.359818E-3,1.8661244E-1],"split_indices":[32,25,26,0,0,0,0],"split_type":[0,0,0,0,0,0,0],"sum_hessian":[4.6114227E2,1.14736824E2,3.4640546E2,3.506003E1,7.9676796E1,3.3054776E2,1.5857685E1],"tree_param":{"num_deleted":"0","num_feature":"57","num_nodes":"7","size_leaf_vector":"1"}},{"base_weights":[6.95495E-4,-4.9189955E-1,7.359603E-3,6.902834E-2,-2.6522788E-1,7.725124E-2,-4.7482406E-3],"categories":[],"categories_nodes":[],"categories_segments":[],"categories_sizes":[],"default_left":[0,0,0,0,0,0,0],"id":54,"left_children":[1,3,5,-1,-1,-1,-1],"loss_changes":[2.0252867E0,1.0510714E0,2.1765003E0,0E0,0E0,0E0,0E0],"parents":[2147483647,0,0,1,1,2,2],"right_children":[2,4,6,-1,-1,-1,-1],"split_conditions":[1.1E1,2.183E3,5.574E-1,6.902834E-2,-2.6522788E-1,7.725124E-2,-4.7482406E-3],"split_indices":[26,9,32,0,0,0,0],"split_type":[0,0,0,0,0,0,0],"sum_hessian":[6.148535E2,7.23515E0,6.076184E2,1.4803501E0,5.7547994E0,5.615025E1,5.5146814E2],"tree_param":{"num_deleted":"0","num_feature":"57","num_nodes":"7","size_leaf_vector":"1"}},{"base_weights":[-6.402224E-4,2.6175624E-1,-1.6041525E-2,-1.3893627E-1,2.2329853E-1,-3.6411043E-2,2.4028817E-2],"categories":[],"categories_nodes":[],"categories_segments":[],"categories_sizes":[],"default_left":[0,0,0,0,0,0,0],"id":55,"left_children":[1,3,5,-1,-1,-1,-1],"loss_changes":[2.0289443E0,5.2205925E0,2.7118604E0,0E0,0E0,0E0,0E0],"parents":[2147483647,0,0,1,1,2,2],"right_children":[2,4,6,-1,-1,-1,-1],"split_conditions":[-8.75E-1,5.434E3,-1.1111111E-2,-1.3893627E-1,2.2329853E-1,-3.6411043E-2,2.4028817E-2],"split_indices":[35,9,3,0,0,0,0],"split_type":[0,0,0,0,0,0,0],"sum_hessian":[5.000199E2,2.6834639E1,4.7318527E2,8.729535E0,1.8105103E1,2.3825937E2,2.349259E2],"tree_param":{"num_deleted":"0","num_feature":"57","num_nodes":"7","size_leaf_vector":"1"}},{"base_weights":[-2.3326027E-4,1.0702863E-2,-3.824667E-1,9.658305E-3,-1.2527327E-1,4.7057077E-2,-2.0435415E-1],"categories":[],"categories_nodes":[],"categories_segments":[],"categories_sizes":[],"default_left":[0,0,0,0,0,0,0],"id":56,"left_children":[1,3,5,-1,-1,-1,-1],"loss_changes":[1.9316E0,1.9636083E0,8.855716E-1,0E0,0E0,0E0,0E0],"parents":[2147483647,0,0,1,1,2,2],"right_children":[2,4,6,-1,-1,-1,-1],"split_conditions":[0E0,2.740577E-1,8.286E-1,9.658305E-3,-1.2527327E-1,4.7057077E-2,-2.0435415E-1],"split_indices":[23,5,39,0,0,0,0],"split_type":[0,0,0,0,0,0,0],"sum_hessian":[4.6010916E2,4.4825607E2,1.1853105E1,4.312812E2,1.6974884E1,2.438929E0,9.414175E0],"tree_param":{"num_deleted":"0","num_feature":"57","num_nodes":"7","size_leaf_vector":"1"}},{"base_weights":[3.9803045E-4,-2.7537516E-1,4.7230194E-3,-2.7453972E-3,1.0323682E-1],"categories":[],"categories_nodes":[],"categories_segments":[],"categories_sizes":[],"default_left":[0,0,0,0,0],"id":57,"left_children":[1,-1,3,-1,-1],"loss_changes":[1.8347081E0,0E0,1.7981144E0,0E0,0E0],"parents":[2147483647,0,0,2,2],"right_children":[2,-1,4,-1,-1],"split_conditions":[-8.949732E-2,-2.7537516E-1,2.4855E0,-2.7453972E-3,1.0323682E-1],"split_indices":[30,0,45,0,0],"split_type":[0,0,0,0,0],"sum_hessian":[6.1374615E2,2.8425326E0,6.109036E2,5.851192E2,2.5784466E1],"tree_param":{"num_deleted":"0","num_feature":"57","num_nodes":"5","size_leaf_vector":"1"}},{"base_weights":[-3.6857775E-4,2.983133E-1,-1.2447838E-2,-2.1612595E-1,2.2324185E-1,-7.9573314E-5,-1.6689341E-1],"categories":[],"categories_nodes":[],"categories_segments":[],"categories_sizes":[],"default_left":[0,0,0,0,0,0,0],"id":58,"left_children":[1,3,5,-1,-1,-1,-1],"loss_changes":[1.8078185E0,4.544958E0,2.3876393E0,0E0,0E0,0E0,0E0],"parents":[2147483647,0,0,1,1,2,2],"right_children":[2,4,6,-1,-1,-1,-1],"split_conditions":[-9.245E-1,3.3333335E-2,3.08E0,-2.1612595E-1,2.2324185E-1,-7.9573314E-5,-1.6689341E-1],"split_indices":[23,4,56,0,0,0,0],"split_type":[0,0,0,0,0,0,0],"sum_hessian":[4.9904913E2,1.8476927E1,4.805722E2,4.11466E0,1.43622675E1,4.6742822E2,1.314399E1],"tree_param":{"num_deleted":"0","num_feature":"57","num_nodes":"7","size_leaf_vector":"1"}},{"base_weights":[-1.3109916E-4,1.2907677E-2,-3.1815737E-1,9.791975E-3,-1.4000762E-1,-2.21088E-1,1.6270128E-1],"categories":[],"categories_nodes":[],"categories_segments":[],"categories_sizes":[],"default_left":[0,0,0,0,0,0,0],"id":59,"left_children":[1,3,5,-1,-1,-1,-1],"loss_changes":[1.9139338E0,1.8707553E0,3.3157802E0,0E0,0E0,0E0,0E0],"parents":[2147483647,0,0,1,1,2,2],"right_children":[2,4,6,-1,-1,-1,-1],"split_conditions":[8.515E-1,2.43E0,9.307E-1,9.791975E-3,-1.4000762E-1,-2.21088E-1,1.6270128E-1],"split_indices":[7,49,39,0,0,0,0],"split_type":[0,0,0,0,0,0,0],"sum_hessian":[4.5956845E2,4.423903E2,1.717817E1,4.2962387E2,1.2766414E1,1.3158082E1,4.0200872E0],"tree_param":{"num_deleted":"0","num_feature":"57","num_nodes":"7","size_leaf_vector":"1"}},{"base_weights":[4.4747937E-4,-3.1319816E-2,9.639244E-2,-1.0644096E-1,-3.1838857E-3,6.9754645E-2,-6.975829E-2],"categories":[],"categories_nodes":[],"categories_segments":[],"categories_sizes":[],"default_left":[0,0,0,0,0,0,0],"id":60,"left_children":[1,3,5,-1,-1,-1,-1],"loss_changes":[1.8700737E0,2.5259948E0,3.2536516E0,0E0,0E0,0E0,0E0],"parents":[2147483647,0,0,1,1,2,2],"right_children":[2,4,6,-1,-1,-1,-1],"split_conditions":[3E-1,-6.124E-1,2.549E4,-1.0644096E-1,-3.1838857E-3,6.9754645E-2,-6.975829E-2],"split_indices":[4,6,9,0,0,0,0],"split_type":[0,0,0,0,0,0,0],"sum_hessian":[6.115685E2,4.5995224E2,1.5161623E2,4.068211E1,4.192701E2,1.17988434E2,3.3627792E1],"tree_param":{"num_deleted":"0","num_feature":"57","num_nodes":"7","size_leaf_vector":"1"}},{"base_weights":[-2.7054374E-4,2.2495972E-2,-1.5486959E-1,4.764077E-3,3.4946114E-1,-1.0136862E-1,1.3409922E-1],"categories":[],"categories_nodes":[],"categories_segments":[],"categories_sizes":[],"default_left":[0,0,0,0,0,0,0],"id":61,"left_children":[1,3,5,-1,-1,-1,-1],"loss_changes":[1.7580183E0,3.912433E0,3.1817467E0,0E0,0E0,0E0,0E0],"parents":[2147483647,0,0,1,1,2,2],"right_children":[2,4,6,-1,-1,-1,-1],"split_conditions":[1.3134243E-1,2.1631764E-1,-6.969E-1,4.764077E-3,3.4946114E-1,-1.0136862E-1,1.3409922E-1],"split_indices":[40,37,31,0,0,0,0],"split_type":[0,0,0,0,0,0,0],"sum_hessian":[4.974924E2,4.3437943E2,6.311296E1,4.3004498E2,4.3344474E0,5.294901E1,1.0163954E1],"tree_param":{"num_deleted":"0","num_feature":"57","num_nodes":"7","size_leaf_vector":"1"}},{"base_weights":[-3.029393E-4,2.9991904E-1,-1.2809315E-2,2.9973695E-1,2.0032426E-2,-2.0496307E-1,7.7488914E-4],"categories":[],"categories_nodes":[],"categories_segments":[],"categories_sizes":[],"default_left":[0,0,0,0,0,0,0],"id":62,"left_children":[1,3,5,-1,-1,-1,-1],"loss_changes":[1.7296733E0,2.031038E0,3.2590115E0,0E0,0E0,0E0,0E0],"parents":[2147483647,0,0,1,1,2,2],"right_children":[2,4,6,-1,-1,-1,-1],"split_conditions":[1.19508E1,-2.888889E-1,1.23888E1,2.9973695E-1,2.0032426E-2,-2.0496307E-1,7.7488914E-4],"split_indices":[12,28,12,0,0,0,0],"split_type":[0,0,0,0,0,0,0],"sum_hessian":[4.5864703E2,1.7422787E1,4.4122424E2,5.510629E0,1.1912157E1,1.1682568E1,4.295417E2],"tree_param":{"num_deleted":"0","num_feature":"57","num_nodes":"7","size_leaf_vector":"1"}},{"base_weights":[3.952484E-5,3.4346265E-1,-8.555317E-3,-3.47298E-2,3.0405363E-1,-2.1488975E-1,-4.4338763E-4],"categories":[],"categories_nodes":[],"categories_segments":[],"categories_sizes":[],"default_left":[0,0,0,0,0,0,0],"id":63,"left_children":[1,3,5,-1,-1,-1,-1],"loss_changes":[1.8073984E0,2.7464724E0,2.351261E0,0E0,0E0,0E0,0E0],"parents":[2147483647,0,0,1,1,2,2],"right_children":[2,4,6,-1,-1,-1,-1],"split_conditions":[-5.71E-1,1.48E0,-7.8E-1,-3.47298E-2,3.0405363E-1,-2.1488975E-1,-4.4338763E-4],"split_indices":[43,56,20,0,0,0,0],"split_type":[0,0,0,0,0,0,0],"sum_hessian":[6.1033575E2,1.3950628E1,5.9638513E2,7.2526283E0,6.698001E0,7.2958336E0,5.890893E2],"tree_param":{"num_deleted":"0","num_feature":"57","num_nodes":"7","size_leaf_vector":"1"}},{"base_weights":[5.436321E-4,-4.5027503E-1,8.049872E-3,-2.2538285E-1,7.094431E-2,3.0547202E-2,-1.9054158E-2],"categories":[],"categories_nodes":[],"categories_segments":[],"categories_sizes":[],"default_left":[0,0,0,0,0,0,0],"id":64,"left_children":[1,3,5,-1,-1,-1,-1],"loss_changes":[1.68677E0,6.798538E-1,1.8686136E0,0E0,0E0,0E0,0E0],"parents":[2147483647,0,0,1,1,2,2],"right_children":[2,4,6,-1,-1,-1,-1],"split_conditions":[-4.1057858E-1,9.081E-1,-6.278889E-2,-2.2538285E-1,7.094431E-2,3.0547202E-2,-1.9054158E-2],"split_indices":[33,39,33,0,0,0,0],"split_type":[0,0,0,0,0,0,0],"sum_hessian":[4.9639026E2,7.1635985E0,4.8922665E2,6.155777E0,1.0078217E0,2.195265E2,2.6970013E2],"tree_param":{"num_deleted":"0","num_feature":"57","num_nodes":"7","size_leaf_vector":"1"}},{"base_weights":[-6.4205955E-4,-9.539398E-3,4.0764317E-1,4.9800114E-3,-8.092355E-2,-1.0985384E-1,3.3247986E-1],"categories":[],"categories_nodes":[],"categories_segments":[],"categories_sizes":[],"default_left":[0,0,0,0,0,0,0],"id":65,"left_children":[1,3,5,-1,-1,-1,-1],"loss_changes":[1.6704562E0,1.9098798E0,3.0624042E0,0E0,0E0,0E0,0E0],"parents":[2147483647,0,0,1,1,2,2],"right_children":[2,4,6,-1,-1,-1,-1],"split_conditions":[-3.612E-1,1.1642E-1,3.590909E-1,4.9800114E-3,-8.092355E-2,-1.0985384E-1,3.3247986E-1],"split_indices":[31,33,21,0,0,0,0],"split_type":[0,0,0,0,0,0,0],"sum_hessian":[4.5777435E2,4.489671E2,8.807242E0,4.0383646E2,4.5130657E1,3.508018E0,5.299224E0],"tree_param":{"num_deleted":"0","num_feature":"57","num_nodes":"7","size_leaf_vector":"1"}},{"base_weights":[4.884967E-5,-5.731554E-3,4.5230734E-1,5.6808185E-2,-9.903841E-3,2.7739307E-1,-2.9297605E-2],"categories":[],"categories_nodes":[],"categories_segments":[],"categories_sizes":[],"default_left":[0,0,0,0,0,0,0],"id":66,"left_children":[1,3,5,-1,-1,-1,-1],"loss_changes":[1.5988717E0,1.7013173E0,1.0290941E0,0E0,0E0,0E0,0E0],"parents":[2147483647,0,0,1,1,2,2],"right_children":[2,4,6,-1,-1,-1,-1],"split_conditions":[1E0,4.122E1,5.591626E-2,5.6808185E-2,-9.903841E-3,2.7739307E-1,-2.9297605E-2],"split_indices":[21,15,22,0,0,0,0],"split_type":[0,0,0,0,0,0,0],"sum_hessian":[6.096101E2,6.028917E2,6.7183495E0,6.804687E1,5.3484485E2,4.3860564E0,2.332293E0],"tree_param":{"num_deleted":"0","num_feature":"57","num_nodes":"7","size_leaf_vector":"1"}},{"base_weights":[3.4681128E-4,-1.8527189E-1,1.8210707E-2,-1.5804645E-1,4.9549367E-2,-2.0063638E-3,8.150383E-2],"categories":[],"categories_nodes":[],"categories_segments":[],"categories_sizes":[],"default_left":[0,0,0,0,0,0,0],"id":67,"left_children":[1,3,5,-1,-1,-1,-1],"loss_changes":[1.6517622E0,2.8859482E0,1.959287E0,0E0,0E0,0E0,0E0],"parents":[2147483647,0,0,1,1,2,2],"right_children":[2,4,6,-1,-1,-1,-1],"split_conditions":[8.1018516E-4,2.6838461E-2,7.574E-1,-1.5804645E-1,4.9549367E-2,-2.0063638E-3,8.150383E-2],"split_indices":[30,40,7,0,0,0,0],"split_type":[0,0,0,0,0,0,0],"sum_hessian":[4.9612048E2,4.273209E1,4.533884E2,2.5288477E1,1.7443613E1,4.0381293E2,4.957548E1],"tree_param":{"num_deleted":"0","num_feature":"57","num_nodes":"7","size_leaf_vector":"1"}},{"base_weights":[-4.4132597E-4,4.1983806E-2,-8.469124E-2,2.7776599E-2,-9.3690805E-2,2.6330981E-2,-1.0928202E-1],"categories":[],"categories_nodes":[],"categories_segments":[],"categories_sizes":[],"default_left":[0,0,0,0,0,0,0],"id":68,"left_children":[1,3,5,-1,-1,-1,-1],"loss_changes":[1.641471E0,2.3327718E0,4.3821516E0,0E0,0E0,0E0,0E0],"parents":[2147483647,0,0,1,1,2,2],"right_children":[2,4,6,-1,-1,-1,-1],"split_conditions":[8.555E-1,7.729E-1,-3.2777777E-1,2.7776599E-2,-9.3690805E-2,2.6330981E-2,-1.0928202E-1],"split_indices":[24,7,35,0,0,0,0],"split_type":[0,0,0,0,0,0,0],"sum_hessian":[4.572461E2,3.0444205E2,1.5280405E2,2.775953E2,2.6846733E1,8.532621E1,6.747783E1],"tree_param":{"num_deleted":"0","num_feature":"57","num_nodes":"7","size_leaf_vector":"1"}},{"base_weights":[8.1333664E-4,1.7824972E-2,-1.5435782E-1,3.1226108E-2,-2.2122258E-2,1.2601015E-1,-1.304488E-1],"categories":[],"categories_nodes":[],"categories_segments":[],"categories_sizes":[],"default_left":[0,0,0,0,0,0,0],"id":69,"left_children":[1,3,5,-1,-1,-1,-1],"loss_changes":[1.6100768E0,2.4256992E0,4.961323E0,0E0,0E0,0E0,0E0],"parents":[2147483647,0,0,1,1,2,2],"right_children":[2,4,6,-1,-1,-1,-1],"split_conditions":[9.584E-1,-2.4768518E-1,-9.015E-1,3.1226108E-2,-2.2122258E-2,1.2601015E-1,-1.304488E-1],"split_indices":[39,28,38,0,0,0,0],"split_type":[0,0,0,0,0,0,0],"sum_hessian":[6.079012E2,5.486383E2,5.926287E1,3.0079514E2,2.4784315E2,1.56531515E1,4.360972E1],"tree_param":{"num_deleted":"0","num_feature":"57","num_nodes":"7","size_leaf_vector":"1"}},{"base_weights":[2.8614185E-4,1.0632392E-1,-3.0995106E-2,2.6210172E-2,3.1930998E-1,-4.403871E-2,1.9867657E-2],"categories":[],"categories_nodes":[],"categories_segments":[],"categories_sizes":[],"default_left":[0,0,0,0,0,0,0],"id":70,"left_children":[1,3,5,-1,-1,-1,-1],"loss_changes":[1.6484894E0,3.1437318E0,2.454228E0,0E0,0E0,0E0,0E0],"parents":[2147483647,0,0,1,1,2,2],"right_children":[2,4,6,-1,-1,-1,-1],"split_conditions":[3.24E2,3.453E3,0E0,2.6210172E-2,3.1930998E-1,-4.403871E-2,1.9867657E-2],"split_indices":[11,10,3,0,0,0,0],"split_type":[0,0,0,0,0,0,0],"sum_hessian":[4.949894E2,1.1221201E2,3.827774E2,1.0699794E2,5.2140665E0,1.9307635E2,1.8970107E2],"tree_param":{"num_deleted":"0","num_feature":"57","num_nodes":"7","size_leaf_vector":"1"}},{"base_weights":[-1.3927232E-3,-1.18632605E-2,3.0803162E-1,-1.9334655E-1,-1.1011603E-3,2.4973534E-1,-1.5467148E-1],"categories":[],"categories_nodes":[],"categories_segments":[],"categories_sizes":[],"default_left":[0,0,0,0,0,0,0],"id":71,"left_children":[1,3,5,-1,-1,-1,-1],"loss_changes":[1.485865E0,1.9036818E0,3.5400558E0,0E0,0E0,0E0,0E0],"parents":[2147483647,0,0,1,1,2,2],"right_children":[2,4,6,-1,-1,-1,-1],"split_conditions":[-8.3333336E-2,-1.45252E-1,1.7469259E-1,-1.9334655E-1,-1.1011603E-3,2.4973534E-1,-1.5467148E-1],"split_indices":[35,25,25,0,0,0,0],"split_type":[0,0,0,0,0,0,0],"sum_hessian":[4.5649515E2,4.424837E2,1.4011442E1,7.4008117E0,4.350829E2,9.697428E0,4.314014E0],"tree_param":{"num_deleted":"0","num_feature":"57","num_nodes":"7","size_leaf_vector":"1"}},{"base_weights":[1.0987943E-3,-3.652479E-2,7.0258394E-2,3.3499565E-2,-3.988081E-2,-1.2112999E-1,4.496556E-2],"categories":[],"categories_nodes":[],"categories_segments":[],"categories_sizes":[],"default_left":[0,0,0,0,0,0,0],"id":72,"left_children":[1,3,5,-1,-1,-1,-1],"loss_changes":[1.5848843E0,3.006041E0,3.409178E0,0E0,0E0,0E0,0E0],"parents":[2147483647,0,0,1,1,2,2],"right_children":[2,4,6,-1,-1,-1,-1],"split_conditions":[1.2458334E-3,6.996E-1,1.4E1,3.3499565E-2,-3.988081E-2,-1.2112999E-1,4.496556E-2],"split_indices":[33,32,19,0,0,0,0],"split_type":[0,0,0,0,0,0,0],"sum_hessian":[6.071086E2,3.9350784E2,2.1360074E2,1.3540494E2,2.581029E2,2.1057222E1,1.9254352E2],"tree_param":{"num_deleted":"0","num_feature":"57","num_nodes":"7","size_leaf_vector":"1"}},{"base_weights":[2.744259E-4,-5.57167E-2,5.8776964E-2,8.34884E-2,-3.8697653E-2,1.5436381E-1,8.157732E-3],"categories":[],"categories_nodes":[],"categories_segments":[],"categories_sizes":[],"default_left":[0,0,0,0,0,0,0],"id":73,"left_children":[1,3,5,-1,-1,-1,-1],"loss_changes":[1.6241235E0,2.7688484E0,3.0366392E0,0E0,0E0,0E0,0E0],"parents":[2147483647,0,0,1,1,2,2],"right_children":[2,4,6,-1,-1,-1,-1],"split_conditions":[-3.89E-1,-1.3276316E-1,-1.91E-1,8.34884E-2,-3.8697653E-2,1.5436381E-1,8.157732E-3],"split_indices":[41,40,44,0,0,0,0],"split_type":[0,0,0,0,0,0,0],"sum_hessian":[4.938215E2,2.5235104E2,2.4147044E2,3.3344624E1,2.1900642E2,2.4405947E1,2.170645E2],"tree_param":{"num_deleted":"0","num_feature":"57","num_nodes":"7","size_leaf_vector":"1"}},{"base_weights":[-1.760132E-3,-6.461703E-2,4.9640108E-2,1.6213515E-1,-3.93521E-2,-8.111756E-3,9.8245256E-2],"categories":[],"categories_nodes":[],"categories_segments":[],"categories_sizes":[],"default_left":[0,0,0,0,0,0,0],"id":74,"left_children":[1,3,5,-1,-1,-1,-1],"loss_changes":[1.4789697E0,3.3072405E0,3.4559321E0,0E0,0E0,0E0,0E0],"parents":[2147483647,0,0,1,1,2,2],"right_children":[2,4,6,-1,-1,-1,-1],"split_conditions":[4.21E-2,-1.1509207E-2,7.132045E-2,1.6213515E-1,-3.93521E-2,-8.111756E-3,9.8245256E-2],"split_indices":[8,30,40,0,0,0,0],"split_type":[0,0,0,0,0,0,0],"sum_hessian":[4.5577075E2,2.0491945E2,2.508513E2,1.2997679E1,1.9192177E2,1.8554784E2,6.530347E1],"tree_param":{"num_deleted":"0","num_feature":"57","num_nodes":"7","size_leaf_vector":"1"}},{"base_weights":[5.656914E-4,-7.466302E-3,3.349108E-1,3.4597223E-3,-1.24376915E-1,1.8786463E-1,-2.295862E-1],"categories":[],"categories_nodes":[],"categories_segments":[],"categories_sizes":[],"default_left":[0,0,0,0,0,0,0],"id":75,"left_children":[1,3,5,-1,-1,-1,-1],"loss_changes":[1.6333808E0,2.907921E0,2.0170908E0,0E0,0E0,0E0,0E0],"parents":[2147483647,0,0,1,1,2,2],"right_children":[2,4,6,-1,-1,-1,-1],"split_conditions":[3.7E1,3.2E1,8.982919E-2,3.4597223E-3,-1.24376915E-1,1.8786463E-1,-2.295862E-1],"split_indices":[27,27,22,0,0,0,0],"split_type":[0,0,0,0,0,0,0],"sum_hessian":[6.0630066E2,5.9303186E2,1.3268772E1,5.6405035E2,2.8981495E1,1.1976393E1,1.2923794E0],"tree_param":{"num_deleted":"0","num_feature":"57","num_nodes":"7","size_leaf_vector":"1"}},{"base_weights":[8.6204134E-5,1.9630225E-2,-1.5892376E-1,9.168484E-2,-4.8733337E-4,-6.779663E-3,-1.7860739E-1],"categories":[],"categories_nodes":[],"categories_segments":[],"categories_sizes":[],"default_left":[0,0,0,0,0,0,0],"id":76,"left_children":[1,3,5,-1,-1,-1,-1],"loss_changes":[1.5379411E0,1.92595E0,2.2041907E0,0E0,0E0,0E0,0E0],"parents":[2147483647,0,0,1,1,2,2],"right_children":[2,4,6,-1,-1,-1,-1],"split_conditions":[1.2284849E-1,9.2E-2,7.053E1,9.168484E-2,-4.8733337E-4,-6.779663E-3,-1.7860739E-1],"split_indices":[30,45,16,0,0,0,0],"split_type":[0,0,0,0,0,0,0],"sum_hessian":[4.9287784E2,4.397094E2,5.316843E1,3.8879173E1,4.0083023E2,3.6304974E1,1.6863457E1],"tree_param":{"num_deleted":"0","num_feature":"57","num_nodes":"7","size_leaf_vector":"1"}},{"base_weights":[-8.4623724E-4,8.329389E-3,-3.4521294E-1,7.959151E-3,-1.2605828E-1,-1.9012615E-1,7.91543E-2],"categories":[],"categories_nodes":[],"categories_segments":[],"categories_sizes":[],"default_left":[0,0,0,0,0,0,0],"id":77,"left_children":[1,3,5,-1,-1,-1,-1],"loss_changes":[1.4446256E0,1.6730704E0,9.3246496E-1,0E0,0E0,0E0,0E0],"parents":[2147483647,0,0,1,1,2,2],"right_children":[2,4,6,-1,-1,-1,-1],"split_conditions":[0E0,-5.859E-1,7.05E-1,7.959151E-3,-1.2605828E-1,-1.9012615E-1,7.91543E-2],"split_indices":[23,38,29,0,0,0,0],"split_type":[0,0,0,0,0,0,0],"sum_hessian":[4.5528183E2,4.444162E2,1.0865625E1,4.2997733E2,1.4438855E1,8.866429E0,1.9991962E0],"tree_param":{"num_deleted":"0","num_feature":"57","num_nodes":"7","size_leaf_vector":"1"}},{"base_weights":[3.5566962E-4,-2.513821E-1,4.3449416E-3,-1.0490465E-2,3.641907E-2],"categories":[],"categories_nodes":[],"categories_segments":[],"categories_sizes":[],"default_left":[0,0,0,0,0],"id":78,"left_children":[1,-1,3,-1,-1],"loss_changes":[1.522431E0,0E0,1.600685E0,0E0,0E0],"parents":[2147483647,0,0,2,2],"right_children":[2,-1,4,-1,-1],"split_conditions":[6.0354504E2,-2.513821E-1,-5.647E-1,-1.0490465E-2,3.641907E-2],"split_indices":[0,0,23,0,0],"split_type":[0,0,0,0,0],"sum_hessian":[6.048209E2,2.826056E0,6.019948E2,4.455817E2,1.5641315E2],"tree_param":{"num_deleted":"0","num_feature":"57","num_nodes":"5","size_leaf_vector":"1"}},{"base_weights":[-1.3935659E-4,5.120957E-1,-6.0753454E-3,-4.2438466E-2,3.3147988E-1,-1.1648202E-1,2.3312534E-3],"categories":[],"categories_nodes":[],"categories_segments":[],"categories_sizes":[],"default_left":[0,0,0,0,0,0,0],"id":79,"left_children":[1,3,5,-1,-1,-1,-1],"loss_changes":[1.5006119E0,1.1944587E0,1.6574595E0,0E0,0E0,0E0,0E0],"parents":[2147483647,0,0,1,1,2,2],"right_children":[2,4,6,-1,-1,-1,-1],"split_conditions":[-9.758E-1,5.3409092E-2,-9.541E-1,-4.2438466E-2,3.3147988E-1,-1.1648202E-1,2.3312534E-3],"split_indices":[38,30,38,0,0,0,0],"split_type":[0,0,0,0,0,0,0],"sum_hessian":[4.914983E2,4.6536155E0,4.8684467E2,1.8013144E0,2.8523011E0,1.8569788E1,4.6827487E2],"tree_param":{"num_deleted":"0","num_feature":"57","num_nodes":"7","size_leaf_vector":"1"}},{"base_weights":[-3.2230493E-4,5.4953843E-2,-5.7763614E-2,1.2164024E-1,-1.5291263E-3,3.229055E-1,-3.298516E-2],"categories":[],"categories_nodes":[],"categories_segments":[],"categories_sizes":[],"default_left":[0,0,0,0,0,0,0],"id":80,"left_children":[1,3,5,-1,-1,-1,-1],"loss_changes":[1.4497242E0,3.4085548E0,4.850432E0,0E0,0E0,0E0,0E0],"parents":[2147483647,0,0,1,1,2,2],"right_children":[2,4,6,-1,-1,-1,-1],"split_conditions":[3E1,-9.248E-1,5E-2,1.2164024E-1,-1.5291263E-3,3.229055E-1,-3.298516E-2],"split_indices":[26,38,51,0,0,0,0],"split_type":[0,0,0,0,0,0,0],"sum_hessian":[4.54587E2,2.316816E2,2.2290541E2,4.3426857E1,1.8825473E2,5.3084145E0,2.17597E2],"tree_param":{"num_deleted":"0","num_feature":"57","num_nodes":"7","size_leaf_vector":"1"}},{"base_weights":[-2.9448955E-4,6.724599E-3,-3.7336075E-1,-3.1419222E-3,1.0042316E-1,-2.2208212E-1,2.0324461E-1],"categories":[],"categories_nodes":[],"categories_segments":[],"categories_sizes":[],"default_left":[0,0,0,0,0,0,0],"id":81,"left_children":[1,3,5,-1,-1,-1,-1],"loss_changes":[1.5865114E0,2.1204984E0,2.0755363E0,0E0,0E0,0E0,0E0],"parents":[2147483647,0,0,1,1,2,2],"right_children":[2,4,6,-1,-1,-1,-1],"split_conditions":[1.7717E4,1.0984E4,2.0096777E5,-3.1419222E-3,1.0042316E-1,-2.2208212E-1,2.0324461E-1],"split_indices":[11,11,0,0,0,0,0],"split_type":[0,0,0,0,0,0,0],"sum_hessian":[6.039071E2,5.937185E2,1.0188595E1,5.6119946E2,3.2519005E1,8.753017E0,1.4355767E0],"tree_param":{"num_deleted":"0","num_feature":"57","num_nodes":"7","size_leaf_vector":"1"}},{"base_weights":[4.7405678E-4,1.7784223E-1,-1.6567808E-2,1.0983371E-1,-2.307363E-1,4.376922E-3,-8.5196525E-2],"categories":[],"categories_nodes":[],"categories_segments":[],"categories_sizes":[],"default_left":[0,0,0,0,0,0,0],"id":82,"left_children":[1,3,5,-1,-1,-1,-1],"loss_changes":[1.4889427E0,3.3109355E0,2.4309118E0,0E0,0E0,0E0,0E0],"parents":[2147483647,0,0,1,1,2,2],"right_children":[2,4,6,-1,-1,-1,-1],"split_conditions":[2.6875E-1,9.670704E-2,2.82138E0,1.0983371E-1,-2.307363E-1,4.376922E-3,-8.5196525E-2],"split_indices":[29,22,48,0,0,0,0],"split_type":[0,0,0,0,0,0,0],"sum_hessian":[4.9061478E2,4.217987E1,4.484349E2,3.795112E1,4.228755E0,3.9417322E2,5.4261677E1],"tree_param":{"num_deleted":"0","num_feature":"57","num_nodes":"7","size_leaf_vector":"1"}},{"base_weights":[-1.2080825E-4,2.7108547E-1,-1.1629041E-2,1.8103138E-1,-9.770621E-2,-1.88134E-1,1.2939044E-4],"categories":[],"categories_nodes":[],"categories_segments":[],"categories_sizes":[],"default_left":[0,0,0,0,0,0,0],"id":83,"left_children":[1,3,5,-1,-1,-1,-1],"loss_changes":[1.421927E0,1.8451234E0,2.3962483E0,0E0,0E0,0E0,0E0],"parents":[2147483647,0,0,1,1,2,2],"right_children":[2,4,6,-1,-1,-1,-1],"split_conditions":[1.19508E1,2.09E0,1.23888E1,1.8103138E-1,-9.770621E-2,-1.88134E-1,1.2939044E-4],"split_indices":[12,55,12,0,0,0,0],"split_type":[0,0,0,0,0,0,0],"sum_hessian":[4.5357446E2,1.7545132E1,4.3602933E2,1.3065584E1,4.479547E0,1.0099183E1,4.2593015E2],"tree_param":{"num_deleted":"0","num_feature":"57","num_nodes":"7","size_leaf_vector":"1"}},{"base_weights":[6.8279645E-5,-3.231783E-2,7.713824E-2,2.8041502E-2,-3.7419774E-2,5.1997036E-2,-1.0399479E-1],"categories":[],"categories_nodes":[],"categories_segments":[],"categories_sizes":[],"default_left":[0,0,0,0,0,0,0],"id":84,"left_children":[1,3,5,-1,-1,-1,-1],"loss_changes":[1.5078316E0,2.6741712E0,3.218721E0,0E0,0E0,0E0,0E0],"parents":[2147483647,0,0,1,1,2,2],"right_children":[2,4,6,-1,-1,-1,-1],"split_conditions":[7.03125E-1,1.1719355E-1,-6.532E-1,2.8041502E-2,-3.7419774E-2,5.1997036E-2,-1.0399479E-1],"split_indices":[36,25,31,0,0,0,0],"split_type":[0,0,0,0,0,0,0],"sum_hessian":[6.021013E2,4.243591E2,1.7774225E2,1.5872171E2,2.656374E2,1.5418379E2,2.355846E1],"tree_param":{"num_deleted":"0","num_feature":"57","num_nodes":"7","size_leaf_vector":"1"}},{"base_weights":[2.3301898E-5,-2.3459632E-2,1.3792515E-1,3.0054176E-2,-2.9202571E-2,-4.4204723E-2,1.3098338E-1],"categories":[],"categories_nodes":[],"categories_segments":[],"categories_sizes":[],"default_left":[0,0,0,0,0,0,0],"id":85,"left_children":[1,3,5,-1,-1,-1,-1],"loss_changes":[1.5907185E0,2.0559397E0,3.4017859E0,0E0,0E0,0E0,0E0],"parents":[2147483647,0,0,1,1,2,2],"right_children":[2,4,6,-1,-1,-1,-1],"split_conditions":[8.2372725E-2,-2.6666668E-1,1.4444445E-1,3.0054176E-2,-2.9202571E-2,-4.4204723E-2,1.3098338E-1],"split_indices":[22,20,4,0,0,0,0],"split_type":[0,0,0,0,0,0,0],"sum_hessian":[4.8921497E2,4.1873892E2,7.047604E1,1.3987662E2,2.788623E2,3.0679201E1,3.979684E1],"tree_param":{"num_deleted":"0","num_feature":"57","num_nodes":"7","size_leaf_vector":"1"}},{"base_weights":[-1.159615E-4,-3.4954423E-1,8.634123E-3,-2.0318528E-1,7.6802805E-2,2.7688858E-1,3.099268E-4],"categories":[],"categories_nodes":[],"categories_segments":[],"categories_sizes":[],"default_left":[0,0,0,0,0,0,0],"id":86,"left_children":[1,3,5,-1,-1,-1,-1],"loss_changes":[1.3899602E0,1.0503098E0,2.3822308E0,0E0,0E0,0E0,0E0],"parents":[2147483647,0,0,1,1,2,2],"right_children":[2,4,6,-1,-1,-1,-1],"split_conditions":[6.5E-1,8.805E-1,6.7E-1,-2.0318528E-1,7.6802805E-2,2.7688858E-1,3.099268E-4],"split_indices":[56,24,56,0,0,0,0],"split_type":[0,0,0,0,0,0,0],"sum_hessian":[4.5261566E2,1.0105668E1,4.4251E2,7.8665133E0,2.2391548E0,4.040022E0,4.3846997E2],"tree_param":{"num_deleted":"0","num_feature":"57","num_nodes":"7","size_leaf_vector":"1"}},{"base_weights":[-1.08792825E-4,1.3233852E-1,-1.693013E-2,-9.393867E-2,1.3501012E-1,-9.218375E-3,2.3291682E-1],"categories":[],"categories_nodes":[],"categories_segments":[],"categories_sizes":[],"default_left":[0,0,0,0,0,0,0],"id":87,"left_children":[1,3,5,-1,-1,-1,-1],"loss_changes":[1.341986E0,5.193392E0,1.9720659E0,0E0,0E0,0E0,0E0],"parents":[2147483647,0,0,1,1,2,2],"right_children":[2,4,6,-1,-1,-1,-1],"split_conditions":[4.122E1,-7.836E-1,9.061E-1,-9.393867E-2,1.3501012E-1,-9.218375E-3,2.3291682E-1],"split_indices":[15,23,7,0,0,0,0],"split_type":[0,0,0,0,0,0,0],"sum_hessian":[6.00338E2,6.687921E1,5.334588E2,2.392338E1,4.2955837E1,5.29021E2,4.437779E0],"tree_param":{"num_deleted":"0","num_feature":"57","num_nodes":"7","size_leaf_vector":"1"}},{"base_weights":[-1.0374698E-4,6.9667794E-2,-4.079857E-2,-1.2178937E-1,4.764517E-2,-1.6486342E-1,-5.2477904E-3],"categories":[],"categories_nodes":[],"categories_segments":[],"categories_sizes":[],"default_left":[0,0,0,0,0,0,0],"id":88,"left_children":[1,3,5,-1,-1,-1,-1],"loss_changes":[1.3915061E0,3.3761954E0,3.176303E0,0E0,0E0,0E0,0E0],"parents":[2147483647,0,0,1,1,2,2],"right_children":[2,4,6,-1,-1,-1,-1],"split_conditions":[2.3E1,-1.12E1,3.4E-1,-1.2178937E-1,4.764517E-2,-1.6486342E-1,-5.2477904E-3],"split_indices":[19,17,54,0,0,0,0],"split_type":[0,0,0,0,0,0,0],"sum_hessian":[4.8807968E2,1.7954193E2,3.0853775E2,2.0355816E1,1.5918611E2,2.0438013E1,2.8809973E2],"tree_param":{"num_deleted":"0","num_feature":"57","num_nodes":"7","size_leaf_vector":"1"}},{"base_weights":[2.564582E-4,3.4023743E-2,-8.8468336E-2,-2.3245394E-1,1.8947402E-2,-6.2715255E-2,1.9671176E-1],"categories":[],"categories_nodes":[],"categories_segments":[],"categories_sizes":[],"default_left":[0,0,0,0,0,0,0],"id":89,"left_children":[1,3,5,-1,-1,-1,-1],"loss_changes":[1.3600379E0,2.7267435E0,5.0380106E0,0E0,0E0,0E0,0E0],"parents":[2147483647,0,0,1,1,2,2],"right_children":[2,4,6,-1,-1,-1,-1],"split_conditions":[6.4375E-1,8.35E-2,2.5825E4,-2.3245394E-1,1.8947402E-2,-6.2715255E-2,1.9671176E-1],"split_indices":[29,45,9,0,0,0,0],"split_type":[0,0,0,0,0,0,0],"sum_hessian":[4.5194733E2,3.2780597E2,1.2414136E2,6.056773E0,3.217492E2,1.1171728E2,1.2424079E1],"tree_param":{"num_deleted":"0","num_feature":"57","num_nodes":"7","size_leaf_vector":"1"}},{"base_weights":[2.537889E-4,-4.141859E-1,6.2728617E-3,-2.8282818E-1,1.7429464E-1,1.1159302E-1,-3.3304647E-3],"categories":[],"categories_nodes":[],"categories_segments":[],"categories_sizes":[],"default_left":[0,0,0,0,0,0,0],"id":90,"left_children":[1,3,5,-1,-1,-1,-1],"loss_changes":[1.4972928E0,2.4470344E0,2.35763E0,0E0,0E0,0E0,0E0],"parents":[2147483647,0,0,1,1,2,2],"right_children":[2,4,6,-1,-1,-1,-1],"split_conditions":[1.6E-1,2.1212122E-1,3.3E-1,-2.8282818E-1,1.7429464E-1,1.1159302E-1,-3.3304647E-3],"split_indices":[55,4,54,0,0,0,0],"split_type":[0,0,0,0,0,0,0],"sum_hessian":[5.981858E2,7.5925574E0,5.9059326E2,5.771698E0,1.8208592E0,2.9089619E1,5.6150366E2],"tree_param":{"num_deleted":"0","num_feature":"57","num_nodes":"7","size_leaf_vector":"1"}},{"base_weights":[9.487261E-5,-1.9354027E-2,1.4016363E-1,2.0843534E-2,-3.788864E-2,1.9782324E-1,-4.556903E-2],"categories":[],"categories_nodes":[],"categories_segments":[],"categories_sizes":[],"default_left":[0,0,0,0,0,0,0],"id":91,"left_children":[1,3,5,-1,-1,-1,-1],"loss_changes":[1.3316545E0,2.3167715E0,5.423061E0,0E0,0E0,0E0,0E0],"parents":[2147483647,0,0,1,1,2,2],"right_children":[2,4,6,-1,-1,-1,-1],"split_conditions":[9.17E-1,7.845E-1,9.317E-1,2.0843534E-2,-3.788864E-2,1.9782324E-1,-4.556903E-2],"split_indices":[32,32,32,0,0,0,0],"split_type":[0,0,0,0,0,0,0],"sum_hessian":[4.8683127E2,4.28232E2,5.8599266E1,2.1996846E2,2.0826353E2,2.4074377E1,3.452489E1],"tree_param":{"num_deleted":"0","num_feature":"57","num_nodes":"7","size_leaf_vector":"1"}},{"base_weights":[-4.3860736E-4,1.266512E-1,-2.4066575E-2,9.574506E-2,-1.2192549E-1,7.2050735E-2,-2.3315175E-2],"categories":[],"categories_nodes":[],"categories_segments":[],"categories_sizes":[],"default_left":[0,0,0,0,0,0,0],"id":92,"left_children":[1,3,5,-1,-1,-1,-1],"loss_changes":[1.3610158E0,3.5284123E0,2.6810052E0,0E0,0E0,0E0,0E0],"parents":[2147483647,0,0,1,1,2,2],"right_children":[2,4,6,-1,-1,-1,-1],"split_conditions":[7.033E-1,5.6881975E-2,4.6603176E-1,9.574506E-2,-1.2192549E-1,7.2050735E-2,-2.3315175E-2],"split_indices":[24,22,36,0,0,0,0],"split_type":[0,0,0,0,0,0,0],"sum_hessian":[4.5122272E2,7.005446E1,3.8116827E2,5.5897587E1,1.4156876E1,5.4099796E1,3.2706848E2],"tree_param":{"num_deleted":"0","num_feature":"57","num_nodes":"7","size_leaf_vector":"1"}},{"base_weights":[5.3286046E-4,1.2855867E-1,-1.9586213E-2,-2.5831518E-1,8.307918E-2,-1.3620292E-1,-1.4165402E-3],"categories":[],"categories_nodes":[],"categories_segments":[],"categories_sizes":[],"default_left":[0,0,0,0,0,0,0],"id":93,"left_children":[1,3,5,-1,-1,-1,-1],"loss_changes":[1.5423396E0,5.117468E0,2.6634364E0,0E0,0E0,0E0,0E0],"parents":[2147483647,0,0,1,1,2,2],"right_children":[2,4,6,-1,-1,-1,-1],"split_conditions":[5.994E-1,1.6063E-1,2.9E1,-2.5831518E-1,8.307918E-2,-1.3620292E-1,-1.4165402E-3],"split_indices":[32,47,34,0,0,0,0],"split_type":[0,0,0,0,0,0,0],"sum_hessian":[5.968124E2,8.031917E1,5.164932E2,6.7836547E0,7.3535515E1,2.3630281E1,4.928629E2],"tree_param":{"num_deleted":"0","num_feature":"57","num_nodes":"7","size_leaf_vector":"1"}},{"base_weights":[3.8612776E-5,-4.649107E-1,5.879279E-3,-2.4039124E-1,1.822536E-2,-2.1099767E-3,1.1725376E-1],"categories":[],"categories_nodes":[],"categories_segments":[],"categories_sizes":[],"default_left":[0,0,0,0,0,0,0],"id":94,"left_children":[1,3,5,-1,-1,-1,-1],"loss_changes":[1.3245667E0,4.4769168E-1,1.5449706E0,0E0,0E0,0E0,0E0],"parents":[2147483647,0,0,1,1,2,2],"right_children":[2,4,6,-1,-1,-1,-1],"split_conditions":[-8.885E-1,7.7380955E-2,5.949E4,-2.4039124E-1,1.822536E-2,-2.1099767E-3,1.1725376E-1],"split_indices":[6,5,18,0,0,0,0],"split_type":[0,0,0,0,0,0,0],"sum_hessian":[4.8575308E2,5.051194E0,4.8070187E2,3.8481674E0,1.2030269E0,4.636787E2,1.7023176E1],"tree_param":{"num_deleted":"0","num_feature":"57","num_nodes":"7","size_leaf_vector":"1"}},{"base_weights":[-7.4682897E-4,-2.7755448E-1,1.0492241E-2,-1.6247623E-1,1.118255E-1,1.1599109E-1,-6.026635E-3],"categories":[],"categories_nodes":[],"categories_segments":[],"categories_sizes":[],"default_left":[0,0,0,0,0,0,0],"id":95,"left_children":[1,3,5,-1,-1,-1,-1],"loss_changes":[1.4081849E0,1.3792433E0,3.1120074E0,0E0,0E0,0E0,0E0],"parents":[2147483647,0,0,1,1,2,2],"right_children":[2,4,6,-1,-1,-1,-1],"split_conditions":[4.943E-1,7.582727E-2,6.705E-1,-1.6247623E-1,1.118255E-1,1.1599109E-1,-6.026635E-3],"split_indices":[24,33,24,0,0,0,0],"split_type":[0,0,0,0,0,0,0],"sum_hessian":[4.5070212E2,1.6661037E1,4.3404108E2,1.3755795E1,2.9052427E0,3.5500294E1,3.9854077E2],"tree_param":{"num_deleted":"0","num_feature":"57","num_nodes":"7","size_leaf_vector":"1"}},{"base_weights":[8.801719E-5,-1.8767649E-1,1.2926149E-2,5.7519735E-3,-2.321862E-1,-1.0401584E-1,9.473802E-3],"categories":[],"categories_nodes":[],"categories_segments":[],"categories_sizes":[],"default_left":[0,0,0,0,0,0,0],"id":96,"left_children":[1,3,5,-1,-1,-1,-1],"loss_changes":[1.4391402E0,3.040739E0,1.6471782E0,0E0,0E0,0E0,0E0],"parents":[2147483647,0,0,1,1,2,2],"right_children":[2,4,6,-1,-1,-1,-1],"split_conditions":[-8.52E1,-2.98E-1,-7.739E-1,5.7519735E-3,-2.321862E-1,-1.0401584E-1,9.473802E-3],"split_indices":[17,44,6,0,0,0,0],"split_type":[0,0,0,0,0,0,0],"sum_hessian":[5.950122E2,3.720792E1,5.5780426E2,2.5205322E1,1.2002597E1,2.027242E1,5.3753186E2],"tree_param":{"num_deleted":"0","num_feature":"57","num_nodes":"7","size_leaf_vector":"1"}},{"base_weights":[3.8912086E-4,-1.5118487E-1,1.8266719E-2,-1.3946848E-1,6.293416E-2,-3.473335E-2,2.2571847E-2],"categories":[],"categories_nodes":[],"categories_segments":[],"categories_sizes":[],"default_left":[0,0,0,0,0,0,0],"id":97,"left_children":[1,3,5,-1,-1,-1,-1],"loss_changes":[1.3194871E0,3.1849563E0,1.7518297E0,0E0,0E0,0E0,0E0],"parents":[2147483647,0,0,1,1,2,2],"right_children":[2,4,6,-1,-1,-1,-1],"split_conditions":[-9.37E-1,2.4719E1,-9.022E-1,-1.3946848E-1,6.293416E-2,-3.473335E-2,2.2571847E-2],"split_indices":[31,12,38,0,0,0,0],"split_type":[0,0,0,0,0,0,0],"sum_hessian":[4.849162E2,5.037327E1,4.3454294E2,3.0634031E1,1.9739235E1,1.1541534E2,3.191276E2],"tree_param":{"num_deleted":"0","num_feature":"57","num_nodes":"7","size_leaf_vector":"1"}},{"base_weights":[-5.3576246E-4,1.8924808E-2,-1.5420507E-1,2.3862503E-3,1.8805963E-1,1.8322398E-1,-1.0555644E-1],"categories":[],"categories_nodes":[],"categories_segments":[],"categories_sizes":[],"default_left":[0,0,0,0,0,0,0],"id":98,"left_children":[1,3,5,-1,-1,-1,-1],"loss_changes":[1.3511293E0,2.3423197E0,3.5314343E0,0E0,0E0,0E0,0E0],"parents":[2147483647,0,0,1,1,2,2],"right_children":[2,4,6,-1,-1,-1,-1],"split_conditions":[1.1642E-1,9.978E-2,1.1070834E-2,2.3862503E-3,1.8805963E-1,1.8322398E-1,-1.0555644E-1],"split_indices":[33,33,25,0,0,0,0],"split_type":[0,0,0,0,0,0,0],"sum_hessian":[4.4983243E2,4.0004755E2,4.9784885E1,3.8986386E2,1.0183688E1,7.081274E0,4.2703613E1],"tree_param":{"num_deleted":"0","num_feature":"57","num_nodes":"7","size_leaf_vector":"1"}},{"base_weights":[2.4770698E-5,-2.8005721E-2,8.4812775E-2,1.585172E-1,-1.6176306E-2,-3.1574667E-3,1.0337824E-1],"categories":[],"categories_nodes":[],"categories_segments":[],"categories_sizes":[],"default_left":[0,0,0,0,0,0,0],"id":99,"left_children":[1,3,5,-1,-1,-1,-1],"loss_changes":[1.4152101E0,2.3772097E0,2.3835244E0,0E0,0E0,0E0,0E0],"parents":[2147483647,0,0,1,1,2,2],"right_children":[2,4,6,-1,-1,-1,-1],"split_conditions":[3E-1,-8.75E-1,1.81205E3,1.585172E-1,-1.6176306E-2,-3.1574667E-3,1.0337824E-1],"split_indices":[4,28,13,0,0,0,0],"split_type":[0,0,0,0,0,0,0],"sum_hessian":[5.9346497E2,4.4651804E2,1.4694695E2,1.18347025E1,4.3468335E2,9.642045E1,5.0526493E1],"tree_param":{"num_deleted":"0","num_feature":"57","num_nodes":"7","size_leaf_vector":"1"}},{"base_weights":[1.3734687E-4,1.9015394E-2,-1.4847164E-1,-7.635325E-4,1.3341993E-1,-1.0570782E-1,7.20243E-2],"categories":[],"categories_nodes":[],"categories_segments":[],"categories_sizes":[],"default_left":[0,0,0,0,0,0,0],"id":100,"left_children":[1,3,5,-1,-1,-1,-1],"loss_changes":[1.3619393E0,2.83549E0,2.1292515E0,0E0,0E0,0E0,0E0],"parents":[2147483647,0,0,1,1,2,2],"right_children":[2,4,6,-1,-1,-1,-1],"split_conditions":[1.3884898E-1,1.0929365E-1,2.35E0,-7.635325E-4,1.3341993E-1,-1.0570782E-1,7.20243E-2],"split_indices":[40,40,56,0,0,0,0],"split_type":[0,0,0,0,0,0,0],"sum_hessian":[4.8345612E2,4.2973785E2,5.3718273E1,4.038649E2,2.5872952E1,3.9863262E1,1.3855009E1],"tree_param":{"num_deleted":"0","num_feature":"57","num_nodes":"7","size_leaf_vector":"1"}},{"base_weights":[-1.807227E-4,-2.972806E-1,9.780291E-3,1.685549E-1,-1.8549326E-1,2.4453763E-2,-1.9572E-2],"categories":[],"categories_nodes":[],"categories_segments":[],"categories_sizes":[],"default_left":[0,0,0,0,0,0,0],"id":101,"left_children":[1,3,5,-1,-1,-1,-1],"loss_changes":[1.3336315E0,1.944158E0,1.3176552E0,0E0,0E0,0E0,0E0],"parents":[2147483647,0,0,1,1,2,2],"right_children":[2,4,6,-1,-1,-1,-1],"split_conditions":[-3.9424036E-2,-1.1083916E-1,8.227E-1,1.685549E-1,-1.8549326E-1,2.4453763E-2,-1.9572E-2],"split_indices":[22,22,24,0,0,0,0],"split_type":[0,0,0,0,0,0,0],"sum_hessian":[4.4865765E2,1.3618683E1,4.3503897E2,2.2730575E0,1.1345626E1,2.320354E2,2.0300356E2],"tree_param":{"num_deleted":"0","num_feature":"57","num_nodes":"7","size_leaf_vector":"1"}},{"base_weights":[5.75429E-4,-4.8276314E-1,5.2246633E-3,-2.5621247E-1,3.5653736E-2,-1.962982E-3,9.44512E-2],"categories":[],"categories_nodes":[],"categories_segments":[],"categories_sizes":[],"default_left":[0,0,0,0,0,0,0],"id":102,"left_children":[1,3,5,-1,-1,-1,-1],"loss_changes":[1.336935E0,5.6852555E-1,1.3795105E0,0E0,0E0,0E0,0E0],"parents":[2147483647,0,0,1,1,2,2],"right_children":[2,4,6,-1,-1,-1,-1],"split_conditions":[-5.5333335E-2,4.3479586E4,2.4855E0,-2.5621247E-1,3.5653736E-2,-1.962982E-3,9.44512E-2],"split_indices":[30,0,45,0,0,0,0],"split_type":[0,0,0,0,0,0,0],"sum_hessian":[5.9282336E2,4.6682744E0,5.881551E2,3.5648396E0,1.1034348E0,5.643691E2,2.3785965E1],"tree_param":{"num_deleted":"0","num_feature":"57","num_nodes":"7","size_leaf_vector":"1"}},{"base_weights":[-2.5947462E-4,2.1482894E-1,-1.3270477E-2,-2.1726787E-1,1.3287918E-1,-1.1021989E-1,3.362143E-4],"categories":[],"categories_nodes":[],"categories_segments":[],"categories_sizes":[],"default_left":[0,0,0,0,0,0,0],"id":103,"left_children":[1,3,5,-1,-1,-1,-1],"loss_changes":[1.3580923E0,2.643138E0,1.6937841E0,0E0,0E0,0E0,0E0],"parents":[2147483647,0,0,1,1,2,2],"right_children":[2,4,6,-1,-1,-1,-1],"split_conditions":[1.4E-1,-1.625E-1,-5.64E-1,-2.1726787E-1,1.3287918E-1,-1.1021989E-1,3.362143E-4],"split_indices":[53,3,43,0,0,0,0],"split_type":[0,0,0,0,0,0,0],"sum_hessian":[4.8327155E2,2.6681479E1,4.565901E2,3.0910196E0,2.3590458E1,2.236515E1,4.3422495E2],"tree_param":{"num_deleted":"0","num_feature":"57","num_nodes":"7","size_leaf_vector":"1"}},{"base_weights":[-4.8093073E-4,-6.856063E-2,3.9832648E-2,2.2062374E-2,-8.957307E-2,-1.07647E-1,2.767072E-2],"categories":[],"categories_nodes":[],"categories_segments":[],"categories_sizes":[],"default_left":[0,0,0,0,0,0,0],"id":104,"left_children":[1,3,5,-1,-1,-1,-1],"loss_changes":[1.2356546E0,3.2309816E0,2.5823035E0,0E0,0E0,0E0,0E0],"parents":[2147483647,0,0,1,1,2,2],"right_children":[2,4,6,-1,-1,-1,-1],"split_conditions":[1.5E-1,4.7998375E4,7.82E2,2.2062374E-2,-8.957307E-2,-1.07647E-1,2.767072E-2],"split_indices":[4,0,10,0,0,0,0],"split_type":[0,0,0,0,0,0,0],"sum_hessian":[4.4822833E2,1.6644427E2,2.8178406E2,9.3020645E1,7.342363E1,2.37336E1,2.5805048E2],"tree_param":{"num_deleted":"0","num_feature":"57","num_nodes":"7","size_leaf_vector":"1"}},{"base_weights":[7.9727196E-4,2.8312558E-1,-6.437745E-3,2.0490654E-1,-1.2076843E-1,-8.7159924E-2,3.7271937E-3],"categories":[],"categories_nodes":[],"categories_segments":[],"categories_sizes":[],"default_left":[0,0,0,0,0,0,0],"id":105,"left_children":[1,3,5,-1,-1,-1,-1],"loss_changes":[1.211391E0,2.1411128E0,1.9289037E0,0E0,0E0,0E0,0E0],"parents":[2147483647,0,0,1,1,2,2],"right_children":[2,4,6,-1,-1,-1,-1],"split_conditions":[-5.71E-1,2.245E-1,-5.24E-1,2.0490654E-1,-1.2076843E-1,-8.7159924E-2,3.7271937E-3],"split_indices":[43,46,42,0,0,0,0],"split_type":[0,0,0,0,0,0,0],"sum_hessian":[5.9115643E2,1.3817828E1,5.773386E2,1.0018399E1,3.7994292E0,3.9144146E1,5.3819446E2],"tree_param":{"num_deleted":"0","num_feature":"57","num_nodes":"7","size_leaf_vector":"1"}},{"base_weights":[-6.608121E-5,2.7950156E-2,-9.596217E-2,-1.03823785E-2,4.9132925E-2,3.0860279E-2,-1.0304121E-1],"categories":[],"categories_nodes":[],"categories_segments":[],"categories_sizes":[],"default_left":[0,0,0,0,0,0,0],"id":106,"left_children":[1,3,5,-1,-1,-1,-1],"loss_changes":[1.30129E0,1.920419E0,3.0842257E0,0E0,0E0,0E0,0E0],"parents":[2147483647,0,0,1,1,2,2],"right_children":[2,4,6,-1,-1,-1,-1],"split_conditions":[-2.1851853E-1,8.584352E-2,5.75E-1,-1.03823785E-2,4.9132925E-2,3.0860279E-2,-1.0304121E-1],"split_indices":[35,37,36,0,0,0,0],"split_type":[0,0,0,0,0,0,0],"sum_hessian":[4.8235632E2,3.738452E2,1.085111E2,2.3886404E2,1.3498117E2,5.264861E1,5.5862495E1],"tree_param":{"num_deleted":"0","num_feature":"57","num_nodes":"7","size_leaf_vector":"1"}},{"base_weights":[-9.82118E-4,5.572102E-3,-4.1771984E-1,7.444496E-3,-8.339401E-2,4.524862E-2,-2.1105598E-1],"categories":[],"categories_nodes":[],"categories_segments":[],"categories_sizes":[],"default_left":[0,0,0,0,0,0,0],"id":107,"left_children":[1,3,5,-1,-1,-1,-1],"loss_changes":[1.2264936E0,1.2382009E0,4.653852E-1,0E0,0E0,0E0,0E0],"parents":[2147483647,0,0,1,1,2,2],"right_children":[2,4,6,-1,-1,-1,-1],"split_conditions":[8.5E-1,-1.25E-2,-4.753E-1,7.444496E-3,-8.339401E-2,4.524862E-2,-2.1105598E-1],"split_indices":[21,20,6,0,0,0,0],"split_type":[0,0,0,0,0,0,0],"sum_hessian":[4.4718414E2,4.4123135E2,5.952813E0,4.167579E2,2.4473454E1,1.016185E0,4.936628E0],"tree_param":{"num_deleted":"0","num_feature":"57","num_nodes":"7","size_leaf_vector":"1"}},{"base_weights":[7.636542E-4,-1.904516E-2,1.0554501E-1,-1.5534648E-1,-3.0049484E-3,1.0505744E-1,-2.3212777E-2],"categories":[],"categories_nodes":[],"categories_segments":[],"categories_sizes":[],"default_left":[0,0,0,0,0,0,0],"id":108,"left_children":[1,3,5,-1,-1,-1,-1],"loss_changes":[1.2273567E0,2.1154215E0,2.4312158E0,0E0,0E0,0E0,0E0],"parents":[2147483647,0,0,1,1,2,2],"right_children":[2,4,6,-1,-1,-1,-1],"split_conditions":[9.32E2,-6.5E-1,8.176E-1,-1.5534648E-1,-3.0049484E-3,1.0505744E-1,-2.3212777E-2],"split_indices":[1,20,32,0,0,0,0],"split_type":[0,0,0,0,0,0,0],"sum_hessian":[5.893594E2,4.963442E2,9.301516E1,1.4040556E1,4.8230365E2,4.7138203E1,4.5876957E1],"tree_param":{"num_deleted":"0","num_feature":"57","num_nodes":"7","size_leaf_vector":"1"}},{"base_weights":[-2.0862414E-4,8.380674E-3,-2.9622546E-1,-4.802287E-3,9.199251E-2,-1.672452E-1,2.1008293E-1],"categories":[],"categories_nodes":[],"categories_segments":[],"categories_sizes":[],"default_left":[0,0,0,0,0,0,0],"id":109,"left_children":[1,3,5,-1,-1,-1,-1],"loss_changes":[1.2282643E0,2.1237025E0,1.5834489E0,0E0,0E0,0E0,0E0],"parents":[2147483647,0,0,1,1,2,2],"right_children":[2,4,6,-1,-1,-1,-1],"split_conditions":[1.402702E-1,9.45689E-2,-5.625E-2,-4.802287E-3,9.199251E-2,-1.672452E-1,2.1008293E-1],"split_indices":[22,22,28,0,0,0,0],"split_type":[0,0,0,0,0,0,0],"sum_hessian":[4.8110217E2,4.6848032E2,1.2621854E1,4.2987897E2,3.8601368E1,1.1418523E1,1.2033309E0],"tree_param":{"num_deleted":"0","num_feature":"57","num_nodes":"7","size_leaf_vector":"1"}},{"base_weights":[-7.829991E-4,1.226327E-2,-1.9322805E-1,-3.8553264E-3,1.2012448E-1,-1.4493719E-1,1.6107056E-1],"categories":[],"categories_nodes":[],"categories_segments":[],"categories_sizes":[],"default_left":[0,0,0,0,0,0,0],"id":110,"left_children":[1,3,5,-1,-1,-1,-1],"loss_changes":[1.1254565E0,2.651685E0,3.0139341E0,0E0,0E0,0E0,0E0],"parents":[2147483647,0,0,1,1,2,2],"right_children":[2,4,6,-1,-1,-1,-1],"split_conditions":[-1.91E-1,-1.03E-1,-7.739E-1,-3.8553264E-3,1.2012448E-1,-1.4493719E-1,1.6107056E-1],"split_indices":[41,44,38,0,0,0,0],"split_type":[0,0,0,0,0,0,0],"sum_hessian":[4.4632205E2,4.188627E2,2.745934E1,3.9016336E2,2.8699343E1,2.1694489E1,5.7648506E0],"tree_param":{"num_deleted":"0","num_feature":"57","num_nodes":"7","size_leaf_vector":"1"}},{"base_weights":[3.7434974E-4,6.1071333E-3,-3.5556775E-1,-3.0503317E-3,9.491541E-2,-2.2986488E-1,1.3185382E-1],"categories":[],"categories_nodes":[],"categories_segments":[],"categories_sizes":[],"default_left":[0,0,0,0,0,0,0],"id":111,"left_children":[1,3,5,-1,-1,-1,-1],"loss_changes":[1.2057611E0,1.8478721E0,1.5955229E0,0E0,0E0,0E0,0E0],"parents":[2147483647,0,0,1,1,2,2],"right_children":[2,4,6,-1,-1,-1,-1],"split_conditions":[4.7E1,3.9E1,-8.439E-1,-3.0503317E-3,9.491541E-2,-2.2986488E-1,1.3185382E-1],"split_indices":[19,19,38,0,0,0,0],"split_type":[0,0,0,0,0,0,0],"sum_hessian":[5.88839E2,5.804727E2,8.366219E0,5.48837E2,3.1635775E1,6.461477E0,1.9047422E0],"tree_param":{"num_deleted":"0","num_feature":"57","num_nodes":"7","size_leaf_vector":"1"}},{"base_weights":[1.1014649E-4,1.02431364E-1,-2.4138471E-2,6.705633E-2,-1.9734813E-1,-8.8936105E-2,1.6422382E-3],"categories":[],"categories_nodes":[],"categories_segments":[],"categories_sizes":[],"default_left":[0,0,0,0,0,0,0],"id":112,"left_children":[1,3,5,-1,-1,-1,-1],"loss_changes":[1.1969754E0,3.6735873E0,2.18418E0,0E0,0E0,0E0,0E0],"parents":[2147483647,0,0,1,1,2,2],"right_children":[2,4,6,-1,-1,-1,-1],"split_conditions":[2.0416667E-1,2.4490741E-1,-2.15044E-1,6.705633E-2,-1.9734813E-1,-8.8936105E-2,1.6422382E-3],"split_indices":[21,5,33,0,0,0,0],"split_type":[0,0,0,0,0,0,0],"sum_hessian":[4.804315E2,9.142476E1,3.8900674E2,8.3053345E1,8.371414E0,4.7662766E1,3.4134396E2],"tree_param":{"num_deleted":"0","num_feature":"57","num_nodes":"7","size_leaf_vector":"1"}},{"base_weights":[-6.1309495E-4,-7.44923E-2,3.3683144E-2,-1.449528E-1,-3.2296577E-3,9.831075E-2,-8.078784E-3],"categories":[],"categories_nodes":[],"categories_segments":[],"categories_sizes":[],"default_left":[0,0,0,0,0,0,0],"id":113,"left_children":[1,3,5,-1,-1,-1,-1],"loss_changes":[1.1342019E0,2.7106657E0,3.4986904E0,0E0,0E0,0E0,0E0],"parents":[2147483647,0,0,1,1,2,2],"right_children":[2,4,6,-1,-1,-1,-1],"split_conditions":[2.5898078E-2,3.5625E-1,3.875263E-2,-1.449528E-1,-3.2296577E-3,9.831075E-2,-8.078784E-3],"split_indices":[22,29,22,0,0,0,0],"split_type":[0,0,0,0,0,0,0],"sum_hessian":[4.4564227E2,1.4091606E2,3.047262E2,2.558064E1,1.1533542E2,6.1008945E1,2.4371725E2],"tree_param":{"num_deleted":"0","num_feature":"57","num_nodes":"7","size_leaf_vector":"1"}},{"base_weights":[7.38519E-4,-3.3572886E-2,6.361051E-2,6.095276E-2,-2.8784558E-2,3.8326666E-2,-1.378188E-1],"categories":[],"categories_nodes":[],"categories_segments":[],"categories_sizes":[],"default_left":[0,0,0,0,0,0,0],"id":114,"left_children":[1,3,5,-1,-1,-1,-1],"loss_changes":[1.2722019E0,2.7346082E0,