{"learner":{"attributes":{},"feature_names":["Volume_DOGE","doge_tweet_count","doge_posts_count","doge_textblob_polarity_min","doge_textblob_polarity_max","doge_textblob_polarity_mean","doge_vader_polarity_compound_min","doge_vader_polarity_compound_max","doge_vader_polarity_compound_mean","uncertainty_attention_twitter","cbdc_attention_twitter","regulation_attention_twitter","VStoxx","Gold","ECRPUS1YIndex","WTI_CrudeOil","Brent_CrudeOil","PercentHikeCut","monp_attention_twitter","monp_posts_count","monp_textblob_polarity_min","monp_textblob_polarity_max","monp_textblob_polarity_mean","monp_vader_polarity_compound_min","monp_vader_polarity_compound_max","monp_vader_polarity_compound_mean","sdcc_attention_twitter","sdcc_posts_count","sdcc_textblob_polarity_min","sdcc_textblob_polarity_max","sdcc_textblob_polarity_mean","sdcc_vader_polarity_compound_min","sdcc_vader_polarity_compound_max","sdcc_vader_polarity_compound_mean","crisis_posts_count","crisis_textblob_polarity_min","crisis_textblob_polarity_max","crisis_textblob_polarity_mean","crisis_vader_polarity_compound_min","crisis_vader_polarity_compound_max","crisis_vader_polarity_compound_mean","EUR003M_Index","EUR006M_Index","EUR001M_Index","EUR012M_Index","US0001M_Index","US0003M_Index","US0006M_Index","US0012M_Index","H15T1M_Index","H15T3M_Index","H15T6M_Index","H15T1Y_Index","H15T2Y_Index","H15T5Y_Index","H15T3Y_Index","H15T10Y_Index","btc_tweet_count","btc_posts_count","btc_textblob_polarity_min","btc_textblob_polarity_max","btc_textblob_polarity_mean","btc_vader_polarity_compound_min","btc_vader_polarity_compound_max","btc_vader_polarity_compound_mean","Close_BTC","Volume_BTC"],"feature_types":["float","float","float","float","float","float","float","float","float","int","int","int","float","float","float","float","float","float","int","float","float","float","float","float","float","float","int","int","float","float","float","float","float","float","int","float","float","float","float","float","float","float","float","float","float","float","float","float","float","float","float","float","float","float","float","float","float","int","float","float","float","float","float","float","float","float","float"],"gradient_booster":{"model":{"gbtree_model_param":{"num_parallel_tree":"1","num_trees":"3000"},"iteration_indptr":[0,3,6,9,12,15,18,21,24,27,30,33,36,39,42,45,48,51,54,57,60,63,66,69,72,75,78,81,84,87,90,93,96,99,102,105,108,111,114,117,120,123,126,129,132,135,138,141,144,147,150,153,156,159,162,165,168,171,174,177,180,183,186,189,192,195,198,201,204,207,210,213,216,219,222,225,228,231,234,237,240,243,246,249,252,255,258,261,264,267,270,273,276,279,282,285,288,291,294,297,300,303,306,309,312,315,318,321,324,327,330,333,336,339,342,345,348,351,354,357,360,363,366,369,372,375,378,381,384,387,390,393,396,399,402,405,408,411,414,417,420,423,426,429,432,435,438,441,444,447,450,453,456,459,462,465,468,471,474,477,480,483,486,489,492,495,498,501,504,507,510,513,516,519,522,525,528,531,534,537,540,543,546,549,552,555,558,561,564,567,570,573,576,579,582,585,588,591,594,597,600,603,606,609,612,615,618,621,624,627,630,633,636,639,642,645,648,651,654,657,660,663,666,669,672,675,678,681,684,687,690,693,696,699,702,705,708,711,714,717,720,723,726,729,732,735,738,741,744,747,750,753,756,759,762,765,768,771,774,777,780,783,786,789,792,795,798,801,804,807,810,813,816,819,822,825,828,831,834,837,840,843,846,849,852,855,858,861,864,867,870,873,876,879,882,885,888,891,894,897,900,903,906,909,912,915,918,921,924,927,930,933,936,939,942,945,948,951,954,957,960,963,966,969,972,975,978,981,984,987,990,993,996,999,1002,1005,1008,1011,1014,1017,1020,1023,1026,1029,1032,1035,1038,1041,1044,1047,1050,1053,1056,1059,1062,1065,1068,1071,1074,1077,1080,1083,1086,1089,1092,1095,1098,1101,1104,1107,1110,1113,1116,1119,1122,1125,1128,1131,1134,1137,1140,1143,1146,1149,1152,1155,1158,1161,1164,1167,1170,1173,1176,1179,1182,1185,1188,1191,1194,1197,1200,1203,1206,1209,1212,1215,1218,1221,1224,1227,1230,1233,1236,1239,1242,1245,1248,1251,1254,1257,1260,1263,1266,1269,1272,1275,1278,1281,1284,1287,1290,1293,1296,1299,1302,1305,1308,1311,1314,1317,1320,1323,1326,1329,1332,1335,1338,1341,1344,1347,1350,1353,1356,1359,1362,1365,1368,1371,1374,1377,1380,1383,1386,1389,1392,1395,1398,1401,1404,1407,1410,1413,1416,1419,1422,1425,1428,1431,1434,1437,1440,1443,1446,1449,1452,1455,1458,1461,1464,1467,1470,1473,1476,1479,1482,1485,1488,1491,1494,1497,1500,1503,1506,1509,1512,1515,1518,1521,1524,1527,1530,1533,1536,1539,1542,1545,1548,1551,1554,1557,1560,1563,1566,1569,1572,1575,1578,1581,1584,1587,1590,1593,1596,1599,1602,1605,1608,1611,1614,1617,1620,1623,1626,1629,1632,1635,1638,1641,1644,1647,1650,1653,1656,1659,1662,1665,1668,1671,1674,1677,1680,1683,1686,1689,1692,1695,1698,1701,1704,1707,1710,1713,1716,1719,1722,1725,1728,1731,1734,1737,1740,1743,1746,1749,1752,1755,1758,1761,1764,1767,1770,1773,1776,1779,1782,1785,1788,1791,1794,1797,1800,1803,1806,1809,1812,1815,1818,1821,1824,1827,1830,1833,1836,1839,1842,1845,1848,1851,1854,1857,1860,1863,1866,1869,1872,1875,1878,1881,1884,1887,1890,1893,1896,1899,1902,1905,1908,1911,1914,1917,1920,1923,1926,1929,1932,1935,1938,1941,1944,1947,1950,1953,1956,1959,1962,1965,1968,1971,1974,1977,1980,1983,1986,1989,1992,1995,1998,2001,2004,2007,2010,2013,2016,2019,2022,2025,2028,2031,2034,2037,2040,2043,2046,2049,2052,2055,2058,2061,2064,2067,2070,2073,2076,2079,2082,2085,2088,2091,2094,2097,2100,2103,2106,2109,2112,2115,2118,2121,2124,2127,2130,2133,2136,2139,2142,2145,2148,2151,2154,2157,2160,2163,2166,2169,2172,2175,2178,2181,2184,2187,2190,2193,2196,2199,2202,2205,2208,2211,2214,2217,2220,2223,2226,2229,2232,2235,2238,2241,2244,2247,2250,2253,2256,2259,2262,2265,2268,2271,2274,2277,2280,2283,2286,2289,2292,2295,2298,2301,2304,2307,2310,2313,2316,2319,2322,2325,2328,2331,2334,2337,2340,2343,2346,2349,2352,2355,2358,2361,2364,2367,2370,2373,2376,2379,2382,2385,2388,2391,2394,2397,2400,2403,2406,2409,2412,2415,2418,2421,2424,2427,2430,2433,2436,2439,2442,2445,2448,2451,2454,2457,2460,2463,2466,2469,2472,2475,2478,2481,2484,2487,2490,2493,2496,2499,2502,2505,2508,2511,2514,2517,2520,2523,2526,2529,2532,2535,2538,2541,2544,2547,2550,2553,2556,2559,2562,2565,2568,2571,2574,2577,2580,2583,2586,2589,2592,2595,2598,2601,2604,2607,2610,2613,2616,2619,2622,2625,2628,2631,2634,2637,2640,2643,2646,2649,2652,2655,2658,2661,2664,2667,2670,2673,2676,2679,2682,2685,2688,2691,2694,2697,2700,2703,2706,2709,2712,2715,2718,2721,2724,2727,2730,2733,2736,2739,2742,2745,2748,2751,2754,2757,2760,2763,2766,2769,2772,2775,2778,2781,2784,2787,2790,2793,2796,2799,2802,2805,2808,2811,2814,2817,2820,2823,2826,2829,2832,2835,2838,2841,2844,2847,2850,2853,2856,2859,2862,2865,2868,2871,2874,2877,2880,2883,2886,2889,2892,2895,2898,2901,2904,2907,2910,2913,2916,2919,2922,2925,2928,2931,2934,2937,2940,2943,2946,2949,2952,2955,2958,2961,2964,2967,2970,2973,2976,2979,2982,2985,2988,2991,2994,2997,3000],"tree_info":[0,1,2,0,1,2,0,1,2,0,1,2,0,1,2,0,1,2,0,1,2,0,1,2,0,1,2,0,1,2,0,1,2,0,1,2,0,1,2,0,1,2,0,1,2,0,1,2,0,1,2,0,1,2,0,1,2,0,1,2,0,1,2,0,1,2,0,1,2,0,1,2,0,1,2,0,1,2,0,1,2,0,1,2,0,1,2,0,1,2,0,1,2,0,1,2,0,1,2,0,1,2,0,1,2,0,1,2,0,1,2,0,1,2,0,1,2,0,1,2,0,1,2,0,1,2,0,1,2,0,1,2,0,1,2,0,1,2,0,1,2,0,1,2,0,1,2,0,1,2,0,1,2,0,1,2,0,1,2,0,1,2,0,1,2,0,1,2,0,1,2,0,1,2,0,1,2,0,1,2,0,1,2,0,1,2,0,1,2,0,1,2,0,1,2,0,1,2,0,1,2,0,1,2,0,1,2,0,1,2,0,1,2,0,1,2,0,1,2,0,1,2,0,1,2,0,1,2,0,1,2,0,1,2,0,1,2,0,1,2,0,1,2,0,1,2,0,1,2,0,1,2,0,1,2,0,1,2,0,1,2,0,1,2,0,1,2,0,1,2,0,1,2,0,1,2,0,1,2,0,1,2,0,1,2,0,1,2,0,1,2,0,1,2,0,1,2,0,1,2,0,1,2,0,1,2,0,1,2,0,1,2,0,1,2,0,1,2,0,1,2,0,1,2,0,1,2,0,1,2,0,1,2,0,1,2,0,1,2,0,1,2,0,1,2,0,1,2,0,1,2,0,1,2,0,1,2,0,1,2,0,1,2,0,1,2,0,1,2,0,1,2,0,1,2,0,1,2,0,1,2,0,1,2,0,1,2,0,1,2,0,1,2,0,1,2,0,1,2,0,1,2,0,1,2,0,1,2,0,1,2,0,1,2,0,1,2,0,1,2,0,1,2,0,1,2,0,1,2,0,1,2,0,1,2,0,1,2,0,1,2,0,1,2,0,1,2,0,1,2,0,1,2,0,1,2,0,1,2,0,1,2,0,1,2,0,1,2,0,1,2,0,1,2,0,1,2,0,1,2,0,1,2,0,1,2,0,1,2,0,1,2,0,1,2,0,1,2,0,1,2,0,1,2,0,1,2,0,1,2,0,1,2,0,1,2,0,1,2,0,1,2,0,1,2,0,1,2,0,1,2,0,1,2,0,1,2,0,1,2,0,1,2,0,1,2,0,1,2,0,1,2,0,1,2,0,1,2,0,1,2,0,1,2,0,1,2,0,1,2,0,1,2,0,1,2,0,1,2,0,1,2,0,1,2,0,1,2,0,1,2,0,1,2,0,1,2,0,1,2,0,1,2,0,1,2,0,1,2,0,1,2,0,1,2,0,1,2,0,1,2,0,1,2,0,1,2,0,1,2,0,1,2,0,1,2,0,1,2,0,1,2,0,1,2,0,1,2,0,1,2,0,1,2,0,1,2,0,1,2,0,1,2,0,1,2,0,1,2,0,1,2,0,1,2,0,1,2,0,1,2,0,1,2,0,1,2,0,1,2,0,1,2,0,1,2,0,1,2,0,1,2,0,1,2,0,1,2,0,1,2,0,1,2,0,1,2,0,1,2,0,1,2,0,1,2,0,1,2,0,1,2,0,1,2,0,1,2,0,1,2,0,1,2,0,1,2,0,1,2,0,1,2,0,1,2,0,1,2,0,1,2,0,1,2,0,1,2,0,1,2,0,1,2,0,1,2,0,1,2,0,1,2,0,1,2,0,1,2,0,1,2,0,1,2,0,1,2,0,1,2,0,1,2,0,1,2,0,1,2,0,1,2,0,1,2,0,1,2,0,1,2,0,1,2,0,1,2,0,1,2,0,1,2,0,1,2,0,1,2,0,1,2,0,1,2,0,1,2,0,1,2,0,1,2,0,1,2,0,1,2,0,1,2,0,1,2,0,1,2,0,1,2,0,1,2,0,1,2,0,1,2,0,1,2,0,1,2,0,1,2,0,1,2,0,1,2,0,1,2,0,1,2,0,1,2,0,1,2,0,1,2,0,1,2,0,1,2,0,1,2,0,1,2,0,1,2,0,1,2,0,1,2,0,1,2,0,1,2,0,1,2,0,1,2,0,1,2,0,1,2,0,1,2,0,1,2,0,1,2,0,1,2,0,1,2,0,1,2,0,1,2,0,1,2,0,1,2,0,1,2,0,1,2,0,1,2,0,1,2,0,1,2,0,1,2,0,1,2,0,1,2,0,1,2,0,1,2,0,1,2,0,1,2,0,1,2,0,1,2,0,1,2,0,1,2,0,1,2,0,1,2,0,1,2,0,1,2,0,1,2,0,1,2,0,1,2,0,1,2,0,1,2,0,1,2,0,1,2,0,1,2,0,1,2,0,1,2,0,1,2,0,1,2,0,1,2,0,1,2,0,1,2,0,1,2,0,1,2,0,1,2,0,1,2,0,1,2,0,1,2,0,1,2,0,1,2,0,1,2,0,1,2,0,1,2,0,1,2,0,1,2,0,1,2,0,1,2,0,1,2,0,1,2,0,1,2,0,1,2,0,1,2,0,1,2,0,1,2,0,1,2,0,1,2,0,1,2,0,1,2,0,1,2,0,1,2,0,1,2,0,1,2,0,1,2,0,1,2,0,1,2,0,1,2,0,1,2,0,1,2,0,1,2,0,1,2,0,1,2,0,1,2,0,1,2,0,1,2,0,1,2,0,1,2,0,1,2,0,1,2,0,1,2,0,1,2,0,1,2,0,1,2,0,1,2,0,1,2,0,1,2,0,1,2,0,1,2,0,1,2,0,1,2,0,1,2,0,1,2,0,1,2,0,1,2,0,1,2,0,1,2,0,1,2,0,1,2,0,1,2,0,1,2,0,1,2,0,1,2,0,1,2,0,1,2,0,1,2,0,1,2,0,1,2,0,1,2,0,1,2,0,1,2,0,1,2,0,1,2,0,1,2,0,1,2,0,1,2,0,1,2,0,1,2,0,1,2,0,1,2,0,1,2,0,1,2,0,1,2,0,1,2,0,1,2,0,1,2,0,1,2,0,1,2,0,1,2,0,1,2,0,1,2,0,1,2,0,1,2,0,1,2,0,1,2,0,1,2,0,1,2,0,1,2,0,1,2,0,1,2,0,1,2,0,1,2,0,1,2,0,1,2,0,1,2,0,1,2,0,1,2,0,1,2,0,1,2,0,1,2,0,1,2,0,1,2,0,1,2,0,1,2,0,1,2,0,1,2,0,1,2,0,1,2,0,1,2,0,1,2,0,1,2,0,1,2,0,1,2,0,1,2,0,1,2,0,1,2,0,1,2,0,1,2,0,1,2,0,1,2,0,1,2,0,1,2,0,1,2,0,1,2,0,1,2,0,1,2,0,1,2,0,1,2,0,1,2,0,1,2,0,1,2,0,1,2,0,1,2,0,1,2,0,1,2,0,1,2,0,1,2,0,1,2,0,1,2,0,1,2,0,1,2,0,1,2,0,1,2,0,1,2,0,1,2,0,1,2,0,1,2,0,1,2,0,1,2,0,1,2,0,1,2,0,1,2,0,1,2,0,1,2,0,1,2,0,1,2,0,1,2,0,1,2,0,1,2,0,1,2,0,1,2,0,1,2,0,1,2,0,1,2,0,1,2,0,1,2,0,1,2,0,1,2,0,1,2,0,1,2,0,1,2,0,1,2,0,1,2,0,1,2,0,1,2,0,1,2,0,1,2,0,1,2,0,1,2,0,1,2,0,1,2,0,1,2,0,1,2,0,1,2,0,1,2,0,1,2,0,1,2,0,1,2,0,1,2,0,1,2,0,1,2,0,1,2,0,1,2,0,1,2,0,1,2,0,1,2,0,1,2,0,1,2,0,1,2,0,1,2,0,1,2,0,1,2,0,1,2,0,1,2,0,1,2,0,1,2,0,1,2,0,1,2,0,1,2,0,1,2,0,1,2,0,1,2,0,1,2,0,1,2,0,1,2,0,1,2,0,1,2,0,1,2,0,1,2,0,1,2,0,1,2,0,1,2,0,1,2,0,1,2,0,1,2,0,1,2,0,1,2,0,1,2,0,1,2,0,1,2,0,1,2,0,1,2,0,1,2,0,1,2,0,1,2,0,1,2,0,1,2,0,1,2,0,1,2,0,1,2,0,1,2,0,1,2,0,1,2,0,1,2,0,1,2,0,1,2,0,1,2,0,1,2,0,1,2,0,1,2,0,1,2,0,1,2,0,1,2,0,1,2,0,1,2,0,1,2,0,1,2,0,1,2,0,1,2,0,1,2,0,1,2,0,1,2,0,1,2,0,1,2,0,1,2,0,1,2,0,1,2,0,1,2,0,1,2,0,1,2,0,1,2,0,1,2,0,1,2,0,1,2,0,1,2,0,1,2,0,1,2,0,1,2,0,1,2,0,1,2,0,1,2,0,1,2,0,1,2,0,1,2,0,1,2,0,1,2,0,1,2,0,1,2,0,1,2,0,1,2,0,1,2,0,1,2,0,1,2,0,1,2,0,1,2,0,1,2,0,1,2,0,1,2,0,1,2,0,1,2,0,1,2,0,1,2,0,1,2,0,1,2,0,1,2,0,1,2,0,1,2,0,1,2,0,1,2,0,1,2,0,1,2,0,1,2,0,1,2,0,1,2,0,1,2,0,1,2,0,1,2,0,1,2,0,1,2,0,1,2,0,1,2,0,1,2,0,1,2,0,1,2,0,1,2,0,1,2,0,1,2,0,1,2,0,1,2,0,1,2,0,1,2,0,1,2,0,1,2,0,1,2,0,1,2,0,1,2,0,1,2,0,1,2,0,1,2,0,1,2,0,1,2,0,1,2,0,1,2,0,1,2,0,1,2,0,1,2,0,1,2,0,1,2,0,1,2,0,1,2,0,1,2,0,1,2,0,1,2,0,1,2,0,1,2,0,1,2,0,1,2,0,1,2,0,1,2,0,1,2,0,1,2,0,1,2,0,1,2,0,1,2,0,1,2,0,1,2,0,1,2,0,1,2,0,1,2,0,1,2,0,1,2,0,1,2,0,1,2,0,1,2,0,1,2,0,1,2,0,1,2,0,1,2,0,1,2,0,1,2,0,1,2,0,1,2,0,1,2,0,1,2,0,1,2,0,1,2,0,1,2,0,1,2,0,1,2,0,1,2,0,1,2,0,1,2,0,1,2,0,1,2,0,1,2,0,1,2,0,1,2,0,1,2,0,1,2,0,1,2,0,1,2,0,1,2,0,1,2,0,1,2,0,1,2,0,1,2,0,1,2,0,1,2,0,1,2,0,1,2,0,1,2,0,1,2,0,1,2,0,1,2,0,1,2,0,1,2,0,1,2,0,1,2,0,1,2,0,1,2,0,1,2,0,1,2,0,1,2,0,1,2,0,1,2,0,1,2,0,1,2,0,1,2,0,1,2,0,1,2,0,1,2,0,1,2,0,1,2,0,1,2,0,1,2,0,1,2,0,1,2,0,1,2,0,1,2,0,1,2,0,1,2,0,1,2,0,1,2,0,1,2,0,1,2,0,1,2,0,1,2,0,1,2,0,1,2,0,1,2,0,1,2,0,1,2,0,1,2,0,1,2,0,1,2,0,1,2,0,1,2,0,1,2,0,1,2,0,1,2,0,1,2,0,1,2,0,1,2,0,1,2,0,1,2,0,1,2,0,1,2,0,1,2,0,1,2,0,1,2,0,1,2,0,1,2,0,1,2,0,1,2,0,1,2,0,1,2,0,1,2,0,1,2,0,1,2,0,1,2,0,1,2,0,1,2,0,1,2,0,1,2,0,1,2,0,1,2,0,1,2,0,1,2,0,1,2,0,1,2,0,1,2,0,1,2,0,1,2,0,1,2,0,1,2,0,1,2,0,1,2,0,1,2,0,1,2,0,1,2,0,1,2,0,1,2,0,1,2,0,1,2,0,1,2,0,1,2,0,1,2,0,1,2,0,1,2,0,1,2,0,1,2,0,1,2,0,1,2,0,1,2,0,1,2,0,1,2,0,1,2,0,1,2,0,1,2,0,1,2,0,1,2,0,1,2,0,1,2,0,1,2,0,1,2,0,1,2,0,1,2,0,1,2,0,1,2,0,1,2,0,1,2,0,1,2,0,1,2,0,1,2,0,1,2,0,1,2,0,1,2,0,1,2,0,1,2,0,1,2,0,1,2,0,1,2,0,1,2,0,1,2,0,1,2,0,1,2,0,1,2,0,1,2,0,1,2,0,1,2,0,1,2,0,1,2,0,1,2,0,1,2,0,1,2,0,1,2,0,1,2,0,1,2,0,1,2,0,1,2,0,1,2,0,1,2,0,1,2,0,1,2,0,1,2,0,1,2,0,1,2,0,1,2,0,1,2,0,1,2,0,1,2,0,1,2,0,1,2,0,1,2,0,1,2,0,1,2,0,1,2,0,1,2,0,1,2,0,1,2,0,1,2,0,1,2,0,1,2,0,1,2,0,1,2,0,1,2,0,1,2,0,1,2,0,1,2,0,1,2,0,1,2,0,1,2,0,1,2,0,1,2,0,1,2,0,1,2,0,1,2,0,1,2,0,1,2,0,1,2,0,1,2,0,1,2,0,1,2,0,1,2,0,1,2,0,1,2,0,1,2,0,1,2,0,1,2,0,1,2,0,1,2,0,1,2,0,1,2,0,1,2,0,1,2,0,1,2,0,1,2,0,1,2,0,1,2,0,1,2,0,1,2,0,1,2,0,1,2],"trees":[{"base_weights":[7.0316947E-1,1.4793472E0,2.4238767E-1,-6.0000014E-2,7.465296E-1,4.8691097E-1,-1.7877556E-1,5.57805E-1,-1.0300434E-1,-8.2936175E-2,-3.5675678E-1,6.1328787E-1,-2.6400006E-1,-3.3727816E-1,4.5205477E-1,1.6872847E-2,-6.035504E-1,3.1234863E-1,7.008106E-1,3.1578943E-1,-3.3116886E-1,-4.705883E-1,2.9999998E-1,5.2040815E-1,-2.7272728E-1,5.744681E-1,-8.718631E-2,-8.1081115E-2,-3.5106385E-1,1.7647055E-1,1.0153846E0,3.4572488E-1,7.8213304E-1,7.317073E-1,-2.4000001E-1,2.0689654E-1,-6.31579E-1,-9.230773E-2,1.0235294E0,-1.5319154E-1,6.8852454E-1,-2.4000001E-1,2.142857E-1,2.9126171E-2,9.473684E-1,6.226415E-1,-1.2772424E-8,8.287289E-2,8.041237E-1,3.6263734E-1,9.1116446E-1,5.1724136E-1,-1.2772424E-8,-1.2772424E-8,-3.4710747E-1,5.454545E-1,-2.9268295E-1,6.4615387E-1,5.1724125E-2,-2.2325586E-1,5.217391E-1,-2.1428573E-1,5.2040815E-1,2.6865667E-1,-3.8461542E-1,5.9999996E-1,-1.2772424E-8,-2.068966E-1,5E-1,1.0235294E0,-2.1428573E-1,-3.092784E-1,6.972973E-1,6.3414633E-1,1.1099366E0,-1.2772424E-8,4.285714E-1,-3.015076E-1,6.315789E-1,5.2040815E-1,-2.586207E-1,-3.5294122E-1,6.72E-1,-5.9405947E-1,2.9999998E-1,3.934426E-1,-5.806452E-1,-1.2772424E-8,5.958904E-1,2.0689654E-1,-5.454546E-1,8.3431953E-1,-2.4000001E-1,-2.586207E-1,7.13467E-1,1.6216213E-1,1.1662921E0,9.554136E-2,-4.342985E-1,5.8536583E-1,-2.4000001E-1,-3.26087E-1,2.9999998E-1,-2.44898E-1,1.1294117E0,-3.370787E-1,-1.2772424E-8,-2.4000001E-1,7.9999995E-1,-1.2772424E-8,-3.3333337E-1,-3.2307696E-1,-1.2772424E-8,9.836062E-2,1.1538461E0,1.5463914E-1,8.965517E-1,-2.4000001E-1,4.285714E-1,1.2141176E0,5.1724125E-2,6.521739E-1,-3.092784E-1,-4.0871758E-8,-5.52408E-1,-2.837838E-1,2.142857E-1,6.5753424E-1,-1.2772424E-8,-1.2772424E-8,5.4545456E-1,-2.837838E-1,4.090909E-1,5.1724125E-2,6.8041235E-1,7.317073E-1,-2.3076928E-1,1.0087336E0,7.31707E-2,1.2802056E0,3.9999998E-1,-2.4000001E-1,5.377358E-1,5.454545E-1,-3.2876715E-1,6.315789E-1,-3.157895E-1,-5.9824055E-1,2.142857E-1,5.1724136E-1,-1.2772424E-8,-3.1132078E-1,4.285714E-1,1.0985916E0,-6.0000014E-2,-2.586207E-1,4.285714E-1,-1.2772424E-8,1.3209549E0,-2.4000001E-1,5.1724136E-1,-1.2772424E-8,4.285714E-1,-1.03448294E-1,5.675676E-1,-6.688525E-1,-3.576279E-8,2.926829E-1,1.2265193E0,1.3628808E0,1.1999999E-1,-6.962458E-1,-1.2772424E-8,-2.7272728E-1,4.285714E-1,3.6206895E-1,-2.1428573E-1,-1.2772424E-8,1.3136095E0,2.142857E-1,1.3839542E0,-3.6298937E-1,-1.2772424E-8,1.3566879E0,2.142857E-1,1.4065282E0,2.142857E-1,2.142857E-1,7.034483E-1,1.4307692E0,2.142857E-1,2.142857E-1,7.284345E-1],"categories":[],"categories_nodes":[],"categories_segments":[],"categories_sizes":[],"default_left":[0,0,0,0,0,0,0,0,0,0,0,0,0,0,0,0,0,0,0,0,0,0,0,0,0,0,0,0,0,0,0,0,0,0,0,0,0,0,0,0,0,0,0,0,0,0,0,0,0,0,0,0,0,0,0,0,0,0,0,0,0,0,0,0,0,0,0,0,0,0,0,0,0,0,0,0,0,0,0,0,0,0,0,0,0,0,0,0,0,0,0,0,0,0,0,0,0,0,0,0,0,0,0,0,0,0,0,0,0,0,0,0,0,0,0,0,0,0,0,0,0,0,0,0,0,0,0,0,0,0,0,0,0,0,0,0,0,0,0,0,0,0,0,0,0,0,0,0,0,0,0,0,0,0,0,0,0,0,0,0,0,0,0,0,0,0,0,0,0,0,0,0,0,0,0,0,0,0,0,0,0,0,0,0,0,0,0,0,0,0,0,0,0],"id":0,"left_children":[1,3,5,-1,-1,7,9,11,13,15,-1,17,19,21,23,25,27,29,31,33,-1,35,-1,-1,-1,37,39,41,-1,43,45,47,49,51,-1,-1,53,55,57,59,61,-1,-1,63,65,-1,-1,67,69,71,73,-1,-1,-1,-1,75,-1,-1,-1,77,79,-1,-1,81,83,-1,-1,85,-1,87,-1,89,91,93,95,-1,-1,97,99,-1,-1,101,103,105,-1,107,109,-1,-1,-1,111,113,-1,-1,115,117,119,121,123,-1,-1,-1,-1,125,127,-1,-1,-1,129,-1,-1,-1,-1,131,133,135,137,-1,-1,139,-1,141,143,145,147,-1,-1,-1,-1,-1,-1,-1,-1,-1,-1,149,151,153,155,157,159,-1,-1,161,-1,163,-1,165,-1,-1,-1,-1,-1,167,-1,-1,-1,-1,169,-1,-1,-1,-1,-1,-1,171,173,175,177,179,-1,181,-1,-1,-1,-1,-1,-1,183,-1,185,-1,-1,187,-1,189,-1,-1,-1,191,-1,-1,-1],"loss_changes":[2.0902481E2,4.9574585E0,3.8042458E1,0E0,0E0,9.820442E0,6.916377E0,9.671234E0,3.518951E0,6.0666423E0,0E0,4.9347763E0,3.416826E0,2.6286108E0,5.331334E0,5.781457E0,9.101944E-1,4.2044506E0,4.083519E0,2.4474454E0,0E0,2.6817553E0,0E0,0E0,0E0,4.7854443E0,4.4120464E0,1.0415444E0,0E0,4.478043E0,1.6859221E0,3.5347035E0,6.267189E0,1.0092514E0,0E0,0E0,5.846019E-1,2.590346E0,2.2019033E0,3.8207521E0,3.1134162E0,0E0,0E0,3.5058908E0,1.515789E0,0E0,0E0,5.5515327E0,3.3536172E0,7.0365124E0,4.392563E0,0E0,0E0,0E0,0E0,6.233767E-1,0E0,0E0,0E0,4.9843736E0,4.673072E0,0E0,0E0,5.8365297E0,3.037319E0,0E0,0E0,3.8433962E0,0E0,1.6264305E0,0E0,2.0662508E0,3.7164116E0,4.1135178E0,2.6179886E0,0E0,0E0,3.5388846E0,4.357586E0,0E0,0E0,3.0843992E0,6.1015897E0,5.3398585E-1,0E0,2.7908196E0,5.16129E-1,0E0,0E0,0E0,4.6992993E-1,4.3022614E0,0E0,0E0,3.828823E0,2.2461777E0,2.3877182E0,4.132562E0,2.5590382E0,0E0,0E0,0E0,0E0,1.4263651E0,1.9803381E0,0E0,0E0,0E0,1.1636364E0,0E0,0E0,0E0,0E0,3.713296E0,2.6855545E0,2.5659077E0,2.6048756E0,0E0,0E0,2.028633E0,0E0,4.1904516E0,3.5668306E0,5.0526314E0,2.0198517E0,0E0,0E0,0E0,0E0,0E0,0E0,0E0,0E0,0E0,0E0,1.0092514E0,3.6126895E0,2.7125473E0,2.5519645E0,2.254799E0,3.2882757E0,0E0,0E0,6.233767E-1,0E0,2.9089124E0,0E0,1.6005392E0,0E0,0E0,0E0,0E0,0E0,2.081007E0,0E0,0E0,0E0,0E0,1.5713272E0,0E0,0E0,0E0,0E0,0E0,0E0,6.209135E-1,2.8051949E0,1.7279828E0,2.1482277E0,1.9661713E-1,0E0,6.739464E-1,0E0,0E0,0E0,0E0,0E0,0E0,1.3448334E-1,0E0,2.3351288E-1,0E0,0E0,2.0994186E-1,0E0,2.74498E-1,0E0,0E0,0E0,3.202057E-1,0E0,0E0,0E0],"parents":[2147483647,0,0,1,1,2,2,5,5,6,6,7,7,8,8,9,9,11,11,12,12,13,13,14,14,15,15,16,16,17,17,18,18,19,19,21,21,25,25,26,26,27,27,29,29,30,30,31,31,32,32,33,33,36,36,37,37,38,38,39,39,40,40,43,43,44,44,47,47,48,48,49,49,50,50,55,55,59,59,60,60,63,63,64,64,67,67,69,69,71,71,72,72,73,73,74,74,77,77,78,78,81,81,82,82,83,83,85,85,86,86,90,90,91,91,94,94,95,95,96,96,97,97,98,98,103,103,104,104,108,108,113,113,114,114,115,115,116,116,119,119,121,121,122,122,123,123,124,124,135,135,136,136,137,137,138,138,139,139,140,140,143,143,145,145,147,147,153,153,158,158,165,165,166,166,167,167,168,168,169,169,171,171,178,178,180,180,183,183,185,185,189,189],"right_children":[2,4,6,-1,-1,8,10,12,14,16,-1,18,20,22,24,26,28,30,32,34,-1,36,-1,-1,-1,38,40,42,-1,44,46,48,50,52,-1,-1,54,56,58,60,62,-1,-1,64,66,-1,-1,68,70,72,74,-1,-1,-1,-1,76,-1,-1,-1,78,80,-1,-1,82,84,-1,-1,86,-1,88,-1,90,92,94,96,-1,-1,98,100,-1,-1,102,104,106,-1,108,110,-1,-1,-1,112,114,-1,-1,116,118,120,122,124,-1,-1,-1,-1,126,128,-1,-1,-1,130,-1,-1,-1,-1,132,134,136,138,-1,-1,140,-1,142,144,146,148,-1,-1,-1,-1,-1,-1,-1,-1,-1,-1,150,152,154,156,158,160,-1,-1,162,-1,164,-1,166,-1,-1,-1,-1,-1,168,-1,-1,-1,-1,170,-1,-1,-1,-1,-1,-1,172,174,176,178,180,-1,182,-1,-1,-1,-1,-1,-1,184,-1,186,-1,-1,188,-1,190,-1,-1,-1,192,-1,-1,-1],"split_conditions":[1.40978E3,-3.56E-1,6.3E1,-6.0000014E-2,7.465296E-1,9.349E-1,7.0237066E9,2.0642116E9,-8.045E-1,2.27E-1,-3.5675678E-1,3E1,2.2588E-1,3.5E1,6.114E-1,1.513E-1,-3.6666667E-1,6.1995454E-2,1.37262E1,4.0358546E9,-3.3116886E-1,2.6E-1,2.9999998E-1,5.2040815E-1,-2.7272728E-1,7.906E-1,8.591E-1,9.632475E8,-3.5106385E-1,2.3520201E-1,9.246E-1,8.316E-1,-1.9405556E-1,8.668E-1,-2.4000001E-1,2.0689654E-1,1.9E-1,7.5E-2,9.488667E-2,3.5600436E-1,3.823033E4,-2.4000001E-1,2.142857E-1,-8.462E-1,-5.965E-1,6.226415E-1,-1.2772424E-8,9.307E-1,9.468E-1,1.2E-1,-5.7E0,5.1724136E-1,-1.2772424E-8,-1.2772424E-8,-3.4710747E-1,9.078E-1,-2.9268295E-1,6.4615387E-1,5.1724125E-2,1.0028E2,5.685E3,-2.1428573E-1,5.2040815E-1,-8.953E-1,-4.404E-1,5.9999996E-1,-1.2772424E-8,1.2614943E-1,5E-1,3E0,-2.1428573E-1,2.0416667E-1,5.949E4,2.9863E-1,4.939E-1,-1.2772424E-8,4.285714E-1,-2.8125E-1,-8.854E-1,5.2040815E-1,-2.586207E-1,3.5E1,2.1E1,2.4234857E-1,2.9999998E-1,1.72363E0,2.718E3,-1.2772424E-8,5.958904E-1,2.0689654E-1,6.987114E8,-8.438E-1,-2.4000001E-1,-2.586207E-1,1.0874581E-2,-1.7777778E-1,9.26E-1,4.986E3,5.9957135E-2,5.8536583E-1,-2.4000001E-1,-3.26087E-1,2.9999998E-1,2.5548E-1,9.8080166E-2,-3.370787E-1,-1.2772424E-8,-2.4000001E-1,1.6666668E-2,-1.2772424E-8,-3.3333337E-1,-3.2307696E-1,-1.2772424E-8,7.236E-1,-3.4375E-1,-4.22E-1,-7.089E-1,-2.4000001E-1,4.285714E-1,6.25E-1,5.1724125E-2,6.61E1,7.783E-1,4.9E1,-2.263E-1,-2.837838E-1,2.142857E-1,6.5753424E-1,-1.2772424E-8,-1.2772424E-8,5.4545456E-1,-2.837838E-1,4.090909E-1,5.1724125E-2,6.8041235E-1,3.417E3,-3.39E-1,6.9E2,6E0,-6E-1,5.357E1,-2.4000001E-1,5.377358E-1,1.1620541E9,-3.2876715E-1,-8.426E-1,-3.157895E-1,1.2626706E-1,2.142857E-1,5.1724136E-1,-1.2772424E-8,-3.1132078E-1,4.285714E-1,-4.981E-1,-6.0000014E-2,-2.586207E-1,4.285714E-1,-1.2772424E-8,9.1E-1,-2.4000001E-1,5.1724136E-1,-1.2772424E-8,4.285714E-1,-1.03448294E-1,5.675676E-1,3.5E1,6.996E-1,1.939E3,-1.2916666E-1,-1.31675E-1,1.1999999E-1,3.4812173E-1,-1.2772424E-8,-2.7272728E-1,4.285714E-1,3.6206895E-1,-2.1428573E-1,-1.2772424E-8,1.1414246E9,2.142857E-1,1.4798E4,-3.6298937E-1,-1.2772424E-8,1.91E2,2.142857E-1,1.94754E3,2.142857E-1,2.142857E-1,7.034483E-1,-5.47E-1,2.142857E-1,2.142857E-1,7.284345E-1],"split_indices":[13,41,1,0,0,7,0,0,31,44,0,14,46,19,63,63,59,33,12,0,0,29,0,0,0,32,63,0,0,61,39,32,33,7,0,0,21,60,33,8,65,0,0,31,23,0,0,39,39,50,17,0,0,0,0,7,0,0,0,15,11,0,0,38,23,0,0,5,0,2,0,21,18,47,24,0,0,20,38,0,0,19,27,5,0,45,9,0,0,0,0,23,0,0,22,3,7,10,37,0,0,0,0,8,30,0,0,0,4,0,0,0,0,32,3,41,31,0,0,21,0,15,24,34,23,0,0,0,0,0,0,0,0,0,0,9,42,11,1,3,15,0,0,0,0,31,0,30,0,0,0,0,0,6,0,0,0,0,29,0,0,0,0,0,0,2,63,10,61,8,0,25,0,0,0,0,0,0,0,0,11,0,0,11,0,13,0,0,0,43,0,0,0],"split_type":[0,0,0,0,0,0,0,0,0,0,0,0,0,0,0,0,0,0,0,0,0,0,0,0,0,0,0,0,0,0,0,0,0,0,0,0,0,0,0,0,0,0,0,0,0,0,0,0,0,0,0,0,0,0,0,0,0,0,0,0,0,0,0,0,0,0,0,0,0,0,0,0,0,0,0,0,0,0,0,0,0,0,0,0,0,0,0,0,0,0,0,0,0,0,0,0,0,0,0,0,0,0,0,0,0,0,0,0,0,0,0,0,0,0,0,0,0,0,0,0,0,0,0,0,0,0,0,0,0,0,0,0,0,0,0,0,0,0,0,0,0,0,0,0,0,0,0,0,0,0,0,0,0,0,0,0,0,0,0,0,0,0,0,0,0,0,0,0,0,0,0,0,0,0,0,0,0,0,0,0,0,0,0,0,0,0,0,0,0,0,0,0,0],"sum_hessian":[5.844444E2,2.1688887E2,3.6755554E2,1.7777777E0,2.151111E2,2.3244443E2,1.351111E2,2.0755554E2,2.4888887E1,1.1555555E2,1.9555553E1,1.9466666E2,1.2888888E1,1.7777777E1,7.1111107E0,9.777777E1,1.7777777E1,4.4888885E1,1.4977777E2,5.333333E0,7.5555553E0,1.5999999E1,1.7777777E0,4.444444E0,2.6666665E0,1.4666666E1,8.311111E1,3.111111E0,1.4666666E1,3.8666664E1,6.222222E0,2.8888887E1,1.20888885E2,3.5555553E0,1.7777777E0,2.222222E0,1.3777777E1,6.222222E0,8.444444E0,7.733333E1,5.7777777E0,1.7777777E0,1.3333333E0,3.3333332E1,5.333333E0,4.8888884E0,1.3333333E0,1.911111E1,9.777777E0,2.9333332E1,9.155555E1,2.222222E0,1.3333333E0,1.3333333E0,1.2444444E1,2.6666665E0,3.5555553E0,6.222222E0,2.222222E0,7.0666664E1,6.666666E0,1.3333333E0,4.444444E0,2.1333332E1,1.1999999E1,3.9999998E0,1.3333333E0,1.5111111E1,3.9999998E0,8.444444E0,1.3333333E0,9.777777E0,1.9555553E1,3.9999996E1,5.1555553E1,1.3333333E0,1.3333333E0,6.533333E1,5.333333E0,4.444444E0,2.222222E0,8.444444E0,1.2888888E1,1.0222221E1,1.7777777E0,5.7777777E0,9.333333E0,1.3333333E0,7.1111107E0,2.222222E0,7.5555553E0,1.7777777E1,1.7777777E0,2.222222E0,3.7777775E1,3.111111E0,4.8444443E1,1.6444443E1,4.8888885E1,3.5555553E0,1.7777777E0,6.666666E0,1.7777777E0,4.444444E0,8.444444E0,8.888888E0,1.3333333E0,1.7777777E0,3.9999998E0,1.3333333E0,7.9999995E0,6.222222E0,1.3333333E0,5.7777777E0,1.1999999E1,9.777777E0,2.7999998E1,1.7777777E0,1.3333333E0,4.622222E1,2.222222E0,6.666666E0,9.777777E0,1.0666666E1,3.822222E1,3.111111E0,1.3333333E0,7.1111107E0,1.3333333E0,1.3333333E0,2.6666665E0,3.111111E0,2.6666665E0,2.222222E0,9.777777E0,3.5555553E0,6.222222E0,2.4444443E1,3.5555553E0,4.222222E1,3.9999998E0,1.7777777E0,4.8888884E0,2.6666665E0,7.1111107E0,5.333333E0,5.333333E0,3.6888885E1,1.3333333E0,2.222222E0,1.3333333E0,4.8888884E0,1.3333333E0,2.2666666E1,1.7777777E0,2.222222E0,1.3333333E0,1.3333333E0,4.0888885E1,1.7777777E0,2.222222E0,1.3333333E0,1.3333333E0,2.222222E0,3.111111E0,3.2888885E1,3.9999998E0,3.5555553E0,1.911111E1,3.9111107E1,1.7777777E0,3.1555553E1,1.3333333E0,2.6666665E0,1.3333333E0,2.222222E0,1.3333333E0,1.3333333E0,1.7777777E1,1.3333333E0,3.7777775E1,3.0222221E1,1.3333333E0,1.6444443E1,1.3333333E0,3.6444443E1,1.3333333E0,1.3333333E0,1.5111111E1,3.511111E1,1.3333333E0,1.3333333E0,3.3777775E1],"tree_param":{"num_deleted":"0","num_feature":"67","num_nodes":"193","size_leaf_vector":"1"}},{"base_weights":[-3.695199E-1,-7.422069E-1,-1.3724291E-1,-6.0000014E-2,-3.7331674E-1,-3.183674E-1,-2.792753E-2,5.660377E-1,-3.5563087E-1,3.6144575E-1,-8.162137E-2,-2.1428573E-1,4.7560975E-1,1.239669E-1,-4.069224E-1,5.492957E-1,-3E-1,-2.592593E-1,3.885287E-2,5.753424E-1,-4.7368425E-1,5.454545E-1,-4.3349287E-1,9.6330273E-1,1.0619465E-1,-3.4736848E-1,5.753424E-1,4.7619045E-1,-5.3274184E-2,-2.727273E-1,5.2040815E-1,-1.2772424E-8,-3E-1,4.285714E-1,-1.2772424E-8,-4.7962388E-1,6.1855633E-2,1.247191E0,-1.03448294E-1,-3.913044E-1,7.35849E-1,-3.8131705E-1,4.285714E-1,-2.586207E-1,5.377358E-1,7.4452555E-1,-1.9672136E-1,4.7560975E-1,-1.0011512E-1,-2.1428573E-1,-1.2772424E-8,-2.9370636E-1,-6.201118E-1,4.090909E-1,-2.8767127E-1,6.6233766E-1,2.142857E-1,2.142857E-1,-3.157895E-1,5.4545456E-1,5.1724125E-2,-4.1653672E-1,4.285714E-1,-3.576279E-8,1.0099009E0,2.0689654E-1,-2.9268295E-1,4.8E-1,-1.3012901E-1,-3.9024395E-1,2.6086953E-1,-6.928407E-1,-2.9203546E-1,2.7272725E-1,-3.0612248E-1,-6.144579E-1,-2.8428933E-1,2.9999998E-1,-2.586207E-1,6.6233766E-1,-3.2511625E-8,-2.4311188E-1,1.5918364E-1,-4.50425E-1,2.9999998E-1,7.317073E-1,-3.2432437E-1,-7.1258914E-1,-1.2772424E-8,2.0689654E-1,-4.83871E-1,-2.1428573E-1,4.285714E-1,5.1724125E-2,-6.812228E-1,-4.2574747E-8,-5.1583713E-1,-2.1428573E-1,2.142857E-1,3.913043E-1,-3.1777385E-1,8.769231E-1,-9.523814E-2,2.142857E-1,-4.926687E-1,-1.2772424E-8,5.1724136E-1,-2.4000001E-1,-1.2772424E-8,-3.6649877E-1,-2.727273E-1,-3.3116886E-1,1.1999999E-1,-3.5944703E-1,-1.2772424E-8,-2.4840769E-1,4.7560975E-1,1.1999999E-1,-5.853659E-1,-3.2432437E-1,4.7560975E-1,3.287671E-1,-4.0770796E-1,-6.0000014E-2,6.122449E-1,-3.2307696E-1,1.804511E-1,2.142857E-1,-5.3799397E-1,-1.2772424E-8,-2.1428573E-1,-5.309735E-1,3.9622638E-1,-6.6666675E-1,1.1999999E-1,-2.4000001E-1,-1.2772424E-8,7.9999995E-1,-3.2432437E-1,-4.5283026E-1,2.9999998E-1,5.555555E-1,-3.4426233E-1,1.6216213E-1,-6.0797346E-1,-3.402062E-1,1.1999999E-1,-2.727273E-1,5.1724136E-1,-3.5593224E-1,-1.2772424E-8,5.4545456E-1,-1.2772424E-8,-2.4000001E-1,-1.2772424E-8,2.142857E-1,-4.83871E-1,8.769231E-1,-2.4000001E-1,1.1999999E-1,-3E-1,4.285714E-1,-2.4000001E-1,-6.1224528E-2,-6.8965524E-1,-2.1428573E-1,-1.2772424E-8,-3.8872596E-8,-5.5555564E-1,5.1724125E-2,5.9999996E-1,-2.586207E-1,2.0689654E-1,-1.2772424E-8,-3.614458E-1,-3E-1,4.090909E-1,-2.571429E-1,-6.4077675E-1,-4.83871E-1,4.285714E-1,-1.2772424E-8,-6.6666675E-1,2.142857E-1,-3.3333337E-1,-6.947369E-1,-1.2772424E-8,-3.626374E-1,-1.2772424E-8],"categories":[],"categories_nodes":[],"categories_segments":[],"categories_sizes":[],"default_left":[0,0,0,0,0,0,0,0,0,0,0,0,0,0,0,0,0,0,0,0,0,0,0,0,0,0,0,0,0,0,0,0,0,0,0,0,0,0,0,0,0,0,0,0,0,0,0,0,0,0,0,0,0,0,0,0,0,0,0,0,0,0,0,0,0,0,0,0,0,0,0,0,0,0,0,0,0,0,0,0,0,0,0,0,0,0,0,0,0,0,0,0,0,0,0,0,0,0,0,0,0,0,0,0,0,0,0,0,0,0,0,0,0,0,0,0,0,0,0,0,0,0,0,0,0,0,0,0,0,0,0,0,0,0,0,0,0,0,0,0,0,0,0,0,0,0,0,0,0,0,0,0,0,0,0,0,0,0,0,0,0,0,0,0,0,0,0,0,0,0,0,0,0,0,0,0,0,0,0,0,0,0,0,0,0,0,0,0,0],"id":1,"left_children":[1,3,5,-1,-1,7,9,11,13,15,17,-1,-1,19,21,23,-1,25,27,29,31,33,35,37,39,41,43,45,47,49,-1,-1,-1,-1,-1,51,53,55,-1,57,59,61,-1,-1,-1,63,65,-1,67,-1,-1,69,71,-1,73,-1,-1,-1,-1,-1,-1,75,-1,77,79,-1,-1,-1,81,83,85,87,89,91,-1,93,95,-1,-1,-1,97,99,101,103,-1,105,107,109,-1,-1,111,-1,-1,-1,113,115,117,-1,-1,119,121,123,125,-1,127,-1,-1,-1,-1,-1,129,-1,-1,-1,-1,131,-1,-1,133,135,-1,137,139,-1,-1,-1,141,-1,143,-1,-1,145,147,149,-1,-1,-1,151,153,155,-1,157,159,161,163,-1,-1,165,-1,-1,-1,-1,-1,-1,-1,-1,167,169,-1,-1,-1,-1,-1,171,173,-1,-1,175,177,-1,-1,-1,-1,-1,-1,-1,-1,179,181,183,-1,-1,185,-1,-1,187,-1,-1,-1],"loss_changes":[5.0578064E1,5.288849E-1,7.156397E0,0E0,0E0,4.6869764E0,4.7707324E0,2.6637301E0,3.2784233E0,5.3263865E0,4.29261E0,0E0,0E0,3.8993723E0,3.2421322E0,4.2392793E0,0E0,6.1562757E0,4.8647203E0,3.4857552E0,3.7894738E-1,6.233767E-1,2.6829128E0,4.2814226E0,4.2209992E0,3.3482676E0,4.9884586E0,3.9383464E0,4.805601E0,1.5584415E-1,0E0,0E0,0E0,0E0,0E0,2.5952072E0,3.084541E0,5.9535027E-2,0E0,1.7809744E0,1.20944E0,3.5217695E0,0E0,0E0,0E0,3.0075884E0,1.8504047E0,0E0,3.1971447E0,0E0,0E0,2.6537533E0,1.2213516E0,0E0,1.6423107E0,0E0,0E0,0E0,0E0,0E0,0E0,1.6895275E0,0E0,1.862069E0,3.567441E0,0E0,0E0,0E0,3.1367362E0,2.7136045E0,2.3497176E0,6.582813E-1,1.9002826E0,1.8701298E0,0E0,1.3965588E0,2.9329393E0,0E0,0E0,0E0,8.5714287E-1,3.3716002E0,5.054527E0,1.6675463E0,0E0,1.0092514E0,2.0756751E-1,2.2000885E-1,0E0,0E0,1.493892E0,0E0,0E0,0E0,6.5296936E-1,5.1983843E0,1.4309406E0,0E0,0E0,3.3804703E0,3.7326374E0,2.6494184E0,3.3061113E0,0E0,1.8126383E0,0E0,0E0,0E0,0E0,0E0,1.5584415E-1,0E0,0E0,0E0,0E0,3.387918E0,0E0,0E0,1.688456E0,2.0756751E-1,0E0,2.75572E0,2.7624483E0,0E0,0E0,0E0,3.0998533E0,0E0,1.8896875E0,0E0,0E0,1.609868E0,2.7964747E0,6.327677E-1,0E0,0E0,0E0,1.1636364E0,2.0756751E-1,1.6574211E0,0E0,3.4160686E0,1.1567214E0,2.2461777E0,1.4513855E0,0E0,0E0,1.5584415E-1,0E0,0E0,0E0,0E0,0E0,0E0,0E0,0E0,1.7921152E0,1.6806364E0,0E0,0E0,0E0,0E0,0E0,1.3933849E0,6.6472816E-1,0E0,0E0,4.254545E0,9.7962666E-1,0E0,0E0,0E0,0E0,0E0,0E0,0E0,0E0,3.362212E0,5.695791E-1,2.0092165E0,0E0,0E0,6.175451E-1,0E0,0E0,6.7183304E-1,0E0,0E0,0E0],"parents":[2147483647,0,0,1,1,2,2,5,5,6,6,7,7,8,8,9,9,10,10,13,13,14,14,15,15,17,17,18,18,19,19,20,20,21,21,22,22,23,23,24,24,25,25,26,26,27,27,28,28,29,29,35,35,36,36,37,37,39,39,40,40,41,41,45,45,46,46,48,48,51,51,52,52,54,54,61,61,63,63,64,64,68,68,69,69,70,70,71,71,72,72,73,73,75,75,76,76,80,80,81,81,82,82,83,83,85,85,86,86,87,87,90,90,94,94,95,95,96,96,99,99,100,100,101,101,102,102,104,104,110,110,115,115,118,118,119,119,121,121,122,122,126,126,128,128,131,131,132,132,133,133,137,137,138,138,139,139,141,141,142,142,143,143,144,144,147,147,156,156,157,157,163,163,164,164,167,167,168,168,177,177,178,178,179,179,182,182,185,185],"right_children":[2,4,6,-1,-1,8,10,12,14,16,18,-1,-1,20,22,24,-1,26,28,30,32,34,36,38,40,42,44,46,48,50,-1,-1,-1,-1,-1,52,54,56,-1,58,60,62,-1,-1,-1,64,66,-1,68,-1,-1,70,72,-1,74,-1,-1,-1,-1,-1,-1,76,-1,78,80,-1,-1,-1,82,84,86,88,90,92,-1,94,96,-1,-1,-1,98,100,102,104,-1,106,108,110,-1,-1,112,-1,-1,-1,114,116,118,-1,-1,120,122,124,126,-1,128,-1,-1,-1,-1,-1,130,-1,-1,-1,-1,132,-1,-1,134,136,-1,138,140,-1,-1,-1,142,-1,144,-1,-1,146,148,150,-1,-1,-1,152,154,156,-1,158,160,162,164,-1,-1,166,-1,-1,-1,-1,-1,-1,-1,-1,168,170,-1,-1,-1,-1,-1,172,174,-1,-1,176,178,-1,-1,-1,-1,-1,-1,-1,-1,180,182,184,-1,-1,186,-1,-1,188,-1,-1,-1],"split_conditions":[1.42586E3,-1.255E2,3.07E2,-6.0000014E-2,-3.7331674E-1,6.74472E3,1.4E1,1.0416667E-3,1.369E4,9.1E-1,5.52E-1,-2.1428573E-1,4.7560975E-1,1.983E0,2.254E1,-1.7846428E-2,-3E-1,9.134E-1,-6.25E-1,2.58E-2,-3.8958186E-1,8.913146E7,9.28E-1,1.5388E-1,8.555E-1,4.3E1,1.48925E-1,2.3343334E-1,7E0,2.2862258E8,5.2040815E-1,-1.2772424E-8,-3E-1,4.285714E-1,-1.2772424E-8,-8.3E0,1.96E2,9.633E-1,-1.03448294E-1,6.36E1,1.39E2,1.3E1,4.285714E-1,-2.586207E-1,5.377358E-1,-5.61E-1,2.5735489E1,4.7560975E-1,5.6333333E-1,-2.1428573E-1,-1.2772424E-8,-9.5E0,6.494792E-2,4.090909E-1,2.357456E-2,6.6233766E-1,2.142857E-1,2.142857E-1,-3.157895E-1,5.4545456E-1,5.1724125E-2,1.8688637E-1,4.285714E-1,-1.96875E-1,3.1E1,2.0689654E-1,-2.9268295E-1,4.8E-1,-1.23809524E-1,6.453E1,7.369587E-2,9.307E-1,2E0,-2.4375E-1,-3.0612248E-1,5.945E-1,-8.921E-1,2.9999998E-1,-2.586207E-1,6.6233766E-1,2.5880765E9,3.73E2,-3.4464285E-1,1.3E1,2.9999998E-1,-3.6E-1,6.041667E-1,-1.5277778E-1,-1.2772424E-8,2.0689654E-1,3.11E3,-2.1428573E-1,4.285714E-1,5.1724125E-2,-2.755E-1,1.10674516E5,1.66823E1,-2.1428573E-1,2.142857E-1,2.2E1,1.6E1,-5.49E-1,-8.807E-1,2.142857E-1,5.267E-1,-1.2772424E-8,5.1724136E-1,-2.4000001E-1,-1.2772424E-8,-3.6649877E-1,1.869367E8,-3.3116886E-1,1.1999999E-1,-3.5944703E-1,-1.2772424E-8,1.4536667E-1,4.7560975E-1,1.1999999E-1,1E1,4.3165578E8,4.7560975E-1,4.4644E-2,1.5935193E-1,-6.0000014E-2,6.122449E-1,-3.2307696E-1,1.2768133E-1,2.142857E-1,1.4E1,-1.2772424E-8,-2.1428573E-1,3.4E1,-7.093188E-2,0E0,1.1999999E-1,-2.4000001E-1,-1.2772424E-8,3.4206746E9,1.1223506E9,8.388E-2,2.9999998E-1,7.257E3,1.3706999E-1,5.574E-1,8.18857E3,-3.402062E-1,1.1999999E-1,1.8979053E9,5.1724136E-1,-3.5593224E-1,-1.2772424E-8,5.4545456E-1,-1.2772424E-8,-2.4000001E-1,-1.2772424E-8,2.142857E-1,8.99E-2,8.983077E-2,-2.4000001E-1,1.1999999E-1,-3E-1,4.285714E-1,-2.4000001E-1,3E0,1.69E2,-2.1428573E-1,-1.2772424E-8,5.2E1,1.84722E1,5.1724125E-2,5.9999996E-1,-2.586207E-1,2.0689654E-1,-1.2772424E-8,-3.614458E-1,-3E-1,4.090909E-1,7E-2,-9.3E-1,5.8625586E-2,4.285714E-1,-1.2772424E-8,-3.732E-1,2.142857E-1,-3.3333337E-1,1.9078733E-1,-1.2772424E-8,-3.626374E-1,-1.2772424E-8],"split_indices":[13,17,57,0,0,65,27,5,18,24,36,0,0,48,16,33,0,24,35,63,3,0,7,45,32,2,8,64,19,0,0,0,0,0,0,17,57,7,0,15,1,58,0,0,0,43,19,0,36,0,0,17,22,0,22,0,0,0,0,0,0,8,0,20,27,0,0,0,20,16,30,24,1,20,0,7,38,0,0,0,0,11,3,27,0,28,4,35,0,0,10,0,0,0,23,66,12,0,0,27,27,41,31,0,32,0,0,0,0,0,0,0,0,0,0,25,0,0,58,0,0,33,30,0,0,0,37,0,19,0,0,19,40,20,0,0,0,0,0,45,0,10,5,7,65,0,0,0,0,0,0,0,0,0,0,0,8,25,0,0,0,0,0,2,57,0,0,1,12,0,0,0,0,0,0,0,0,50,6,37,0,0,23,0,0,40,0,0,0],"split_type":[0,0,0,0,0,0,0,0,0,0,0,0,0,0,0,0,0,0,0,0,0,0,0,0,0,0,0,0,0,0,0,0,0,0,0,0,0,0,0,0,0,0,0,0,0,0,0,0,0,0,0,0,0,0,0,0,0,0,0,0,0,0,0,0,0,0,0,0,0,0,0,0,0,0,0,0,0,0,0,0,0,0,0,0,0,0,0,0,0,0,0,0,0,0,0,0,0,0,0,0,0,0,0,0,0,0,0,0,0,0,0,0,0,0,0,0,0,0,0,0,0,0,0,0,0,0,0,0,0,0,0,0,0,0,0,0,0,0,0,0,0,0,0,0,0,0,0,0,0,0,0,0,0,0,0,0,0,0,0,0,0,0,0,0,0,0,0,0,0,0,0,0,0,0,0,0,0,0,0,0,0,0,0,0,0,0,0,0,0],"sum_hessian":[5.844444E2,2.2355554E2,3.6088885E2,1.7777777E0,2.2177777E2,1.351111E2,2.2577777E2,4.8888884E0,1.3022221E2,2.6666664E1,1.991111E2,1.3333333E0,3.5555553E0,1.2444444E1,1.1777777E2,2.2666666E1,3.9999998E0,7.999999E1,1.1911111E2,7.1111107E0,5.333333E0,2.6666665E0,1.1511111E2,1.1111111E1,1.1555555E1,7.2888885E1,7.1111107E0,1.9999998E1,9.911111E1,2.6666665E0,4.444444E0,1.3333333E0,3.9999998E0,1.3333333E0,1.3333333E0,1.0533333E2,9.777777E0,8.888888E0,2.222222E0,6.666666E0,4.8888884E0,7.155555E1,1.3333333E0,2.222222E0,4.8888884E0,1.4222221E1,5.7777777E0,3.5555553E0,9.555555E1,1.3333333E0,1.3333333E0,4.6666664E1,5.8666664E1,2.6666665E0,7.1111107E0,7.5555553E0,1.3333333E0,1.3333333E0,5.333333E0,2.6666665E0,2.222222E0,7.022222E1,1.3333333E0,3.9999998E0,1.0222221E1,2.222222E0,3.5555553E0,1.7777777E0,9.377777E1,3.9999996E1,6.666666E0,4.7111107E1,1.1555555E1,2.6666665E0,4.444444E0,2.6666664E1,4.3555553E1,1.7777777E0,2.222222E0,7.5555553E0,2.6666665E0,6.755555E1,2.6222221E1,3.822222E1,1.7777777E0,3.5555553E0,3.111111E0,4.5777775E1,1.3333333E0,2.222222E0,9.333333E0,1.3333333E0,1.3333333E0,2.222222E0,2.4444443E1,1.9999998E1,2.3555553E1,1.3333333E0,1.3333333E0,6.666666E0,6.0888885E1,6.222222E0,1.9999998E1,1.3333333E0,3.6888885E1,1.3333333E0,2.222222E0,1.7777777E0,1.3333333E0,4.3111107E1,2.6666665E0,7.5555553E0,1.7777777E0,2.311111E1,1.3333333E0,1.6444443E1,3.5555553E0,1.7777777E0,2.1777777E1,3.111111E0,3.5555553E0,7.1111107E0,5.3777775E1,1.7777777E0,4.444444E0,6.222222E0,1.3777777E1,1.3333333E0,3.5555553E1,1.3333333E0,1.3333333E0,1.1555555E1,4.8888884E0,1.9999998E1,1.7777777E0,1.7777777E0,1.3333333E0,3.9999998E0,3.111111E0,5.1999996E1,1.7777777E0,7.9999995E0,5.7777777E0,3.111111E0,3.2444443E1,9.777777E0,1.7777777E0,2.6666665E0,2.222222E0,1.8666666E1,1.3333333E0,2.6666665E0,1.3333333E0,1.7777777E0,1.3333333E0,1.3333333E0,5.0666664E1,6.222222E0,1.7777777E0,1.7777777E0,3.9999998E0,1.3333333E0,1.7777777E0,4.444444E0,2.7999998E1,1.3333333E0,1.3333333E0,6.666666E0,4.3999996E1,2.222222E0,3.9999998E0,2.222222E0,2.222222E0,1.3333333E0,2.6666664E1,3.9999998E0,2.6666665E0,1.0666666E1,3.3333332E1,9.333333E0,1.3333333E0,1.3333333E0,3.1999998E1,1.3333333E0,7.9999995E0,3.0666664E1,1.3333333E0,2.9333332E1,1.3333333E0],"tree_param":{"num_deleted":"0","num_feature":"67","num_nodes":"189","size_leaf_vector":"1"}},{"base_weights":[-3.336497E-1,-3.7323946E-1,-9.729252E-2,-2.727273E-1,2.1061221E-1,-2.961374E-1,6.315789E-1,-2.0775628E-1,3.8144326E-1,8.571424E-2,-3.449759E-1,5E-1,-2.1428573E-1,4.8E-1,-2.8695658E-1,7.563021E-2,5.8285713E-1,7.058823E-1,-2.3076928E-1,1.5228384E-2,-3.8553503E-1,-4.05694E-1,2.0547941E-1,3.8071063E-1,-2.8402373E-1,8.108108E-1,1.7910443E-1,5.6557375E-1,-2.727273E-1,3.230769E-1,-5.309735E-1,-3.19149E-1,7.384615E-1,-4.2073868E-8,-4.218444E-1,-5.3877556E-1,3.9999998E-1,4.7560975E-1,-2.9268295E-1,-9.6774235E-2,7.433628E-1,5.454545E-1,-4.5517248E-1,-2.4000001E-1,8.895899E-1,-1.9200005E-1,7.058823E-1,-2.1428573E-1,-1.2772424E-8,-2.586207E-1,7.9999995E-1,2.142857E-1,-3.4158418E-1,-4.8837215E-1,4.285714E-1,5.8536583E-1,-3.2511625E-8,-4.1584164E-1,6.8852454E-1,-6.629839E-2,-4.664702E-1,-3.563536E-1,-4.109593E-2,-2.1428573E-1,4.090909E-1,-3.1132078E-1,4.897959E-1,9.2079204E-1,-2.1428573E-1,4.285714E-1,-1.2772424E-8,7.31707E-2,-6.1061954E-1,9.6969694E-1,-1.03448294E-1,4.897959E-1,-5.647059E-1,6.122449E-1,-3.576279E-8,5.4545456E-1,-1.2772424E-8,-6.153847E-1,2.142857E-1,-2.1428573E-1,2.142857E-1,-3.3116886E-1,2.7272725E-1,-2.1428573E-1,5.2040815E-1,-2.8187925E-1,7.317073E-1,-5.167348E-1,-4.1850072E-8,3.6206895E-1,-4.5283023E-1,-2.1428573E-1,4.4594595E-1,5.1724125E-2,1.111111E0,4.285714E-1,-2.586207E-1,-3.4158418E-1,-1.2772424E-8,1.1392405E0,2.6086953E-1,-1.03448294E-1,5.1724136E-1,-1.2772424E-8,-3.2876715E-1,4.285714E-1,-2.7272728E-1,-1.2772424E-8,-3.4285718E-1,4.285714E-1,-2.1428573E-1,-3.3116886E-1,1.11111075E-1,5.1724136E-1,-1.2772424E-8,-5.461474E-1,2.2641507E-1,4.8E-1,-1.9200005E-1,-1.2772424E-8,-2.9268295E-1,-1.2772424E-8,6.5217394E-1,3.1578943E-1,1.3333334E0,-2.586207E-1,6.7346936E-1,5.660377E-1,-2.837838E-1,-5.7055223E-1,1.2244894E-1,-2.586207E-1,4.090909E-1,3.6206895E-1,-4.285715E-1,5.1724136E-1,-3.2432437E-1,2.0689654E-1,7.1005917E-1,-2.1428573E-1,5.675676E-1,-2.1428573E-1,4.7560975E-1,-2.6519343E-1,-6.222911E-1,-2.586207E-1,3.6206895E-1,-3.3529416E-1,2.0689654E-1,-2.4000001E-1,-1.2772424E-8,7.317073E-1,-5.2349E-1,-1.5789478E-1,-6.449512E-1,5.1724136E-1,-1.2772424E-8,-3.4710747E-1,1.6216213E-1,-2.9268295E-1,2.9999998E-1,-4.0268463E-1,-6.837389E-1,4.285714E-1,-2.4000001E-1,1.578947E-1,-3.4158418E-1,-1.2772424E-8,-6.9440836E-1,4.090909E-1,-2.7272728E-1,-6.0000014E-2,-7.0517933E-1,-7.1604943E-1,-2.727273E-1,-1.3636366E-1,-3.6382982E-1,-1.2772424E-8,-2.1428573E-1],"categories":[],"categories_nodes":[],"categories_segments":[],"categories_sizes":[],"default_left":[0,0,0,0,0,0,0,0,0,0,0,0,0,0,0,0,0,0,0,0,0,0,0,0,0,0,0,0,0,0,0,0,0,0,0,0,0,0,0,0,0,0,0,0,0,0,0,0,0,0,0,0,0,0,0,0,0,0,0,0,0,0,0,0,0,0,0,0,0,0,0,0,0,0,0,0,0,0,0,0,0,0,0,0,0,0,0,0,0,0,0,0,0,0,0,0,0,0,0,0,0,0,0,0,0,0,0,0,0,0,0,0,0,0,0,0,0,0,0,0,0,0,0,0,0,0,0,0,0,0,0,0,0,0,0,0,0,0,0,0,0,0,0,0,0,0,0,0,0,0,0,0,0,0,0,0,0,0,0,0,0,0,0,0,0,0,0,0,0,0,0,0,0,0,0,0,0,0,0,0,0,0,0],"id":2,"left_children":[1,-1,3,5,7,9,11,13,15,17,19,-1,-1,-1,21,23,25,27,29,31,33,35,37,39,41,43,45,-1,47,49,51,53,55,57,59,61,63,-1,-1,65,67,69,71,-1,73,75,77,-1,-1,-1,79,-1,-1,81,-1,-1,83,85,87,89,91,-1,93,-1,-1,-1,95,97,-1,-1,-1,99,101,103,-1,105,107,-1,109,-1,-1,111,-1,-1,-1,-1,113,-1,-1,115,117,119,121,-1,123,-1,-1,-1,125,-1,-1,-1,-1,127,129,-1,-1,-1,-1,-1,-1,-1,-1,-1,-1,-1,131,-1,-1,133,135,-1,137,-1,-1,-1,-1,139,141,-1,143,145,-1,147,149,-1,-1,-1,151,-1,153,-1,-1,-1,-1,-1,-1,155,157,-1,-1,-1,-1,-1,-1,159,161,163,165,-1,-1,-1,167,-1,-1,169,171,-1,-1,173,-1,-1,175,-1,-1,-1,177,179,181,-1,-1,-1,-1],"loss_changes":[5.7052208E1,0E0,2.0229864E1,5.232519E0,9.807153E0,4.374798E0,2.9022553E0,3.9852195E0,5.9306316E0,5.5058823E0,3.0268059E0,0E0,0E0,0E0,2.3247337E0,4.460491E0,5.2236004E0,4.238976E0,3.2936692E0,5.5291305E0,2.6021729E0,3.5632505E0,5.340461E0,3.862238E0,2.9140472E0,4.1894894E0,4.501464E0,0E0,1.5584415E-1,3.3082225E0,2.1263723E0,3.5371456E0,2.3054407E0,5.1537085E0,2.6646214E0,2.327127E0,2.083117E0,0E0,0E0,3.4923673E0,3.0053701E0,6.233767E-1,1.3678751E0,0E0,3.2944183E0,3.8058872E0,3.4573827E0,0E0,0E0,0E0,1.1636364E0,0E0,0E0,1.933044E0,0E0,0E0,8.5714287E-1,2.0853798E0,3.1134162E0,3.6660628E0,3.5352745E0,0E0,2.883504E0,0E0,0E0,0E0,2.3927193E0,1.6307421E0,0E0,0E0,0E0,2.5519645E0,5.5620813E-1,3.6686516E0,0E0,2.2800844E0,4.9508452E-1,0E0,2.8051949E0,0E0,0E0,5.626373E-1,0E0,0E0,0E0,0E0,1.8701298E0,0E0,0E0,2.5489216E0,1.0092514E0,3.098774E0,3.072E0,0E0,3.5342836E-1,0E0,0E0,0E0,1.9323673E0,0E0,0E0,0E0,0E0,3.7877007E0,2.8097174E0,0E0,0E0,0E0,0E0,0E0,0E0,0E0,0E0,0E0,0E0,0E0,3.1000059E0,0E0,0E0,2.21101E0,3.0147276E0,0E0,3.3205123E0,0E0,0E0,0E0,0E0,3.2491293E0,1.088211E0,0E0,3.2564814E0,2.6637301E0,0E0,1.837925E0,2.4700916E0,0E0,0E0,0E0,2.6559258E0,0E0,2.0756751E-1,0E0,0E0,0E0,0E0,0E0,0E0,5.561573E0,1.0311699E0,0E0,0E0,0E0,0E0,0E0,0E0,1.0092514E0,2.0505342E0,2.403081E0,6.862869E-1,0E0,0E0,0E0,2.2461777E0,0E0,0E0,2.7109551E0,6.330528E-1,0E0,0E0,3.38756E0,0E0,0E0,4.4402313E-1,0E0,0E0,0E0,1.9801712E-1,2.1845627E-1,1.5584415E-1,0E0,0E0,0E0,0E0],"parents":[2147483647,0,0,2,2,3,3,4,4,5,5,6,6,7,7,8,8,9,9,10,10,14,14,15,15,16,16,17,17,18,18,19,19,20,20,21,21,22,22,23,23,24,24,25,25,26,26,28,28,29,29,30,30,31,31,32,32,33,33,34,34,35,35,36,36,39,39,40,40,41,41,42,42,44,44,45,45,46,46,50,50,53,53,56,56,57,57,58,58,59,59,60,60,62,62,66,66,67,67,71,71,72,72,73,73,75,75,76,76,78,78,81,81,86,86,89,89,90,90,91,91,92,92,94,94,98,98,103,103,104,104,116,116,119,119,120,120,122,122,127,127,128,128,130,130,131,131,133,133,134,134,138,138,140,140,147,147,148,148,155,155,156,156,157,157,158,158,162,162,165,165,166,166,169,169,172,172,176,176,177,177,178,178],"right_children":[2,-1,4,6,8,10,12,14,16,18,20,-1,-1,-1,22,24,26,28,30,32,34,36,38,40,42,44,46,-1,48,50,52,54,56,58,60,62,64,-1,-1,66,68,70,72,-1,74,76,78,-1,-1,-1,80,-1,-1,82,-1,-1,84,86,88,90,92,-1,94,-1,-1,-1,96,98,-1,-1,-1,100,102,104,-1,106,108,-1,110,-1,-1,112,-1,-1,-1,-1,114,-1,-1,116,118,120,122,-1,124,-1,-1,-1,126,-1,-1,-1,-1,128,130,-1,-1,-1,-1,-1,-1,-1,-1,-1,-1,-1,132,-1,-1,134,136,-1,138,-1,-1,-1,-1,140,142,-1,144,146,-1,148,150,-1,-1,-1,152,-1,154,-1,-1,-1,-1,-1,-1,156,158,-1,-1,-1,-1,-1,-1,160,162,164,166,-1,-1,-1,168,-1,-1,170,172,-1,-1,174,-1,-1,176,-1,-1,-1,178,180,182,-1,-1,-1,-1],"split_conditions":[1.36038E3,-3.7323946E-1,6.3E1,4.0358546E9,-4.6840277E-1,-2.4994516E-1,1.028E3,6.5E1,3E-1,-5.423E-1,1.47124E3,5E-1,-2.1428573E-1,4.8E-1,9.508E-1,8.093E-1,-8.511E-1,7.771E-1,-8.793E-1,-7.579E-1,8.520806E-3,8.5561365E-2,7.8828126E-1,-2.9375E-1,-1.6239E-1,4.931973E-1,1.684E-1,5.6557375E-1,5.133624E8,2.13E2,-1.0178571E-1,7.083333E-2,9.011E-1,5.553E3,1.118E3,3E1,2E1,4.7560975E-1,-2.9268295E-1,-2.4833333E-1,3.2E1,8.1E-1,-8.955E-1,-2.4000001E-1,8.515E-1,-9.144E-1,2.4094226E9,-2.1428573E-1,-1.2772424E-8,-2.586207E-1,6E0,2.142857E-1,-3.4158418E-1,2.6761365E-1,4.285714E-1,5.8536583E-1,1.3665952E8,-3E-1,1.78144E3,-1.58E-1,6E-1,-3.563536E-1,-3.25E-1,-2.1428573E-1,4.090909E-1,-3.1132078E-1,3.3E-1,-2.7E0,-2.1428573E-1,4.285714E-1,-1.2772424E-8,2.6319E4,1.78E2,-8.994709E-2,-1.03448294E-1,1.82254E3,1.3822E-1,6.122449E-1,-5E-1,5.4545456E-1,-1.2772424E-8,5.8972844E7,2.142857E-1,-2.1428573E-1,2.142857E-1,-3.3116886E-1,-9.126E-1,-2.1428573E-1,5.2040815E-1,1.6017E4,4E0,3.04E0,3.3863E-1,3.6206895E-1,2.5E1,-2.1428573E-1,4.4594595E-1,5.1724125E-2,6.875771E-2,4.285714E-1,-2.586207E-1,-3.4158418E-1,-1.2772424E-8,-9.9E-2,3.6161616E-1,-1.03448294E-1,5.1724136E-1,-1.2772424E-8,-3.2876715E-1,4.285714E-1,-2.7272728E-1,-1.2772424E-8,-3.4285718E-1,4.285714E-1,-2.1428573E-1,-3.3116886E-1,2.5E1,5.1724136E-1,-1.2772424E-8,3.28125E-1,9.546E1,4.8E-1,4.0166667E-1,-1.2772424E-8,-2.9268295E-1,-1.2772424E-8,6.5217394E-1,-4.8132E-2,2.1666667E-1,-2.586207E-1,1.1888489E9,4.181818E-1,-2.837838E-1,-1.5454546E-1,1.72637E3,-2.586207E-1,4.090909E-1,3.6206895E-1,2.2542614E-1,5.1724136E-1,3.681509E9,2.0689654E-1,7.1005917E-1,-2.1428573E-1,5.675676E-1,-2.1428573E-1,4.7560975E-1,6.2969565E-2,-1.063E2,-2.586207E-1,3.6206895E-1,-3.3529416E-1,2.0689654E-1,-2.4000001E-1,-1.2772424E-8,6.780303E-3,2.013591E-1,3.590909E-1,-6.669E-1,5.1724136E-1,-1.2772424E-8,-3.4710747E-1,9.25E-2,-2.9268295E-1,2.9999998E-1,7.65E-1,-5.05E-1,4.285714E-1,-2.4000001E-1,2.2E1,-3.4158418E-1,-1.2772424E-8,1.23333335E-2,4.090909E-1,-2.7272728E-1,-6.0000014E-2,2.703059E9,3E-2,3.4206746E9,-1.3636366E-1,-3.6382982E-1,-1.2772424E-8,-2.1428573E-1],"split_indices":[13,0,1,0,35,33,11,1,21,6,13,0,0,0,7,24,38,32,38,31,30,40,4,35,40,4,64,0,0,11,25,3,39,9,10,19,2,0,0,28,2,4,31,0,63,31,0,0,0,0,1,0,0,59,0,0,0,17,13,35,21,0,20,0,0,0,29,17,0,0,0,18,1,3,0,13,8,0,44,0,0,0,0,0,0,0,31,0,0,18,1,56,48,0,2,0,0,0,37,0,0,0,0,64,29,0,0,0,0,0,0,0,0,0,0,0,27,0,0,3,15,0,36,0,0,0,0,33,29,0,0,29,0,59,13,0,0,0,5,0,0,0,0,0,0,0,0,8,17,0,0,0,0,0,0,5,25,21,6,0,0,0,22,0,0,7,44,0,0,27,0,0,30,0,0,0,0,50,0,0,0,0,0],"split_type":[0,0,0,0,0,0,0,0,0,0,0,0,0,0,0,0,0,0,0,0,0,0,0,0,0,0,0,0,0,0,0,0,0,0,0,0,0,0,0,0,0,0,0,0,0,0,0,0,0,0,0,0,0,0,0,0,0,0,0,0,0,0,0,0,0,0,0,0,0,0,0,0,0,0,0,0,0,0,0,0,0,0,0,0,0,0,0,0,0,0,0,0,0,0,0,0,0,0,0,0,0,0,0,0,0,0,0,0,0,0,0,0,0,0,0,0,0,0,0,0,0,0,0,0,0,0,0,0,0,0,0,0,0,0,0,0,0,0,0,0,0,0,0,0,0,0,0,0,0,0,0,0,0,0,0,0,0,0,0,0,0,0,0,0,0,0,0,0,0,0,0,0,0,0,0,0,0,0,0,0,0,0,0],"sum_hessian":[5.844444E2,2.1199998E2,3.7244443E2,2.3733331E2,1.351111E2,2.3199998E2,5.333333E0,3.9111107E1,9.599999E1,2.6222221E1,2.0577777E2,3.9999998E0,1.3333333E0,1.7777777E0,3.7333332E1,3.8666664E1,5.733333E1,8.444444E0,1.7777777E1,2.0888887E1,1.8488889E2,3.0222221E1,7.1111107E0,2.0888887E1,1.7777777E1,3.5999996E1,2.1333332E1,5.7777777E0,2.6666665E0,6.222222E0,1.1555555E1,1.4666666E1,6.222222E0,1.5999999E1,1.6888889E2,2.6222221E1,3.9999998E0,3.5555553E0,3.5555553E0,9.333333E0,1.1555555E1,2.6666665E0,1.5111111E1,1.7777777E0,3.422222E1,1.2888888E1,8.444444E0,1.3333333E0,1.3333333E0,2.222222E0,3.9999998E0,1.3333333E0,1.0222221E1,1.3333332E1,1.3333333E0,3.5555553E0,2.6666665E0,1.0222221E1,5.7777777E0,1.911111E1,1.4977777E2,1.911111E1,7.1111107E0,1.3333333E0,2.6666665E0,4.8888884E0,4.444444E0,1.0222221E1,1.3333333E0,1.3333333E0,1.3333333E0,3.5555553E0,1.1555555E1,3.1999998E1,2.222222E0,4.444444E0,8.444444E0,4.444444E0,3.9999998E0,2.6666665E0,1.3333333E0,1.1999999E1,1.3333333E0,1.3333333E0,1.3333333E0,7.5555553E0,2.6666665E0,1.3333333E0,4.444444E0,1.5555554E1,3.5555553E0,1.351111E2,1.4666666E1,2.222222E0,4.8888884E0,1.3333333E0,3.111111E0,2.222222E0,7.9999995E0,1.3333333E0,2.222222E0,1.0222221E1,1.3333333E0,2.5333332E1,6.666666E0,2.222222E0,2.222222E0,1.3333333E0,7.1111107E0,1.3333333E0,2.6666665E0,1.3333333E0,1.0666666E1,1.3333333E0,1.3333333E0,7.5555553E0,7.9999995E0,2.222222E0,1.3333333E0,1.3022221E2,4.8888884E0,1.7777777E0,1.2888888E1,1.3333333E0,3.5555553E0,1.3333333E0,6.666666E0,5.333333E0,1.9999998E1,2.222222E0,4.444444E0,4.8888884E0,3.111111E0,1.2577777E2,4.444444E0,2.222222E0,2.6666665E0,2.222222E0,1.0666666E1,2.222222E0,3.111111E0,2.222222E0,1.7777777E1,1.3333333E0,3.111111E0,1.3333333E0,3.5555553E0,1.911111E1,1.0666666E2,2.222222E0,2.222222E0,8.444444E0,2.222222E0,1.7777777E0,1.3333333E0,3.5555553E0,1.5555554E1,5.333333E0,1.0133333E2,2.222222E0,1.3333333E0,1.2444444E1,3.111111E0,3.5555553E0,1.7777777E0,1.5555554E1,8.577777E1,1.3333333E0,1.7777777E0,5.333333E0,1.0222221E1,1.3333333E0,8.444444E1,2.6666665E0,2.6666665E0,1.7777777E0,8.2666664E1,7.999999E1,2.6666665E0,2.6666665E0,7.733333E1,1.3333333E0,1.3333333E0],"tree_param":{"num_deleted":"0","num_feature":"67","num_nodes":"183","size_leaf_vector":"1"}},{"base_weights":[4.205518E-1,8.16183E-1,1.559973E-1,-5.7541933E-2,4.118272E-1,3.0573562E-1,-1.3393375E-1,3.3788654E-1,-2.0487379E-1,-5.8397684E-2,-3.0512014E-1,3.8143143E-1,-5.6692995E-2,-4.9887344E-1,2.2081657E-1,2.9701713E-2,-4.5567572E-1,3.168885E-1,5.8517194E-1,2.82761E-1,-1.7796308E-1,3.6694997E-3,-2.8900102E-1,5.6665975E-1,-2.1537021E-1,4.096596E-1,-4.8316736E-2,7.998388E-2,-5.250057E-1,3.5079512E-1,-2.5267962E-1,3.158429E-2,6.2886035E-1,-2.9844236E-1,2.4005686E-1,3.9057073E-1,-6.1147306E-3,-3.6834426E-2,6.84553E-1,2.1182157E-1,-1.4498043E-1,-5.7107896E-1,3.4373473E-2,2.3090698E-1,5.200568E-1,-4.7050977E-1,1.9800845E-1,-2.3026168E-1,3.0590287E-1,3.9718203E-2,6.764868E-1,-5.1789486E-1,1.15868695E-1,4.3004662E-1,-2.4278016E-1,4.3169066E-2,4.1191643E-1,-2.3056482E-1,4.986532E-1,-2.2876786E-1,2.9550862E-1,8.836987E-3,-3.086521E-1,9.447811E-2,4.112648E-1,-7.913979E-2,5.944526E-1,-2.7886492E-1,-4.996134E-4,-2.1003091E-1,2.7075714E-1,7.1779287E-1,-7.7422685E-3,2.8043391E-2,-2.9540274E-1,5.300455E-1,-2.3831561E-1,3.680015E-1,-3.210752E-2,-2.8885883E-1,2.451251E-1,-1.919013E-1,6.462078E-1,-2.94389E-1,2.803534E-1,-2.1482606E-1,5.0008464E-1,4.7285974E-1,-4.0879183E-2,-2.1424529E-1,4.6152282E-1,-2.6352203E-1,3.1122485E-1,4.0664088E-2,6.6807693E-1,-3.1281788E-2,7.4826974E-1,3.1591952E-1,9.6926615E-2,-7.416433E-2,4.1192392E-1,-1.3627225E-1,-3.0196118E-1,3.9986274E-1,-1.0187742E-1,5.7221115E-1,-1.6977262E-1,-1.5479374E-1,3.7168187E-1,5.746785E-1,7.1746044E-2,-6.46184E-2,2.9858813E-1,2.7985412E-1,-2.7144757E-1,7.942208E-1,4.1583464E-1,2.3916808E-1,7.8987676E-1,3.941032E-1,-3.3214694E-1,7.2415316E-1,8.1395715E-2,1.5512343E-1,-4.6080992E-1,-2.0239677E-1,5.965043E-1,9.5125E-2,6.8570024E-1,3.8654745E-1,-3.8229394E-1,8.876684E-3,8.287858E-1,7.598108E-1,9.950099E-2,3.0793425E-1,-1.8865237E-1,9.641365E-2,8.291646E-1,6.572798E-1,-2.017429E-1,1.9094083E-1,-4.260438E-1,3.9098856E-1,1.1213673E-1,2.7848312E-1,-2.0664749E-1,-3.4634307E-1,4.3876106E-1,1.3625695E-1,-5.531803E-1,3.1045763E-2,4.0551892E-1,2.6831257E-1,-3.105731E-1,7.635839E-1,-7.767035E-2,-1.9072376E-1,3.5956424E-1,-2.594938E-1,-4.9178246E-3,4.7076076E-1,4.559072E-1,1.1386108E-1,4.157909E-1,-2.5089E-1,2.7321824E-1,7.1087845E-2,8.6618674E-1,7.009397E-4,4.0634298E-1,3.4418803E-2,-1.8844576E-1,-5.25451E-1,1.1178387E-1,-2.7819356E-1,1.2343271E-1,-1.9570805E-1,5.890701E-1,-7.220841E-2,-3.2576424E-1,-2.225036E-1,-4.688864E-3,-1.7559793E-2,8.188098E-1,-1.08211264E-1,3.862691E-1,1.8328726E-1,-2.8822336E-1,8.898306E-1,1.1964335E-1,-3.0895767E-1,4.4718526E-2,-1.832202E-1,2.2082473E-1,1.33532E-1,4.2121673E-1,-1.8728197E-1,1.207614E-1,4.434302E-1,1.1189931E-1,1.2849481E-1,4.557097E-1,-1.8502262E-1,2.0928405E-1],"categories":[],"categories_nodes":[],"categories_segments":[],"categories_sizes":[],"default_left":[0,0,0,0,0,0,0,0,0,0,0,0,0,0,0,0,0,0,0,0,0,0,0,0,0,0,0,0,0,0,0,0,0,0,0,0,0,0,0,0,0,0,0,0,0,0,0,0,0,0,0,0,0,0,0,0,0,0,0,0,0,0,0,0,0,0,0,0,0,0,0,0,0,0,0,0,0,0,0,0,0,0,0,0,0,0,0,0,0,0,0,0,0,0,0,0,0,0,0,0,0,0,0,0,0,0,0,0,0,0,0,0,0,0,0,0,0,0,0,0,0,0,0,0,0,0,0,0,0,0,0,0,0,0,0,0,0,0,0,0,0,0,0,0,0,0,0,0,0,0,0,0,0,0,0,0,0,0,0,0,0,0,0,0,0,0,0,0,0,0,0,0,0,0,0,0,0,0,0,0,0,0,0,0,0,0,0,0,0,0,0,0,0,0,0,0,0,0,0,0,0,0,0,0,0],"id":3,"left_children":[1,3,5,-1,-1,7,9,11,13,15,-1,17,19,21,23,25,27,29,31,-1,33,-1,-1,35,-1,37,39,-1,41,43,45,47,49,51,-1,-1,-1,53,55,57,59,61,-1,63,65,67,-1,-1,-1,69,71,73,75,77,-1,-1,-1,79,81,83,85,-1,-1,87,89,91,93,-1,-1,-1,-1,95,-1,-1,-1,97,-1,-1,-1,-1,-1,-1,99,101,-1,-1,103,105,107,-1,109,-1,111,113,115,-1,117,-1,-1,-1,-1,119,-1,-1,-1,121,-1,123,125,127,129,-1,-1,-1,-1,131,133,135,137,139,141,143,145,147,149,-1,151,153,155,157,159,-1,161,163,165,-1,-1,-1,167,169,171,-1,173,-1,-1,-1,-1,175,177,-1,179,-1,-1,-1,181,183,-1,-1,-1,-1,-1,185,-1,-1,-1,187,-1,-1,189,-1,-1,-1,-1,191,193,-1,-1,-1,195,197,-1,-1,-1,-1,199,-1,-1,-1,-1,201,-1,-1,-1,-1,-1,203,-1,-1,-1,-1,-1,-1,-1,-1,-1],"loss_changes":[6.108661E1,1.7238312E0,1.5310491E1,0E0,0E0,3.8818035E0,4.2990704E0,3.7820663E0,1.9097934E0,3.6918716E0,0E0,2.4082394E0,1.8076832E0,3.572209E-1,1.7239419E0,2.597574E0,9.0078974E-1,3.0234604E0,1.0991879E0,0E0,1.7046838E0,0E0,0E0,5.9584224E-1,0E0,1.8563888E0,1.8673534E0,0E0,5.1616955E-1,2.7989464E0,1.4749942E0,1.5487473E0,1.1749535E0,1.6295624E0,0E0,0E0,0E0,1.598675E0,7.0250845E-1,2.6773894E0,2.0549006E0,4.5412207E-1,0E0,2.0773587E0,2.6701822E0,2.977352E-1,0E0,0E0,0E0,1.211698E0,1.1420269E0,5.130651E-1,1.9200578E0,6.191269E-1,0E0,0E0,0E0,2.4419692E0,1.8843718E0,2.5379872E0,1.5562E0,0E0,0E0,2.5936515E0,1.7483749E0,1.4546776E0,2.1118488E0,0E0,0E0,0E0,0E0,9.3530655E-1,0E0,0E0,0E0,3.0579329E-2,0E0,0E0,0E0,0E0,0E0,0E0,1.6944218E0,2.0195067E0,0E0,0E0,1.7477068E0,1.2696135E0,1.840618E0,0E0,1.5089602E0,0E0,6.53135E-1,2.4910746E0,1.1410866E0,0E0,5.7431793E-1,0E0,0E0,0E0,0E0,3.2180045E0,0E0,0E0,0E0,8.541117E-1,0E0,2.958147E0,1.725875E0,1.3774319E0,1.4413881E0,0E0,0E0,0E0,0E0,7.8310966E-1,1.8301864E0,1.1976265E0,6.1125946E-1,1.4611096E0,1.6540487E0,9.1199875E-2,1.176139E0,2.4092872E0,1.2052104E0,0E0,7.5199485E-1,1.2870277E0,1.5493317E0,1.766484E0,2.0916116E-1,0E0,4.1610909E-1,1.2530375E-1,1.7461214E0,0E0,0E0,0E0,6.536579E-1,6.2176657E-1,1.8521276E-1,0E0,1.1350455E0,0E0,0E0,0E0,0E0,9.2138857E-1,1.5505269E0,0E0,6.225462E-1,0E0,0E0,0E0,1.5346083E-1,9.1798306E-1,0E0,0E0,0E0,0E0,0E0,1.7060984E0,0E0,0E0,0E0,1.506821E0,0E0,0E0,2.1372414E-1,0E0,0E0,0E0,0E0,1.0312657E0,7.873231E-1,0E0,0E0,0E0,9.6729875E-1,4.2510176E-1,0E0,0E0,0E0,0E0,5.6667805E-1,0E0,0E0,0E0,0E0,1.3971329E-1,0E0,0E0,0E0,0E0,0E0,8.0541325E-1,0E0,0E0,0E0,0E0,0E0,0E0,0E0,0E0,0E0],"parents":[2147483647,0,0,1,1,2,2,5,5,6,6,7,7,8,8,9,9,11,11,12,12,13,13,14,14,15,15,16,16,17,17,18,18,20,20,23,23,25,25,26,26,28,28,29,29,30,30,31,31,32,32,33,33,37,37,38,38,39,39,40,40,41,41,43,43,44,44,45,45,49,49,50,50,51,51,52,52,53,53,57,57,58,58,59,59,60,60,63,63,64,64,65,65,66,66,71,71,75,75,82,82,83,83,86,86,87,87,88,88,90,90,92,92,93,93,94,94,96,96,101,101,105,105,107,107,108,108,109,109,110,110,115,115,116,116,117,117,118,118,119,119,120,120,121,121,122,122,123,123,124,124,126,126,127,127,128,128,129,129,130,130,132,132,133,133,134,134,138,138,139,139,140,140,142,142,147,147,148,148,150,150,154,154,155,155,161,161,165,165,168,168,173,173,174,174,178,178,179,179,184,184,189,189,195,195],"right_children":[2,4,6,-1,-1,8,10,12,14,16,-1,18,20,22,24,26,28,30,32,-1,34,-1,-1,36,-1,38,40,-1,42,44,46,48,50,52,-1,-1,-1,54,56,58,60,62,-1,64,66,68,-1,-1,-1,70,72,74,76,78,-1,-1,-1,80,82,84,86,-1,-1,88,90,92,94,-1,-1,-1,-1,96,-1,-1,-1,98,-1,-1,-1,-1,-1,-1,100,102,-1,-1,104,106,108,-1,110,-1,112,114,116,-1,118,-1,-1,-1,-1,120,-1,-1,-1,122,-1,124,126,128,130,-1,-1,-1,-1,132,134,136,138,140,142,144,146,148,150,-1,152,154,156,158,160,-1,162,164,166,-1,-1,-1,168,170,172,-1,174,-1,-1,-1,-1,176,178,-1,180,-1,-1,-1,182,184,-1,-1,-1,-1,-1,186,-1,-1,-1,188,-1,-1,190,-1,-1,-1,-1,192,194,-1,-1,-1,196,198,-1,-1,-1,-1,200,-1,-1,-1,-1,202,-1,-1,-1,-1,-1,204,-1,-1,-1,-1,-1,-1,-1,-1,-1],"split_conditions":[1.40978E3,-3.56E-1,6.3E1,-5.7541933E-2,4.118272E-1,2.0642116E9,7.0237066E9,9.34E-1,2.5735489E1,1.373E0,-3.0512014E-1,3.222143E-2,2.9166666E-1,-9.331E-1,4.6891667E-2,1.027E-1,-7.7913036E-3,-7.089E-1,-4.17E-2,2.82761E-1,3.5E1,3.6694997E-3,-2.8900102E-1,3.6E1,-2.1537021E-1,7.906E-1,-2.8125E-1,7.998388E-2,2.31827E5,-8.343E-1,8.957E-1,4.14E2,1.47124E3,-8.045E-1,2.4005686E-1,3.9057073E-1,-6.1147306E-3,7.5E-2,8.1E-1,-2.7233928E-2,3.3297917E-1,-9.375E-1,3.4373473E-2,8.02E-1,3.6E1,2.2543E1,1.9800845E-1,-2.3026168E-1,3.0590287E-1,2.5E1,5.574E-1,-3.6195E-2,6.114E-1,6.486E-1,-2.4278016E-1,4.3169066E-2,4.1191643E-1,5.2397016E-2,-7.845E-1,1.981E2,4.1E1,8.836987E-3,-3.086521E-1,2.05E2,1.2241E4,-1.8552142E-1,3.742765E4,-2.7886492E-1,-4.996134E-4,-2.1003091E-1,2.7075714E-1,-4.98E-1,-7.7422685E-3,2.8043391E-2,-2.9540274E-1,3.1E1,-2.3831561E-1,3.680015E-1,-3.210752E-2,-2.8885883E-1,2.451251E-1,-1.919013E-1,1.6E1,1.0930422E-1,2.803534E-1,-2.1482606E-1,2.19927E1,5.9E1,8.64533E8,-2.1424529E-1,-3.0304546E-2,-2.6352203E-1,2.66145E1,2.909E3,8.406E-1,-3.1281788E-2,2.5654763E-1,3.1591952E-1,9.6926615E-2,-7.416433E-2,4.1192392E-1,-3.1875E-1,-3.0196118E-1,3.9986274E-1,-1.0187742E-1,6.078389E4,-1.6977262E-1,-3.1758823E-2,5.2480574E4,7.68703E3,-3.25E-1,-6.46184E-2,2.9858813E-1,2.7985412E-1,-2.7144757E-1,2E-2,2.7E1,2.75E2,4.35E-1,9.3E-1,1.29E0,1.88742E3,4.926E-1,-7.469E-1,-1.1005333E-1,-2.0239677E-1,-5.11E-1,2.13E2,6.25E-1,2.5E1,2.16934E1,8.876684E-3,9.9814376E7,-9.423E-1,-3.1E0,3.0793425E-1,-1.8865237E-1,9.641365E-2,7.793E-1,2E1,2.9356E4,1.9094083E-1,9.473E-1,3.9098856E-1,1.1213673E-1,2.7848312E-1,-2.0664749E-1,1.029E-1,2.8333333E-1,1.3625695E-1,2.34E2,3.1045763E-2,4.0551892E-1,2.6831257E-1,3.0357143E-1,-5.24E-1,-7.767035E-2,-1.9072376E-1,3.5956424E-1,-2.594938E-1,-4.9178246E-3,5.859E-1,4.559072E-1,1.1386108E-1,4.157909E-1,2.0733E1,2.7321824E-1,7.1087845E-2,5.4E1,7.009397E-4,4.0634298E-1,3.4418803E-2,-1.8844576E-1,8.02E-1,-1.0714286E-1,-2.7819356E-1,1.2343271E-1,-1.9570805E-1,4.3E1,1.7964741E8,-3.2576424E-1,-2.225036E-1,-4.688864E-3,-1.7559793E-2,7.670857E8,-1.08211264E-1,3.862691E-1,1.8328726E-1,-2.8822336E-1,5.574E-1,1.1964335E-1,-3.0895767E-1,4.4718526E-2,-1.832202E-1,2.2082473E-1,7.83E-1,4.2121673E-1,-1.8728197E-1,1.207614E-1,4.434302E-1,1.1189931E-1,1.2849481E-1,4.557097E-1,-1.8502262E-1,2.0928405E-1],"split_indices":[13,41,1,0,0,0,0,7,19,46,0,33,29,31,40,63,30,31,8,0,19,0,0,19,0,32,20,0,66,38,24,11,13,31,0,0,0,60,54,40,8,35,0,32,34,12,0,0,0,26,62,25,63,32,0,0,0,22,62,17,34,0,0,57,18,33,66,0,0,0,0,44,0,0,0,1,0,0,0,0,0,0,27,37,0,0,12,34,0,0,33,0,12,9,24,0,29,0,0,0,0,28,0,0,0,66,0,40,66,65,35,0,0,0,0,50,26,11,36,7,56,13,7,23,25,0,42,11,21,14,12,0,0,31,17,0,0,0,39,2,9,0,39,0,0,0,0,6,29,0,11,0,0,0,21,42,0,0,0,0,0,32,0,0,0,12,0,0,1,0,0,0,0,63,20,0,0,0,34,0,0,0,0,0,0,0,0,0,0,24,0,0,0,0,0,24,0,0,0,0,0,0,0,0,0],"split_type":[0,0,0,0,0,0,0,0,0,0,0,0,0,0,0,0,0,0,0,0,0,0,0,0,0,0,0,0,0,0,0,0,0,0,0,0,0,0,0,0,0,0,0,0,0,0,0,0,0,0,0,0,0,0,0,0,0,0,0,0,0,0,0,0,0,0,0,0,0,0,0,0,0,0,0,0,0,0,0,0,0,0,0,0,0,0,0,0,0,0,0,0,0,0,0,0,0,0,0,0,0,0,0,0,0,0,0,0,0,0,0,0,0,0,0,0,0,0,0,0,0,0,0,0,0,0,0,0,0,0,0,0,0,0,0,0,0,0,0,0,0,0,0,0,0,0,0,0,0,0,0,0,0,0,0,0,0,0,0,0,0,0,0,0,0,0,0,0,0,0,0,0,0,0,0,0,0,0,0,0,0,0,0,0,0,0,0,0,0,0,0,0,0,0,0,0,0,0,0,0,0,0,0,0,0],"sum_hessian":[5.838502E2,2.3312926E2,3.50721E2,1.7408425E0,2.3138841E2,2.3123991E2,1.1948109E2,2.1786043E2,1.3379491E1,1.0409549E2,1.5385595E1,1.9623744E2,2.1622982E1,7.8121643E0,5.567326E0,8.5958725E1,1.813676E1,1.5096774E2,4.526969E1,2.9294047E0,1.8693577E1,1.1787229E0,6.6334414E0,3.7220042E0,1.845322E0,1.3919334E1,7.203939E1,1.7033993E0,1.6433361E1,1.4284805E2,8.119696E0,3.4373279E0,4.1832363E1,1.6262726E1,2.4308517E0,2.4608612E0,1.261143E0,5.634133E0,8.285202E0,1.9193941E1,5.284545E1,1.5285447E1,1.1479138E0,8.500393E1,5.7844124E1,6.284175E0,1.8355206E0,1.9715117E0,1.4658161E0,3.2659776E0,3.8566383E1,1.046801E1,5.7947154E0,2.7816093E0,2.8525238E0,1.8706298E0,6.414572E0,7.626932E0,1.1567009E1,4.4803776E1,8.041678E0,1.1577163E0,1.412773E1,4.9263306E1,3.5740623E1,6.38163E0,5.1462494E1,5.1412063E0,1.1429687E0,1.7893425E0,1.4766351E0,3.6358696E1,2.2076871E0,1.2058468E0,9.262163E0,3.472637E0,2.3220785E0,1.415991E0,1.3656182E0,5.2817173E0,2.3452146E0,1.4276725E0,1.0139336E1,4.1944458E1,2.8593163E0,1.5273769E0,6.514302E0,1.2322689E1,3.6940617E1,1.5932571E0,3.414737E1,2.8087447E0,3.5728855E0,6.22107E0,4.5241425E1,1.3270459E0,3.503165E1,1.9905372E0,1.4820998E0,1.8828504E0,8.256486E0,2.8715944E1,1.3228514E1,4.4735675E0,2.0407343E0,1.1243362E1,1.0793265E0,2.9437313E1,7.5033045E0,2.6096844E1,8.050525E0,1.6221987E0,1.9506868E0,3.3141687E0,2.906901E0,2.8726795E1,1.6514627E1,3.1565468E0,3.1875105E1,7.471941E0,2.1244003E1,8.222507E0,3.0208545E0,1.48704195E1,1.4566894E1,1.5049866E0,5.9983177E0,5.254985E0,2.0841858E1,4.8420296E0,3.2084951E0,1.2888005E0,2.7437996E1,7.240019E0,9.274609E0,1.9599094E0,1.1966373E0,2.3327568E0,2.9542347E1,5.111266E0,2.360675E0,2.1125221E0,1.9131481E1,6.864161E0,1.358347E0,1.4760077E0,1.5448469E0,5.292425E0,9.577994E0,1.4114256E0,1.3155468E1,2.0875535E0,3.9107642E0,2.361915E0,2.8930697E0,1.9159693E1,1.6821663E0,1.4188031E0,3.4232264E0,2.0593092E0,1.1491859E0,6.4208245E0,2.1017172E1,1.3564681E0,5.8835506E0,5.444692E0,3.8299162E0,1.7581475E0,2.77842E1,1.1723765E0,3.9388895E0,1.1661342E0,1.1945409E0,1.6166435E1,2.9650457E0,3.954339E0,1.3380862E0,1.2224059E0,8.355588E0,2.5277445E0,1.0627724E1,1.670152E0,1.2229179E0,1.2626544E0,1.7897038E1,2.0455966E0,4.3752275E0,1.8361604E0,3.6085317E0,2.637022E1,1.4139793E0,1.4048898E1,2.117538E0,1.165083E0,1.7999626E0,3.5320783E0,4.82351E0,1.1884685E0,1.3392761E0,1.5620096E1,2.276941E0,1.2956016E0,2.507462E1,1.1688373E0,2.3632407E0],"tree_param":{"num_deleted":"0","num_feature":"67","num_nodes":"205","size_leaf_vector":"1"}},{"base_weights":[-2.6657128E-1,-6.151209E-1,-9.101806E-2,9.215297E-3,-3.104164E-1,-1.5041208E-1,1.3856533E-1,1.7060801E-1,-1.9091128E-1,-6.729043E-2,3.8115644E-1,-2.2406532E-1,4.1772145E-1,-2.3859164E-1,5.5172388E-2,-4.6989426E-1,1.1278285E-1,5.115592E-1,-1.8592684E-1,-3.8162023E-1,2.0780091E-1,7.291576E-1,4.0733144E-2,-2.6790375E-1,1.1991296E-1,3.5555828E-1,-6.1008416E-2,-2.96752E-1,4.0410187E-2,5.55704E-1,-5.497013E-2,6.2407905E-1,-1.522809E-1,-2.6149902E-1,2.2025405E-1,1.6255958E-1,-5.273583E-1,4.4658902E-1,-1.6765288E-1,4.6772724E-1,-2.5630286E-1,-1.8120971E-1,-4.390962E-1,-2.2016253E-1,3.5045195E-1,1.4792061E-1,-5.1128453E-1,-1.6724825E-1,3.7953117E-1,-3.3054292E-1,3.061858E-1,-1.7626718E-1,6.93504E-1,1.549456E-1,-2.2328772E-1,-2.3896603E-3,-3.03326E-1,3.337434E-1,-3.350736E-2,1.2800954E-1,-2.661215E-1,-5.332716E-1,-1.24082915E-1,2.5335583E-1,-4.956332E-1,6.4739084E-1,-8.446937E-2,4.3244373E-2,-2.9540303E-1,1.4564642E-1,-5.099123E-1,6.0475904E-1,-2.2591388E-1,9.1779244E-1,1.8370555E-1,-1.8884222E-1,4.7421694E-1,-3.5496536E-1,-1.5638726E-2,-5.6261015E-1,9.247101E-3,-2.761704E-1,1.53311E-1,3.4827854E-2,-3.0007225E-1,-1.7049766E-1,4.3255964E-1,-4.6415997E-1,1.5064973E-1,1.12096295E-2,-2.9367667E-1,-3.2272372E-2,4.0320423E-1,4.9029785E-1,4.5542113E-2,-2.047047E-1,4.2988658E-1,-3.8117036E-1,4.1362906E-1,-2.056832E-1,6.4945185E-1,2.919483E-1,-3.8981858E-1,-2.8539377E-1,1.8548976E-1,-7.735898E-2,-5.9893996E-1,4.530535E-1,-3.225685E-1,-2.8647047E-1,1.2771821E-2,-2.2647567E-1,3.436729E-1,3.397123E-1,-1.7199539E-1,2.9642403E-1,-2.9799584E-1,4.0143076E-1,-1.6841531E-1,1.4298244E-1,4.4576836E-1,3.2549414E-1,-1.7713864E-1,7.578374E-2,-4.3704015E-1,5.982151E-1,-6.8265684E-2,-2.1237467E-1,1.9042663E-1,-1.369697E-1,-3.195495E-1,-6.2780894E-2,3.3790982E-1,4.0726632E-2,-2.4106124E-1,2.3863098E-1,-2.566344E-1,-1.6263746E-1,3.488749E-1,3.1823903E-1,-2.150366E-1,-3.6699477E-1,4.0843767E-1,-5.142407E-1,-1.6601975E-1,8.0341583E-1,-1.6850458E-1,3.134832E-1,-4.54781E-1,1.631497E-1,-2.2033124E-1,1.7318988E-1,5.585559E-3,-2.466582E-1,1.949673E-2,1.05163164E-1,-5.4683053E-1,-2.9241425E-1,2.882372E-1,4.820884E-1,1.2717249E-2,5.5111235E-1,-1.9043732E-1,-2.7262577E-1,-2.5184068E-3,-6.072773E-1,-1.5686011E-1,-2.85278E-1,1.02677725E-1,-2.4641598E-2,3.654555E-1,-3.2432124E-1,-1.4829789E-1,-2.5728387E-1,2.698837E-1,4.8293635E-1,-2.2286189E-1,-2.3028596E-1,1.7083512E-1,-1.6368748E-1,2.9439753E-1,3.472321E-1,-7.756114E-3],"categories":[],"categories_nodes":[],"categories_segments":[],"categories_sizes":[],"default_left":[0,0,0,0,0,0,0,0,0,0,0,0,0,0,0,0,0,0,0,0,0,0,0,0,0,0,0,0,0,0,0,0,0,0,0,0,0,0,0,0,0,0,0,0,0,0,0,0,0,0,0,0,0,0,0,0,0,0,0,0,0,0,0,0,0,0,0,0,0,0,0,0,0,0,0,0,0,0,0,0,0,0,0,0,0,0,0,0,0,0,0,0,0,0,0,0,0,0,0,0,0,0,0,0,0,0,0,0,0,0,0,0,0,0,0,0,0,0,0,0,0,0,0,0,0,0,0,0,0,0,0,0,0,0,0,0,0,0,0,0,0,0,0,0,0,0,0,0,0,0,0,0,0,0,0,0,0,0,0,0,0,0,0,0,0,0,0,0,0,0,0,0,0,0,0,0,0,0,0,0,0,0,0],"id":4,"left_children":[1,3,5,-1,-1,7,9,11,13,15,17,19,21,23,25,27,29,31,33,35,-1,37,39,41,43,-1,45,-1,-1,47,49,51,53,-1,-1,-1,55,-1,-1,57,-1,59,61,63,-1,65,67,-1,-1,69,71,-1,73,-1,-1,-1,-1,-1,-1,75,77,79,81,-1,83,85,87,-1,-1,-1,89,91,-1,93,95,97,99,101,103,105,-1,-1,107,-1,-1,-1,-1,109,111,-1,-1,-1,-1,-1,-1,-1,113,115,117,-1,119,121,123,-1,125,127,129,131,133,-1,-1,135,-1,-1,-1,137,-1,-1,-1,139,-1,-1,-1,141,143,145,147,-1,-1,149,-1,-1,-1,-1,-1,151,-1,-1,-1,-1,-1,153,-1,155,157,159,-1,161,163,-1,-1,-1,-1,-1,-1,-1,165,167,-1,-1,-1,169,-1,-1,-1,171,173,-1,175,-1,-1,-1,177,-1,179,181,-1,-1,-1,-1,-1,-1,-1],"loss_changes":[2.9460518E1,5.955353E-1,4.4112883E0,0E0,0E0,3.3644886E0,3.3564193E0,2.9451427E0,2.6888685E0,2.7303758E0,2.3702927E0,1.3587857E0,2.122298E0,2.0415354E0,2.9259865E0,8.3807635E-1,1.9864278E0,1.9834161E0,1.5998448E0,1.2093159E0,0E0,2.0416074E0,2.4491768E0,2.5484457E0,3.1463661E0,0E0,3.1852882E0,0E0,0E0,1.5792489E0,2.091949E0,1.7234507E0,7.4609214E-1,0E0,0E0,0E0,3.590622E-1,0E0,0E0,6.6439795E-1,0E0,3.1651173E0,1.6789465E0,2.3161743E0,0E0,2.7654295E0,5.597706E-1,0E0,0E0,1.4676286E0,2.3500032E0,0E0,2.1985636E0,0E0,0E0,0E0,0E0,0E0,0E0,2.9818442E0,2.0837064E0,7.385826E-1,1.8478254E0,0E0,5.13512E-1,1.9156909E0,1.5717502E0,0E0,0E0,0E0,4.065435E-1,9.9824834E-1,0E0,6.441536E-1,1.2821375E0,1.8357263E0,2.2666156E0,1.6753244E0,2.967278E0,7.071943E-1,0E0,0E0,1.5426228E0,0E0,0E0,0E0,0E0,3.704046E-1,2.4113066E0,0E0,0E0,0E0,0E0,0E0,0E0,0E0,1.3617438E0,1.85034E0,1.4341636E0,0E0,1.2388458E0,1.1847647E0,1.4873877E0,0E0,2.0900383E0,8.1846386E-1,6.474638E-1,9.1270363E-1,3.2081825E-1,0E0,0E0,1.0958725E0,0E0,0E0,0E0,1.0841644E0,0E0,0E0,0E0,1.6297425E0,0E0,0E0,0E0,2.5780063E0,1.1742067E0,1.7200677E0,2.0628343E0,0E0,0E0,7.6864284E-1,0E0,0E0,0E0,0E0,0E0,8.107765E-2,0E0,0E0,0E0,0E0,0E0,2.7751577E-1,0E0,1.2101517E0,1.5596948E0,7.87014E-1,0E0,1.387908E0,2.7697825E-1,0E0,0E0,0E0,0E0,0E0,0E0,0E0,9.5746803E-1,1.5234894E0,0E0,0E0,0E0,6.543344E-1,0E0,0E0,0E0,6.312971E-1,1.2595638E0,0E0,1.540466E0,0E0,0E0,0E0,8.4041154E-1,0E0,9.553524E-1,4.5705146E-1,0E0,0E0,0E0,0E0,0E0,0E0,0E0],"parents":[2147483647,0,0,1,1,2,2,5,5,6,6,7,7,8,8,9,9,10,10,11,11,12,12,13,13,14,14,15,15,16,16,17,17,18,18,19,19,21,21,22,22,23,23,24,24,26,26,29,29,30,30,31,31,32,32,36,36,39,39,41,41,42,42,43,43,45,45,46,46,49,49,50,50,52,52,59,59,60,60,61,61,62,62,64,64,65,65,66,66,70,70,71,71,73,73,74,74,75,75,76,76,77,77,78,78,79,79,82,82,87,87,88,88,96,96,97,97,98,98,100,100,101,101,102,102,104,104,105,105,106,106,107,107,108,108,111,111,115,115,119,119,123,123,124,124,125,125,126,126,129,129,135,135,141,141,143,143,144,144,145,145,147,147,148,148,156,156,157,157,161,161,165,165,166,166,168,168,172,172,174,174,175,175],"right_children":[2,4,6,-1,-1,8,10,12,14,16,18,20,22,24,26,28,30,32,34,36,-1,38,40,42,44,-1,46,-1,-1,48,50,52,54,-1,-1,-1,56,-1,-1,58,-1,60,62,64,-1,66,68,-1,-1,70,72,-1,74,-1,-1,-1,-1,-1,-1,76,78,80,82,-1,84,86,88,-1,-1,-1,90,92,-1,94,96,98,100,102,104,106,-1,-1,108,-1,-1,-1,-1,110,112,-1,-1,-1,-1,-1,-1,-1,114,116,118,-1,120,122,124,-1,126,128,130,132,134,-1,-1,136,-1,-1,-1,138,-1,-1,-1,140,-1,-1,-1,142,144,146,148,-1,-1,150,-1,-1,-1,-1,-1,152,-1,-1,-1,-1,-1,154,-1,156,158,160,-1,162,164,-1,-1,-1,-1,-1,-1,-1,166,168,-1,-1,-1,170,-1,-1,-1,172,174,-1,176,-1,-1,-1,178,-1,180,182,-1,-1,-1,-1,-1,-1,-1],"split_conditions":[1.42586E3,-9.665E-1,2.0642116E9,9.215297E-3,-3.104164E-1,1.4E1,8.217E-1,-4.6840277E-1,1.78E0,4.037518E-2,3.2E1,9.451E-1,-8.511E-1,9.583E-1,-7.25E-1,9.375E-1,8.966265E-2,1.6923428E-1,-7.346E-1,7.684E-1,2.0780091E-1,1.18989356E-1,-2.9791668E-1,4.6891667E-2,7.337963E-2,3.5555828E-1,-1.9791667E-1,-2.96752E-1,4.0410187E-2,4.78355E-2,4.999914E4,-4.6294117E-3,5.284852E-2,-2.6149902E-1,2.2025405E-1,1.6255958E-1,1.8E1,4.4658902E-1,-1.6765288E-1,8.9299664E-2,-2.5630286E-1,2.1875E-1,-7.469E-1,3.451923E-2,3.5045195E-1,-7.836E-1,3.568219E-2,-1.6724825E-1,3.7953117E-1,4.713076E4,-7.5E-1,-1.7626718E-1,2.2424667E-1,1.549456E-1,-2.2328772E-1,-2.3896603E-3,-3.03326E-1,3.337434E-1,-3.350736E-2,1.9E-1,2.0299697E-1,1.08E2,-8.375E-1,2.5335583E-1,7.778E-1,-9.059231E-2,-9.164E-1,4.3244373E-2,-2.9540303E-1,1.4564642E-1,2.1119144E9,-1.0714286E-1,-2.2591388E-1,-8.75E-2,-5.56E-1,1.5770224E-1,3.4E-1,6.62382E3,2.6714286E-1,3.2E1,9.247101E-3,-2.761704E-1,8.0026925E-2,3.4827854E-2,-3.0007225E-1,-1.7049766E-1,4.3255964E-1,1.8957119E-1,2.3501112E-1,1.12096295E-2,-2.9367667E-1,-3.2272372E-2,4.0320423E-1,4.9029785E-1,4.5542113E-2,-2.047047E-1,9.245E-1,2.2222223E-2,1.9209E4,-2.056832E-1,-3.0416667E-1,2.26E1,-6.500152E-3,-2.8539377E-1,1.024429E4,2.2E1,1.4027E4,2.4875E-1,-8.074E-1,-2.8647047E-1,1.2771821E-2,-1.3816667E-2,3.436729E-1,3.397123E-1,-1.7199539E-1,1.939E3,-2.9799584E-1,4.0143076E-1,-1.6841531E-1,8.875E-2,4.4576836E-1,3.2549414E-1,-1.7713864E-1,-2.4375E-1,5.9836735E-3,-2.375E-1,-8.486071E-2,-2.1237467E-1,1.9042663E-1,2.263E-1,-3.195495E-1,-6.2780894E-2,3.3790982E-1,4.0726632E-2,-2.4106124E-1,2.91E0,-2.566344E-1,-1.6263746E-1,3.488749E-1,3.1823903E-1,-2.150366E-1,8.439E-1,4.0843767E-1,-8.75E-1,2.8E1,-3.97E-1,-1.6850458E-1,-1.85E-1,1.6986844E9,1.631497E-1,-2.2033124E-1,1.7318988E-1,5.585559E-3,-2.466582E-1,1.949673E-2,1.05163164E-1,4.78E4,2.8E1,2.882372E-1,4.820884E-1,1.2717249E-2,2.5E1,-1.9043732E-1,-2.7262577E-1,-2.5184068E-3,2.6761365E-1,-8.257E-1,-2.85278E-1,-2.2E0,-2.4641598E-2,3.654555E-1,-3.2432124E-1,8.725521E-2,-2.5728387E-1,5.5E1,3.15E1,-2.2286189E-1,-2.3028596E-1,1.7083512E-1,-1.6368748E-1,2.9439753E-1,3.472321E-1,-7.756114E-3],"split_indices":[13,31,0,0,0,19,24,35,53,30,2,7,38,7,35,4,5,5,31,39,0,30,28,40,30,0,28,0,0,61,65,25,37,0,0,0,26,0,0,37,0,21,31,25,0,23,37,0,0,66,31,0,25,0,0,0,0,0,0,21,25,1,38,0,24,64,31,0,0,0,0,59,0,20,43,5,54,65,21,34,0,0,33,0,0,0,0,5,25,0,0,0,0,0,0,0,32,60,18,0,28,15,22,0,65,27,18,47,38,0,0,64,0,0,0,10,0,0,0,45,0,0,0,20,40,35,33,0,0,63,0,0,0,0,0,56,0,0,0,0,0,32,0,28,2,41,0,28,0,0,0,0,0,0,0,0,65,26,0,0,0,19,0,0,0,61,31,0,17,0,0,0,37,0,1,14,0,0,0,0,0,0,0],"split_type":[0,0,0,0,0,0,0,0,0,0,0,0,0,0,0,0,0,0,0,0,0,0,0,0,0,0,0,0,0,0,0,0,0,0,0,0,0,0,0,0,0,0,0,0,0,0,0,0,0,0,0,0,0,0,0,0,0,0,0,0,0,0,0,0,0,0,0,0,0,0,0,0,0,0,0,0,0,0,0,0,0,0,0,0,0,0,0,0,0,0,0,0,0,0,0,0,0,0,0,0,0,0,0,0,0,0,0,0,0,0,0,0,0,0,0,0,0,0,0,0,0,0,0,0,0,0,0,0,0,0,0,0,0,0,0,0,0,0,0,0,0,0,0,0,0,0,0,0,0,0,0,0,0,0,0,0,0,0,0,0,0,0,0,0,0,0,0,0,0,0,0,0,0,0,0,0,0,0,0,0,0,0,0],"sum_hessian":[4.8138242E2,1.604049E2,3.209775E2,1.4133451E0,1.5899156E2,2.5528043E2,6.569708E1,2.82379E1,2.2704253E2,3.5930294E1,2.9766785E1,1.09086275E1,1.7329271E1,1.9021712E2,3.6825397E1,1.0606672E1,2.5323624E1,2.428116E1,5.4856243E0,9.076439E0,1.8321882E0,8.978129E0,8.351143E0,1.7607368E2,1.4143446E1,4.77056E0,3.205484E1,8.598918E0,2.0077543E0,6.321149E0,1.9002474E1,2.0813246E1,3.4679163E0,3.6738985E0,1.8117259E0,1.3412693E0,7.73517E0,7.9188466E0,1.0592825E0,4.801046E0,3.550097E0,1.1824926E2,5.782442E1,9.313164E0,4.830282E0,2.235402E1,9.700821E0,1.055563E0,5.265586E0,1.0826384E1,8.17609E0,1.1107129E0,1.9702532E1,1.3285346E0,2.1393816E0,1.1587557E0,6.576414E0,3.3145964E0,1.4864497E0,2.536633E1,9.288293E1,4.3982647E1,1.3841775E1,2.328802E0,6.9843616E0,6.531095E0,1.5822924E1,1.1286917E0,8.572129E0,2.2840567E0,8.542326E0,6.010715E0,2.1653755E0,1.3126954E1,6.5755777E0,1.3482018E1,1.1884311E1,6.8256035E1,2.4626892E1,4.1743412E1,2.2392359E0,5.051609E0,8.790165E0,1.1418331E0,5.8425283E0,1.0767949E0,5.4543004E0,5.678555E0,1.0144368E1,1.1751077E0,7.367219E0,1.5490634E0,4.461652E0,1.2027134E1,1.0998209E0,1.7342561E0,4.8413215E0,1.0498032E1,2.9839861E0,1.7405571E0,1.0143754E1,3.1122794E0,6.514375E1,6.0606213E0,1.856627E1,3.125536E0,3.8617874E1,5.422597E0,3.3675685E0,4.5073366E0,1.1712184E0,6.2973604E0,3.847008E0,3.7531605E0,1.0881611E0,2.4356346E0,8.062397E0,1.9189038E0,1.0650823E0,3.7949376E0,6.348816E0,1.995962E0,1.1163173E0,5.9428334E0,5.9200924E1,6.5520763E0,1.2014195E1,1.8192863E0,1.3062497E0,3.4413128E0,3.5176563E1,1.6286567E0,3.7939403E0,1.0919733E0,2.2755952E0,2.4660227E0,3.8313375E0,1.0298225E0,1.4058121E0,1.9795467E0,1.815391E0,4.036153E0,1.9066805E0,4.5377617E1,1.3823305E1,5.488716E0,1.0633602E0,6.1394277E0,5.8747673E0,1.3331761E0,2.1081367E0,1.3185856E0,1.1474372E0,2.9142842E0,1.1218686E0,1.71842E0,4.36592E1,1.2330467E1,1.4928378E0,4.35042E0,1.1382959E0,4.727754E0,1.4116737E0,4.7141166E0,1.1606507E0,3.7317608E1,6.341592E0,6.9755936E0,5.354874E0,1.2568145E0,3.4709396E0,3.3853367E1,3.464239E0,3.3378882E0,3.0037036E0,3.232707E0,2.122167E0,2.152421E0,1.3118179E0,1.0363269E0,1.9673767E0,1.9934783E0,1.2392287E0],"tree_param":{"num_deleted":"0","num_feature":"67","num_nodes":"183","size_leaf_vector":"1"}},{"base_weights":[-2.4154393E-1,-3.0946776E-1,-6.92419E-2,-1.9617733E-1,1.325836E-1,-2.14725E-1,3.9522034E-1,-1.5844645E-1,2.4132268E-1,-1.360471E-1,-3.9537877E-1,6.147329E-1,-1.7868373E-1,3.1344637E-1,-2.2303277E-1,3.477864E-2,3.6981162E-1,-5.3877777E-1,-7.667377E-2,-4.5021656E-1,1.9304463E-1,8.829403E-2,3.6716956E-1,-4.2334172E-1,-2.39502E-2,-4.8461106E-1,1.6277568E-1,-4.409966E-2,4.5496264E-1,-3.1279042E-1,4.4935137E-2,2.3961532E-1,-1.352487E-1,2.7072746E-1,-4.8931018E-1,3.0047643E-1,-2.3572448E-1,2.6956612E-1,-3.0963528E-1,-3.60011E-1,3.6444926E-1,1.1019437E-2,-2.90723E-1,4.487002E-1,-1.2793665E-1,2.3207347E-1,-2.8243753E-1,4.9126488E-1,-2.0281523E-1,7.3081636E-1,-1.3217817E-1,2.808396E-1,-2.0065409E-1,3.248667E-1,-1.6249391E-1,1.8596843E-1,-5.2860886E-1,-1.9813909E-1,3.2965902E-2,3.6318925E-1,-1.9641297E-1,1.5601677E-1,-2.918592E-1,-2.0834044E-1,6.171664E-1,1.5813695E-2,7.9989403E-1,3.3167303E-1,-4.517764E-1,1.6842589E-1,-4.58166E-1,-8.698126E-2,5.5229163E-1,4.1509256E-1,1.5315129E-1,4.0333796E-1,-4.9384418E-1,-2.2623378E-1,4.442103E-1,-5.1645803E-1,-1.2341474E-1,-1.8799362E-1,2.9780266E-1,1.6727008E-1,-5.5915356E-1,-5.5566363E-2,4.2856908E-1,-3.8802177E-1,2.801477E-1,1.3816375E-1,4.2823786E-1,-2.6013896E-1,6.8159467E-1,4.262857E-2,-2.996485E-1,-2.0517458E-3,-2.766696E-1,-2.4442314E-1,2.8499022E-1,5.8556E-1,-1.776408E-1,3.7560195E-1,-1.0056857E-2,1.6761405E-2,-2.945505E-1,6.491725E-1,-2.2869429E-1,-5.629024E-1,4.3300938E-2,-2.112462E-2,-5.070312E-1,-3.0227312E-1,-6.2082744E-1,5.2117384E-3,-2.5456482E-1,-1.9390924E-1,-4.824193E-3,3.969181E-1,1.176306E-1,6.447432E-1,5.4078866E-2,-1.7460908E-1,1.4940393E-1,7.826776E-1,-1.9739196E-2,-2.0861821E-1,5.1357068E-2,1.6249103E-2,-3.046802E-1,-2.0063318E-1,1.9214535E-1,-3.0744684E-1,-5.14702E-2,1.12264164E-1,-2.785281E-1,-3.206626E-1,1.7464558E-2,1.2934814E-2,6.829387E-1,-2.3434207E-1,3.0624866E-1,4.2407024E-1,1.30732E-1,-3.1602773E-1,2.5634578E-1,-4.455557E-1,4.0400174E-1,-2.213506E-1,2.4170807E-1,3.1717062E-1,-2.7012452E-1,4.3123427E-1,8.023709E-1,1.5882295E-1,-3.834527E-1,-2.1070673E-1,5.56407E-1,4.1366328E-2,-2.764365E-1,5.3160214E-1,-2.3730485E-1,-2.0813815E-1,1.5130099E-2,-2.2991927E-1,5.961178E-1,8.448863E-1,1.5271319E-2,1.24660574E-1,-4.3997055E-1,4.1403747E-1,-4.0662825E-2,6.433126E-1,-2.007282E-1,7.8029567E-1,-5.4034766E-2,1.2383767E-1,4.363876E-1,-3.0175838E-1,-1.9040228E-1,8.0858237E-1,-9.3816854E-2,1.1570958E-1,4.2307493E-1,1.3861325E-1,-1.9035693E-1,-4.645987E-1,4.6193483E-1,1.658634E-1,4.7609246E-1,1.6677631E-1,-2.103253E-1,2.6182752E-2,-2.7663398E-1,6.5311384E-3,3.3617073E-1,3.0419523E-1,-1.8525887E-1],"categories":[],"categories_nodes":[],"categories_segments":[],"categories_sizes":[],"default_left":[0,0,0,0,0,0,0,0,0,0,0,0,0,0,0,0,0,0,0,0,0,0,0,0,0,0,0,0,0,0,0,0,0,0,0,0,0,0,0,0,0,0,0,0,0,0,0,0,0,0,0,0,0,0,0,0,0,0,0,0,0,0,0,0,0,0,0,0,0,0,0,0,0,0,0,0,0,0,0,0,0,0,0,0,0,0,0,0,0,0,0,0,0,0,0,0,0,0,0,0,0,0,0,0,0,0,0,0,0,0,0,0,0,0,0,0,0,0,0,0,0,0,0,0,0,0,0,0,0,0,0,0,0,0,0,0,0,0,0,0,0,0,0,0,0,0,0,0,0,0,0,0,0,0,0,0,0,0,0,0,0,0,0,0,0,0,0,0,0,0,0,0,0,0,0,0,0,0,0,0,0,0,0,0,0,0,0,0,0,0,0,0,0,0,0,0,0],"id":5,"left_children":[1,-1,3,5,7,9,11,13,15,17,19,21,-1,-1,23,25,27,29,31,33,35,-1,-1,37,39,41,43,45,47,-1,-1,49,51,53,55,-1,57,59,-1,61,63,-1,-1,65,67,-1,69,71,-1,73,75,77,79,-1,-1,81,83,-1,-1,-1,-1,-1,-1,-1,85,87,89,91,93,-1,95,97,99,-1,-1,101,103,-1,105,107,109,-1,-1,-1,111,-1,-1,113,-1,-1,-1,115,117,-1,-1,-1,-1,-1,-1,119,-1,-1,121,-1,-1,123,125,127,-1,129,131,133,135,-1,-1,-1,-1,-1,-1,137,139,-1,-1,141,-1,-1,-1,-1,-1,143,145,-1,147,149,-1,-1,-1,-1,151,-1,-1,-1,-1,153,155,157,159,-1,-1,-1,161,163,165,-1,167,-1,169,-1,-1,171,-1,-1,-1,-1,173,175,-1,-1,177,-1,-1,179,-1,181,183,-1,-1,-1,185,187,189,-1,-1,-1,-1,191,193,195,-1,-1,-1,-1,-1,-1,-1,-1,-1],"loss_changes":[3.1554125E1,0E0,8.601458E0,2.3433313E0,4.147127E0,2.7929049E0,1.312175E0,1.9617652E0,2.5061207E0,3.3312423E0,2.030672E0,1.5788841E-1,0E0,0E0,1.3428475E0,2.572281E0,2.0787873E0,1.0360546E0,2.331326E0,1.6939659E0,1.1622251E0,0E0,0E0,2.454774E0,2.490607E0,3.8895988E-1,2.6207943E0,1.4487904E0,1.7155409E0,0E0,0E0,3.7034934E0,2.9230404E0,9.999243E-1,1.5023956E0,0E0,1.9869609E-1,1.6201981E0,0E0,1.7147313E0,2.0105214E0,0E0,0E0,2.3847227E0,2.5416367E0,0E0,1.0278881E0,1.7073631E0,0E0,1.1110163E-1,2.5404289E0,1.9651273E0,2.170895E0,0E0,0E0,1.0640581E0,1.512145E0,0E0,0E0,0E0,0E0,0E0,0E0,0E0,1.3385653E0,1.9947835E0,2.0649433E-2,1.6722829E0,8.314898E-1,0E0,2.8624928E-1,1.6918137E0,1.4963655E0,0E0,0E0,7.874726E-1,4.0479803E-1,0E0,1.878978E0,5.4419947E-1,2.9292572E0,0E0,0E0,0E0,5.8731747E-1,0E0,0E0,2.5777334E-1,0E0,0E0,0E0,1.0519557E-1,5.4352522E-2,0E0,0E0,0E0,0E0,0E0,0E0,1.2716913E0,0E0,0E0,4.6733233E-1,0E0,0E0,9.390898E-1,2.7211082E-1,4.7780466E-1,0E0,2.342992E0,7.412286E-1,1.2686216E0,5.398607E-1,0E0,0E0,0E0,0E0,0E0,0E0,8.636637E-1,1.8206846E0,0E0,0E0,6.2196255E-2,0E0,0E0,0E0,0E0,0E0,1.8303205E0,3.9656253E0,0E0,1.0725111E0,1.205303E0,0E0,0E0,0E0,0E0,7.08477E-1,0E0,0E0,0E0,0E0,1.2725246E0,1.7068806E0,4.6885908E-1,2.6691425E0,0E0,0E0,0E0,1.7463249E-1,2.2502234E0,7.167101E-1,0E0,9.9646974E-1,0E0,1.0114408E0,0E0,0E0,2.2694716E0,0E0,0E0,0E0,0E0,1.4533715E0,1.4040852E-1,0E0,0E0,8.2893515E-1,0E0,0E0,2.2219987E0,0E0,1.3847637E-1,4.8828486E-1,0E0,0E0,0E0,2.1134007E0,1.1798201E0,7.1612334E-1,0E0,0E0,0E0,0E0,3.9442515E-1,3.3528167E-1,1.1411518E0,0E0,0E0,0E0,0E0,0E0,0E0,0E0,0E0,0E0],"parents":[2147483647,0,0,2,2,3,3,4,4,5,5,6,6,7,7,8,8,9,9,10,10,11,11,14,14,15,15,16,16,17,17,18,18,19,19,20,20,23,23,24,24,25,25,26,26,27,27,28,28,31,31,32,32,33,33,34,34,36,36,37,37,39,39,40,40,43,43,44,44,46,46,47,47,49,49,50,50,51,51,52,52,55,55,56,56,64,64,65,65,66,66,67,67,68,68,70,70,71,71,72,72,75,75,76,76,78,78,79,79,80,80,84,84,87,87,91,91,92,92,99,99,102,102,105,105,106,106,107,107,109,109,110,110,111,111,112,112,119,119,120,120,123,123,129,129,130,130,132,132,133,133,138,138,143,143,144,144,145,145,146,146,150,150,151,151,152,152,154,154,156,156,159,159,164,164,165,165,168,168,171,171,173,173,174,174,178,178,179,179,180,180,185,185,186,186,187,187],"right_children":[2,-1,4,6,8,10,12,14,16,18,20,22,-1,-1,24,26,28,30,32,34,36,-1,-1,38,40,42,44,46,48,-1,-1,50,52,54,56,-1,58,60,-1,62,64,-1,-1,66,68,-1,70,72,-1,74,76,78,80,-1,-1,82,84,-1,-1,-1,-1,-1,-1,-1,86,88,90,92,94,-1,96,98,100,-1,-1,102,104,-1,106,108,110,-1,-1,-1,112,-1,-1,114,-1,-1,-1,116,118,-1,-1,-1,-1,-1,-1,120,-1,-1,122,-1,-1,124,126,128,-1,130,132,134,136,-1,-1,-1,-1,-1,-1,138,140,-1,-1,142,-1,-1,-1,-1,-1,144,146,-1,148,150,-1,-1,-1,-1,152,-1,-1,-1,-1,154,156,158,160,-1,-1,-1,162,164,166,-1,168,-1,170,-1,-1,172,-1,-1,-1,-1,174,176,-1,-1,178,-1,-1,180,-1,182,184,-1,-1,-1,186,188,190,-1,-1,-1,-1,192,194,196,-1,-1,-1,-1,-1,-1,-1,-1,-1],"split_conditions":[1.36038E3,-3.0946776E-1,6.3E1,4.0358546E9,-4.6840277E-1,8.523E-1,1.028E3,6.5E1,3E-1,2.666E3,4.8828125E-1,-6.597E-1,-1.7868373E-1,3.1344637E-1,2.1E1,1.33E0,7.85E-1,3.75E-1,-2.4994516E-1,2.8025E-1,-2.9791668E-1,8.829403E-2,3.6716956E-1,3.6465656E-2,-4.199E-1,4.058E3,9.212E-1,-1.625E-1,1.6846795E-1,-3.1279042E-1,4.4935137E-2,-8.773E-1,1.31317E1,1.4463322E9,-1E-1,3.0047643E-1,-2.3E1,-5.423E-1,-3.0963528E-1,5.535714E-1,6.534091E-2,1.1019437E-2,-2.90723E-1,-2.888889E-1,-2.5625E-1,2.3207347E-1,-5.49E-1,1.513E-1,-2.0281523E-1,-4E-1,-8.225E-1,1.369E4,1.4983334E-2,3.248667E-1,-1.6249391E-1,6.5625E-1,3.15E-1,-1.9813909E-1,3.2965902E-2,3.6318925E-1,-1.9641297E-1,1.5601677E-1,-2.918592E-1,-2.0834044E-1,7.283E1,8.442E-1,-1.8888889E-1,6.041667E-1,2.4478E4,1.6842589E-1,1.4E1,3.1E1,5.3736E4,4.1509256E-1,1.5315129E-1,-8.297895E-2,3.737E-1,-2.2623378E-1,9.226E-1,1.337934E-1,1.0650039E-1,-1.8799362E-1,2.9780266E-1,1.6727008E-1,1.0709398E8,-5.5566363E-2,4.2856908E-1,-5.64E-1,2.801477E-1,1.3816375E-1,4.2823786E-1,2.0733E1,1.51E2,4.262857E-2,-2.996485E-1,-2.0517458E-3,-2.766696E-1,-2.4442314E-1,2.8499022E-1,1.6348861E-1,-1.776408E-1,3.7560195E-1,-2.625E-1,1.6761405E-2,-2.945505E-1,8.755E-1,-8.86E-1,1.0119949E-1,4.3300938E-2,4.154762E-3,7.8125E-1,8.822E-1,2.4541E4,5.2117384E-3,-2.5456482E-1,-1.9390924E-1,-4.824193E-3,3.969181E-1,1.176306E-1,6.13E2,9.379E-1,-1.7460908E-1,1.4940393E-1,3.590909E-1,-1.9739196E-2,-2.0861821E-1,5.1357068E-2,1.6249103E-2,-3.046802E-1,9.34E-1,8.876E-1,-3.0744684E-1,1.7348E-1,-8.915E-1,-2.785281E-1,-3.206626E-1,1.7464558E-2,1.2934814E-2,-4.753E-1,-2.3434207E-1,3.0624866E-1,4.2407024E-1,1.30732E-1,3.5510203E-1,5.4414064E-1,2E0,6.1995454E-2,-2.213506E-1,2.4170807E-1,3.1717062E-1,1.51352E3,7.84E2,-2.396E-1,1.5882295E-1,2.13E2,-2.1070673E-1,8.07E-1,4.1366328E-2,-2.764365E-1,2E-1,-2.3730485E-1,-2.0813815E-1,1.5130099E-2,-2.2991927E-1,-5.37E-1,-5.69E-1,1.5271319E-2,1.24660574E-1,1.84765E3,4.1403747E-1,-4.0662825E-2,-5.423E-1,-2.007282E-1,8.065E-2,7.3E1,1.2383767E-1,4.363876E-1,-3.0175838E-1,5.208333E-1,-8.921E-1,1.9267E-1,1.1570958E-1,4.2307493E-1,1.3861325E-1,-1.9035693E-1,3.2305904E8,5.285714E-1,2.8E1,4.7609246E-1,1.6677631E-1,-2.103253E-1,2.6182752E-2,-2.7663398E-1,6.5311384E-3,3.3617073E-1,3.0419523E-1,-1.8525887E-1],"split_indices":[13,0,1,0,35,32,11,1,21,9,5,6,0,0,27,56,24,5,33,48,28,0,0,37,62,10,7,59,30,0,0,38,12,0,5,0,17,62,0,4,61,0,0,35,3,0,41,63,0,41,23,18,25,0,0,29,36,0,0,0,0,0,0,0,16,7,59,4,18,0,19,27,9,0,0,25,32,0,39,37,37,0,0,0,0,0,0,41,0,0,0,12,1,0,0,0,0,0,0,37,0,0,28,0,0,24,31,4,0,40,29,39,9,0,0,0,0,0,0,57,7,0,0,21,0,0,0,0,0,7,39,0,8,38,0,0,0,0,62,0,0,0,0,36,4,1,33,0,0,0,13,57,6,0,11,0,32,0,0,61,0,0,0,0,43,43,0,0,13,0,0,23,0,25,1,0,0,0,4,38,8,0,0,0,0,0,36,26,0,0,0,0,0,0,0,0,0],"split_type":[0,0,0,0,0,0,0,0,0,0,0,0,0,0,0,0,0,0,0,0,0,0,0,0,0,0,0,0,0,0,0,0,0,0,0,0,0,0,0,0,0,0,0,0,0,0,0,0,0,0,0,0,0,0,0,0,0,0,0,0,0,0,0,0,0,0,0,0,0,0,0,0,0,0,0,0,0,0,0,0,0,0,0,0,0,0,0,0,0,0,0,0,0,0,0,0,0,0,0,0,0,0,0,0,0,0,0,0,0,0,0,0,0,0,0,0,0,0,0,0,0,0,0,0,0,0,0,0,0,0,0,0,0,0,0,0,0,0,0,0,0,0,0,0,0,0,0,0,0,0,0,0,0,0,0,0,0,0,0,0,0,0,0,0,0,0,0,0,0,0,0,0,0,0,0,0,0,0,0,0,0,0,0,0,0,0,0,0,0,0,0,0,0,0,0,0,0],"sum_hessian":[4.8491797E2,1.5118552E2,3.3373245E2,2.0489468E2,1.2883777E2,1.9928165E2,5.613035E0,3.492014E1,9.391763E1,1.4004338E2,5.923828E1,4.4873524E0,1.125683E0,1.9920067E0,3.2928135E1,3.650579E1,5.7411842E1,1.6956001E1,1.2308737E2,5.4403088E1,4.8351903E0,1.4933358E0,2.9940164E0,1.585201E1,1.7076124E1,6.6668324E0,2.9838957E1,9.877981E0,4.753386E1,1.4903079E1,2.0529222E0,1.8750248E1,1.0433713E2,2.4935334E0,5.1909557E1,2.2720785E0,2.563112E0,3.4114575E0,1.2440553E1,9.194079E0,7.882044E0,1.193697E0,5.4731355E0,1.4769374E1,1.5069584E1,2.8509676E0,7.027014E0,4.602169E1,1.512169E0,7.661923E0,1.10883255E1,1.3725573E1,9.061155E1,1.4685407E0,1.0249928E0,2.6495488E0,4.9260006E1,1.4680707E0,1.0950413E0,1.9618721E0,1.4495854E0,2.197548E0,6.996532E0,1.7681178E0,6.113926E0,7.083357E0,7.686017E0,6.219032E0,8.850553E0,1.350565E0,5.676449E0,4.352757E0,4.1668934E1,5.4342723E0,2.227651E0,4.4234037E0,6.664922E0,2.1783288E0,1.1547244E1,1.6689152E1,7.39224E1,1.15172E0,1.4978287E0,1.3434541E0,4.7916553E1,1.648308E0,4.4656177E0,4.2319365E0,2.8514202E0,1.3234497E0,6.3625674E0,2.4061544E0,3.8128772E0,1.9982381E0,6.852314E0,1.164386E0,4.512063E0,2.8594954E0,1.4932617E0,4.053777E1,1.1311643E0,1.9583344E0,2.465069E0,1.1188351E0,5.5460873E0,8.878255E0,2.6689887E0,1.5557581E1,1.13157E0,5.919366E1,1.4728738E1,1.0419406E1,3.7497147E1,1.1995026E0,3.032434E0,1.2306397E0,1.1755147E0,2.4245844E0,1.3882929E0,3.628423E1,4.2535415E0,1.1126397E0,1.3524295E0,7.3222013E0,1.5560541E0,1.5361025E0,1.1328862E0,1.1478137E0,1.4409767E1,3.2173008E1,2.7020653E1,1.1626256E1,3.1024814E0,4.1791754E0,6.240231E0,3.638192E1,1.1152258E0,2.206706E0,3.4077522E1,2.2799044E0,1.9736369E0,5.947919E0,1.3742824E0,2.593296E1,6.2400475E0,6.463129E0,2.0557526E1,1.8914018E0,1.2110795E0,1.4883003E0,2.6908748E0,1.2449918E1,2.1627604E1,2.1370869E0,2.3795874E1,1.7907623E0,4.4492855E0,1.1299306E0,5.333198E0,1.8295439E1,2.2620866E0,1.5506147E0,1.14026E0,1.6646818E0,1.0785235E1,2.0408752E1,1.2188523E0,1.6714095E0,2.2124464E1,2.910832E0,1.5384533E0,1.6616554E1,1.6788844E0,8.248417E0,2.536819E0,1.3513697E0,1.9057383E1,1.2508921E1,9.615544E0,1.3494137E1,3.1224174E0,1.3672099E0,6.8812065E0,1.3347385E0,1.2020806E0,6.9725647E0,2.6429796E0,2.857938E0,1.0636198E1,1.3441901E0,1.7782273E0,1.0807794E0,5.8917856E0,1.1824571E0,1.4605227E0,1.4924126E0,1.3655256E0],"tree_param":{"num_deleted":"0","num_feature":"67","num_nodes":"197","size_leaf_vector":"1"}},{"base_weights":[3.1802782E-1,3.2750863E-1,1.2142241E-1,2.782015E-1,-3.9117277E-2,-7.244718E-2,3.1215873E-1,2.0554835E-2,-4.8393315E-1,-3.4349355E-1,4.393816E-1,2.6854455E-1,5.22824E-1,4.2574283E-1,-1.838899E-2,-1.0287645E-2,-2.802927E-1,-2.8124514E-1,2.5688362E-1,2.8085974E-1,-1.6758233E-2,-2.1708153E-1,2.857358E-1,5.8232E-1,-1.6219136E-1,5.354255E-1,-1.7155439E-1,1.691349E-2,-3.8909665E-1,-1.6768065E-1,1.6790912E-1,2.1871403E-1,-3.9529182E-2,2.9860285E-1,-1.8710071E-1,2.4991128E-1,6.870646E-1,6.3779014E-1,-3.7318613E-2,-2.5316557E-1,4.094059E-2,1.3791113E-1,-2.782526E-1,2.3630907E-1,4.796619E-1,-1.8597388E-1,5.1918584E-1,1.07092485E-1,3.5516882E-1,-3.244956E-2,3.738455E-1,1.4471596E-1,-7.180128E-2,-1.4968395E-1,2.2753635E-1,-1.16218515E-1,2.9068345E-1,5.7502216E-1,-1.5013E-1,2.8663477E-1,8.053781E-2,2.2749643E-1,-2.50983E-1,-2.2201067E-1,1.457573E-1,-4.2030942E-1,2.3457053E-1,3.8083953E-1,1.317654E-1,6.101538E-1,-3.2943502E-2,1.388897E-1,-2.1919173E-1,-3.5287425E-1,2.8656256E-1,-2.6098788E-1,2.1117967E-1,7.397829E-2,-3.6277112E-1,3.012236E-1,-3.0448407E-1,2.6580324E-2,-2.760277E-1,-1.8740639E-1,2.4968635E-1,5.325764E-1,2.4887966E-1,2.2926761E-1,-2.4911416E-1,1.3142483E-1,6.530805E-1,-3.6465582E-3,-2.2063747E-1,5.599398E-2,4.4404304E-1,-1.6738594E-1,2.6739526E-1,3.2125244E-1,-3.690514E-1,-5.007662E-1,-7.390933E-3,-3.5794795E-2,5.434352E-1,-2.4894182E-1,1.20705165E-1,5.8886045E-1,-1.9035451E-2,4.2489478E-1,-1.16289124E-1,2.8628245E-1,-2.610197E-1,-4.0300418E-2,1.326877E-1,6.775194E-1,6.806135E-2,3.53209E-1,-1.8896809E-1,6.219113E-1,1.0417091E-1,5.3117657E-1,-1.03425875E-1,-2.202425E-1,-3.1938575E-2,1.0130836E-2,-2.8682634E-1,-2.7734324E-1,2.520393E-1,-2.9155886E-1,1.9626679E-1,6.661273E-1,7.5574785E-2,2.1732492E-2,6.19768E-1,4.7571167E-1,-1.13713E-2,2.7083734E-1,-3.5866496E-1,-1.0828095E-1,3.995578E-1,-1.8065844E-1,-1.3924632E-2,3.501005E-1,8.188564E-2,4.7996467E-1,-1.6032489E-1,2.884169E-2,-2.481791E-1,-5.2450135E-2,6.923611E-1,4.9703848E-1,-3.0320898E-1,1.6319512E-3,3.2160607E-1,7.7825025E-2,-2.3272718E-1,-2.4144083E-1,1.00121856E-1,3.5570294E-1,1.06060095E-1,1.0963595E-1,-4.8241325E-2,6.6768247E-1,2.576283E-1,5.888872E-1,1.4603429E-1,-6.648901E-2,2.4091677E-1,9.317796E-2,-2.577511E-1,-2.2299886E-1,1.6545223E-1,3.205669E-1,1.0277061E-1,-4.080144E-2,6.063448E-1,-3.3785182E-1,3.8699234E-1,8.384444E-2,3.5968947E-1,1.4262954E-2,2.9909107E-1,-2.4100578E-1,1.130086E-1,3.4647647E-1,9.730949E-2,-5.8325835E-2,2.2970952E-1,3.3150968E-1,1.7381547E-1,-1.9331011E-1,4.1879687E-1,-1.6160606E-1,2.1690814E-1,3.5097566E-1,-3.4246302E-1,3.2603827E-1,9.54003E-2,-1.2988437E-2,-2.1375285E-1,-1.5629184E-2,2.6548052E-1,1.3343343E-1,-2.8722777E-3,2.7635676E-1,-9.035617E-4,-1.6163643E-1,5.311037E-1,-2.0592164E-1,-3.6580548E-2,8.108867E-2,2.926225E-1],"categories":[],"categories_nodes":[],"categories_segments":[],"categories_sizes":[],"default_left":[0,0,0,0,0,0,0,0,0,0,0,0,0,0,0,0,0,0,0,0,0,0,0,0,0,0,0,0,0,0,0,0,0,0,0,0,0,0,0,0,0,0,0,0,0,0,0,0,0,0,0,0,0,0,0,0,0,0,0,0,0,0,0,0,0,0,0,0,0,0,0,0,0,0,0,0,0,0,0,0,0,0,0,0,0,0,0,0,0,0,0,0,0,0,0,0,0,0,0,0,0,0,0,0,0,0,0,0,0,0,0,0,0,0,0,0,0,0,0,0,0,0,0,0,0,0,0,0,0,0,0,0,0,0,0,0,0,0,0,0,0,0,0,0,0,0,0,0,0,0,0,0,0,0,0,0,0,0,0,0,0,0,0,0,0,0,0,0,0,0,0,0,0,0,0,0,0,0,0,0,0,0,0,0,0,0,0,0,0,0,0,0,0,0,0,0,0,0,0,0,0,0,0,0,0,0,0,0,0,0,0],"id":6,"left_children":[1,-1,3,5,7,9,11,13,15,17,19,21,23,25,27,29,-1,-1,31,-1,-1,-1,33,35,-1,37,-1,39,41,-1,-1,-1,-1,43,-1,45,47,49,-1,-1,51,53,-1,55,57,-1,59,-1,-1,-1,-1,61,63,-1,-1,65,67,69,71,-1,-1,73,75,77,79,81,83,85,87,89,-1,-1,-1,91,93,-1,95,97,99,101,103,-1,-1,-1,-1,105,107,109,-1,111,113,-1,-1,115,117,-1,-1,119,121,123,125,127,129,-1,-1,131,-1,133,135,137,139,-1,-1,141,-1,143,145,147,149,151,-1,-1,-1,-1,-1,153,-1,155,-1,157,159,-1,161,163,-1,165,167,169,171,-1,-1,-1,-1,173,-1,175,-1,-1,177,179,181,-1,-1,-1,-1,-1,-1,-1,-1,-1,-1,183,185,187,189,-1,-1,-1,-1,-1,191,-1,193,-1,195,197,199,-1,-1,-1,-1,-1,-1,-1,-1,-1,-1,-1,201,-1,203,-1,-1,205,207,-1,-1,-1,-1,-1,-1,-1,-1,-1,-1,-1,209,-1,-1,-1,-1],"loss_changes":[3.1517246E1,0E0,7.6224236E0,1.8458529E0,3.9991581E0,2.13905E0,1.144002E0,2.1139944E0,6.4111996E-1,1.4501699E0,3.312589E-1,1.5479803E0,1.3442383E0,1.1741719E0,1.6127237E0,5.0646746E-1,0E0,0E0,2.3720156E-1,0E0,0E0,0E0,1.0938473E0,5.8644867E-1,0E0,7.138896E-1,0E0,1.441574E0,1.0219018E0,0E0,0E0,0E0,0E0,1.172473E0,0E0,1.3299408E0,2.378416E-2,7.621765E-1,0E0,0E0,1.2854326E0,6.055616E-1,0E0,1.6974406E0,1.7806339E0,0E0,7.5013638E-3,0E0,0E0,0E0,0E0,1.9267508E0,1.7611487E0,0E0,0E0,1.4119699E0,1.031239E0,5.965471E-1,6.771897E-1,0E0,0E0,1.7372339E0,1.406538E0,1.3471985E0,1.6463972E0,4.6308124E-1,1.2132964E0,8.2114124E-1,1.8863486E0,3.975544E-1,0E0,0E0,0E0,1.4515644E-1,1.568085E0,0E0,9.80737E-1,1.3284659E0,1.0578685E0,1.4081768E0,7.745594E-1,0E0,0E0,0E0,0E0,7.0580673E-1,1.8074709E0,7.9224145E-1,0E0,1.1191913E-1,1.7731094E-1,0E0,0E0,1.4462944E0,1.502296E0,0E0,0E0,9.549495E-1,6.8252325E-2,6.031809E-1,1.1159018E0,9.965694E-1,5.214076E-1,0E0,0E0,3.0055285E-1,0E0,4.3553638E-1,1.0055212E0,1.092286E0,6.470445E-2,0E0,0E0,1.1977959E-1,0E0,9.149139E-1,7.533807E-1,9.336567E-1,1.7682661E0,3.3708727E-1,0E0,0E0,0E0,0E0,0E0,5.018823E-1,0E0,6.2507117E-1,0E0,8.678913E-3,1.0020672E-1,0E0,1.4570236E-1,5.413215E-1,0E0,4.3021515E-1,6.41757E-1,6.304986E-1,1.2568383E0,0E0,0E0,0E0,0E0,6.101123E-1,0E0,1.1033609E0,0E0,0E0,9.854126E-2,2.4469995E-1,6.372335E-1,0E0,0E0,0E0,0E0,0E0,0E0,0E0,0E0,0E0,0E0,5.0941944E-2,3.3816195E-1,2.597394E-1,9.793809E-1,0E0,0E0,0E0,0E0,0E0,6.720573E-1,0E0,1.1666483E0,0E0,3.7813187E-4,1.06138736E-1,2.702614E-1,0E0,0E0,0E0,0E0,0E0,0E0,0E0,0E0,0E0,0E0,0E0,5.50332E-2,0E0,2.3762721E-1,0E0,0E0,9.700891E-1,4.2654365E-2,0E0,0E0,0E0,0E0,0E0,0E0,0E0,0E0,0E0,0E0,0E0,1.6267419E-2,0E0,0E0,0E0,0E0],"parents":[2147483647,0,0,2,2,3,3,4,4,5,5,6,6,7,7,8,8,9,9,10,10,11,11,12,12,13,13,14,14,15,15,18,18,22,22,23,23,25,25,27,27,28,28,33,33,35,35,36,36,37,37,40,40,41,41,43,43,44,44,46,46,51,51,52,52,55,55,56,56,57,57,58,58,61,61,62,62,63,63,64,64,65,65,66,66,67,67,68,68,69,69,73,73,74,74,76,76,77,77,78,78,79,79,80,80,85,85,86,86,87,87,89,89,90,90,93,93,94,94,97,97,98,98,99,99,100,100,101,101,102,102,105,105,107,107,108,108,109,109,110,110,113,113,115,115,116,116,117,117,118,118,119,119,125,125,127,127,129,129,130,130,132,132,133,133,135,135,136,136,137,137,138,138,143,143,145,145,148,148,149,149,150,150,161,161,162,162,163,163,164,164,170,170,172,172,174,174,175,175,176,176,188,188,190,190,193,193,194,194,206,206],"right_children":[2,-1,4,6,8,10,12,14,16,18,20,22,24,26,28,30,-1,-1,32,-1,-1,-1,34,36,-1,38,-1,40,42,-1,-1,-1,-1,44,-1,46,48,50,-1,-1,52,54,-1,56,58,-1,60,-1,-1,-1,-1,62,64,-1,-1,66,68,70,72,-1,-1,74,76,78,80,82,84,86,88,90,-1,-1,-1,92,94,-1,96,98,100,102,104,-1,-1,-1,-1,106,108,110,-1,112,114,-1,-1,116,118,-1,-1,120,122,124,126,128,130,-1,-1,132,-1,134,136,138,140,-1,-1,142,-1,144,146,148,150,152,-1,-1,-1,-1,-1,154,-1,156,-1,158,160,-1,162,164,-1,166,168,170,172,-1,-1,-1,-1,174,-1,176,-1,-1,178,180,182,-1,-1,-1,-1,-1,-1,-1,-1,-1,-1,184,186,188,190,-1,-1,-1,-1,-1,192,-1,194,-1,196,198,200,-1,-1,-1,-1,-1,-1,-1,-1,-1,-1,-1,202,-1,204,-1,-1,206,208,-1,-1,-1,-1,-1,-1,-1,-1,-1,-1,-1,210,-1,-1,-1,-1],"split_conditions":[1.36038E3,3.2750863E-1,1.3E1,-9.46E-1,5.4066724E9,-8.294E-1,2.971E3,-2.263E-1,-8.663E-1,3.4845E-1,1.4536667E-1,2.1838E-1,9.13E2,1.155E4,1.1403E2,2.01795E1,-2.802927E-1,-2.8124514E-1,2.951E3,2.8085974E-1,-1.6758233E-2,-2.1708153E-1,9.811E-1,6E-2,-1.6219136E-1,4.0625E-1,-1.7155439E-1,4.765625E-2,9.24E-2,-1.6768065E-1,1.6790912E-1,2.1871403E-1,-3.9529182E-2,-2.37E-1,-1.8710071E-1,1.2E-1,-1.6287878E-1,-4.8E0,-3.7318613E-2,-2.5316557E-1,-2.4833333E-1,-2E-1,-2.782526E-1,-1.3668125E-3,4.2719E4,-1.8597388E-1,-1.3503703E-2,1.07092485E-1,3.5516882E-1,-3.244956E-2,3.738455E-1,-7.227E-1,-8.481E-1,-1.4968395E-1,2.2753635E-1,2.8E1,7.99051E-2,9.1E-1,9.4938636E-2,2.8663477E-1,8.053781E-2,3.465183E4,1.1014E-1,8.608E-1,1.81205E3,-4.090909E-2,7.885932E-2,3.086E3,-5E-1,6.4E-1,-3.2943502E-2,1.388897E-1,-2.1919173E-1,1.3320578E-2,8.009E-1,-2.6098788E-1,-6.588E-1,2.0299697E-1,1.5462963E-1,5.551E3,9.274E-1,2.6580324E-2,-2.760277E-1,-1.8740639E-1,2.4968635E-1,1.4120047E-1,-3.25E-1,7.345E-1,-2.4911416E-1,1.4705875E8,5.5E-1,-3.6465582E-3,-2.2063747E-1,-9.6875E-2,6.8505906E-2,-1.6738594E-1,2.6739526E-1,7.142E3,8.1E-1,-8.692E-1,3.1E1,8.553E-1,2.1E1,-2.4894182E-1,1.20705165E-1,6.93482E3,-1.9035451E-2,2.447E3,-8.921E-1,4.215E-1,3.59E2,-4.0300418E-2,1.326877E-1,-6.093E-1,6.806135E-2,1.24E2,1.2038669E-1,-4.97E-1,4.3E1,6.888889E-2,-1.03425875E-1,-2.202425E-1,-3.1938575E-2,1.0130836E-2,-2.8682634E-1,-9.094E-1,2.520393E-1,1.01E2,1.9626679E-1,9.062E-1,4.839E3,2.1732492E-2,1.56606E3,1.61E0,-1.13713E-2,4.4837663E-1,-8.964E-1,6.4809754E-2,8.2522415E-2,-1.8065844E-1,-1.3924632E-2,3.501005E-1,8.188564E-2,-9.416E-1,-1.6032489E-1,6.205E3,-2.481791E-1,-5.2450135E-2,3.4E1,1.5476E4,3.3E1,1.6319512E-3,3.2160607E-1,7.7825025E-2,-2.3272718E-1,-2.4144083E-1,1.00121856E-1,3.5570294E-1,1.06060095E-1,1.0963595E-1,-4.8241325E-2,2.896E3,2.1E2,9.226E-1,8.034E-1,-6.648901E-2,2.4091677E-1,9.317796E-2,-2.577511E-1,-2.2299886E-1,2.5735489E1,3.205669E-1,2.0174E4,-4.080144E-2,2.4E1,1.01920416E9,1.9E1,8.384444E-2,3.5968947E-1,1.4262954E-2,2.9909107E-1,-2.4100578E-1,1.130086E-1,3.4647647E-1,9.730949E-2,-5.8325835E-2,2.2970952E-1,3.3150968E-1,1.3292322E8,-1.9331011E-1,3.64E2,-1.6160606E-1,2.1690814E-1,9.201012E-2,8.504E-1,3.2603827E-1,9.54003E-2,-1.2988437E-2,-2.1375285E-1,-1.5629184E-2,2.6548052E-1,1.3343343E-1,-2.8722777E-3,2.7635676E-1,-9.035617E-4,-1.6163643E-1,7.72E-2,-2.0592164E-1,-3.6580548E-2,8.108867E-2,2.926225E-1],"split_indices":[13,0,1,31,0,38,10,64,23,64,25,46,11,10,16,12,0,0,9,0,0,0,7,5,0,21,0,5,25,0,0,0,0,44,0,51,3,17,0,0,28,3,0,22,18,0,33,0,0,0,0,31,38,0,0,19,37,29,8,0,0,66,45,39,13,59,30,9,17,56,0,0,0,22,32,0,31,25,61,10,39,0,0,0,0,30,35,63,0,0,21,0,0,59,30,0,0,10,4,6,19,24,27,0,0,65,0,10,38,7,11,0,0,38,0,1,37,44,34,30,0,0,0,0,0,38,0,1,0,32,11,0,13,54,0,4,23,40,30,0,0,0,0,38,0,10,0,0,1,9,19,0,0,0,0,0,0,0,0,0,0,9,57,39,32,0,0,0,0,0,19,0,18,0,27,0,27,0,0,0,0,0,0,0,0,0,0,0,0,0,57,0,0,30,24,0,0,0,0,0,0,0,0,0,0,0,63,0,0,0,0],"split_type":[0,0,0,0,0,0,0,0,0,0,0,0,0,0,0,0,0,0,0,0,0,0,0,0,0,0,0,0,0,0,0,0,0,0,0,0,0,0,0,0,0,0,0,0,0,0,0,0,0,0,0,0,0,0,0,0,0,0,0,0,0,0,0,0,0,0,0,0,0,0,0,0,0,0,0,0,0,0,0,0,0,0,0,0,0,0,0,0,0,0,0,0,0,0,0,0,0,0,0,0,0,0,0,0,0,0,0,0,0,0,0,0,0,0,0,0,0,0,0,0,0,0,0,0,0,0,0,0,0,0,0,0,0,0,0,0,0,0,0,0,0,0,0,0,0,0,0,0,0,0,0,0,0,0,0,0,0,0,0,0,0,0,0,0,0,0,0,0,0,0,0,0,0,0,0,0,0,0,0,0,0,0,0,0,0,0,0,0,0,0,0,0,0,0,0,0,0,0,0,0,0,0,0,0,0,0,0,0,0,0,0],"sum_hessian":[4.7590402E2,1.7448987E2,3.0141415E2,1.5212233E2,1.4929181E2,1.3330966E1,1.3879137E2,1.3247417E2,1.6817638E1,8.9305525E0,4.400414E0,1.16870346E2,2.192102E1,1.0745125E1,1.2172905E2,2.5005546E0,1.4317084E1,6.589893E0,2.3406591E0,3.3467834E0,1.0536306E0,2.2116666E0,1.1465868E2,2.077475E1,1.1462704E0,9.669324E0,1.0758007E0,1.1201613E2,9.712918E0,1.3054647E0,1.1950898E0,1.3259585E0,1.0147007E0,1.13002945E2,1.6557335E0,5.789042E0,1.4985708E1,8.241075E0,1.4282498E0,4.0366025E0,1.0797952E2,2.38405E0,7.3288684E0,8.5791374E1,2.7211573E1,1.6340631E0,4.1549788E0,1.1815345E0,1.3804174E1,1.1699657E0,7.0711083E0,5.6077934E1,5.1901592E1,1.0258231E0,1.3582268E0,1.1312327E1,7.447905E1,2.3708675E1,3.5028963E0,3.087821E0,1.067158E0,4.6727573E1,9.350361E0,3.0691048E1,2.1210543E1,5.953336E0,5.3589916E0,4.662926E1,2.7849789E1,2.2522106E1,1.18657E0,1.4245307E0,2.0783656E0,3.8568451E0,4.2870728E1,5.8126483E0,3.5377123E0,1.004436E1,2.0646688E1,1.601248E1,5.1980634E0,1.425794E0,4.5275416E0,1.4974649E0,3.861527E0,2.0277199E1,2.6352062E1,2.4668066E1,3.1817222E0,2.1875565E0,2.0334549E1,1.0061285E0,2.8507166E0,1.7948187E1,2.492254E1,1.3037374E0,2.233975E0,6.622775E0,3.4215848E0,1.4577215E1,6.0694737E0,7.052164E0,8.960316E0,3.9031894E0,1.2948738E0,1.842772E1,1.8494794E0,1.7670933E1,8.681129E0,2.2471033E1,2.1970327E0,1.0011501E0,1.1864064E0,1.9120071E1,1.2144789E0,7.9095526E0,1.0038634E1,1.5815722E1,9.106819E0,4.7348356E0,1.8879392E0,2.413303E0,1.008282E0,1.8775533E0,1.2699662E1,4.272311E0,1.7971625E0,4.615475E0,2.4366891E0,6.7630053E0,2.19731E0,1.1173425E0,1.7310375E1,1.5813078E1,1.857855E0,3.2972627E0,5.383867E0,5.022084E0,1.744895E1,1.151946E0,1.0450866E0,1.7964045E1,1.1560254E0,6.89947E0,1.0100825E0,6.4057994E0,3.6328347E0,1.3543421E0,1.446138E1,4.523946E0,4.582873E0,1.0090963E0,3.7257392E0,1.3461994E0,2.9261117E0,3.3358786E0,1.2795963E0,5.6341567E0,1.1288488E0,1.0478046E0,1.1495055E0,1.4542547E1,2.767829E0,1.1186568E1,4.6265097E0,1.2584802E0,2.0387826E0,1.1610212E0,4.2228456E0,1.9665494E0,3.0555348E0,8.979586E0,8.469364E0,1.3325623E0,5.566908E0,3.1931555E0,3.212644E0,1.0611432E0,1.3400237E1,1.0308636E0,3.4930823E0,3.4922183E0,1.0906547E0,1.3363847E1,1.1787004E0,1.1173306E0,1.6504985E0,8.984558E0,2.2020102E0,1.4254491E0,3.2010605E0,1.0107253E0,2.0448098E0,5.573822E0,2.8955421E0,4.5022154E0,1.0646921E0,1.0009482E0,2.1922073E0,1.0231423E0,2.1895015E0,1.1301293E0,1.0718808E0,2.1897638E0,1.0112967E0,1.0075848E0,4.566237E0,1.8815095E0,1.0140327E0,1.0956657E0,3.4705715E0],"tree_param":{"num_deleted":"0","num_feature":"67","num_nodes":"211","size_leaf_vector":"1"}},{"base_weights":[-2.1174423E-1,-5.5692846E-1,-7.008336E-2,2.8793495E-2,-2.8237495E-1,-1.16274595E-1,9.818986E-2,1.2998883E-1,-1.4930867E-1,-6.702873E-2,2.84565E-1,-1.8240626E-1,3.166482E-1,-1.9077608E-1,5.3154E-2,-4.5824444E-1,6.328561E-2,3.4438342E-1,-1.933392E-1,-3.6697283E-1,2.4280064E-1,5.5956674E-1,1.8938042E-2,-2.8563142E-1,-9.275433E-2,2.0857109E-1,-3.0301437E-1,6.845957E-3,-2.6377115E-1,-3.0751598E-1,2.1645033E-1,4.3001404E-1,-1.02508724E-1,1.12028524E-1,-2.6209933E-1,-5.1256783E-2,2.3361823E-1,3.3569536E-1,-3.7361737E-2,4.4023955E-1,-3.6436772E-1,-3.5618368E-1,-7.02847E-2,-2.7166125E-1,4.0546663E-2,-3.3386254E-1,3.2206067E-1,2.3028131E-1,-4.743744E-1,1.4889821E-1,-2.6270893E-1,-5.5575702E-2,4.386019E-1,-1.6207187E-1,4.871831E-1,1.7924252E-1,-2.1450362E-1,2.902309E-1,-1.3738574E-3,-2.3350163E-1,9.276032E-3,-3.9784437E-1,2.0583443E-1,2.8358814E-1,-2.2217944E-1,6.642875E-2,-3.598456E-1,1.2729213E-1,-2.9040042E-1,-2.2902279E-1,2.4686057E-2,6.597283E-1,8.30922E-3,-1.573331E-2,-2.6448298E-1,2.9940045E-1,-2.3787457E-1,-1.0904002E-1,6.1279804E-1,5.508742E-1,-1.614212E-1,1.1673267E-1,-4.2527804E-1,2.3861645E-1,-1.587975E-1,-1.6360295E-1,4.8879874E-1,8.539202E-2,-4.5876724E-1,-2.9146087E-1,3.5158202E-1,-1.0424103E-2,-5.33977E-1,2.0304672E-1,-3.5828677E-1,1.296104E-1,-4.5520514E-1,3.676408E-1,6.4254895E-2,2.8453285E-1,-3.8597223E-1,2.5701535E-1,-7.9612255E-2,3.5189426E-1,6.370028E-2,6.246072E-1,6.312944E-2,1.3490663E-1,-4.474157E-1,-2.1949196E-2,3.151157E-1,-3.0607808E-1,4.4087115E-1,-2.628512E-1,9.708012E-3,-2.597355E-3,-1.9388579E-1,2.8521022E-1,-5.1972385E-2,2.618279E-1,-3.629915E-1,3.667225E-4,-2.8311807E-1,2.6823867E-2,4.2435616E-1,2.2790993E-2,-2.317347E-1,4.7112145E-3,-2.6370814E-1,4.3555388E-1,-1.5258764E-1,-8.917578E-3,-2.3650467E-1,6.805953E-1,-8.869935E-3,-1.8104772E-1,2.24769E-1,-1.6288319E-1,-5.242281E-1,1.4492777E-2,-2.1291876E-1,4.151156E-2,2.6293445E-1,-1.5445796E-1,4.4395655E-1,-2.2577083E-1,-9.581299E-3,-3.1317076E-1,3.070283E-1,5.433406E-1,-1.8181786E-1,3.1210274E-1,4.011091E-3,7.2282106E-1,8.543278E-2,1.5918742E-1,-2.5496894E-1,3.002459E-2,-5.5579996E-1,-7.171178E-3,2.8109396E-1,1.5411536E-1,-4.4332454E-1,5.000998E-1,-1.939042E-1,6.4514744E-1,-6.905809E-2,9.465796E-2,3.7798265E-1,4.4110727E-1,-2.7915525E-1,8.250342E-3,-5.7624614E-1,1.431191E-2,-2.5827214E-1,6.315879E-1,1.3620394E-3,-1.686581E-2,7.154862E-1,-2.4128964E-2,2.9322547E-1,-2.0711433E-2,-1.8201667E-1,-2.961374E-1,-2.3840861E-2,1.045731E-1,